[[ 0.68439906 -0.83731768  0.89313641  0.13452605  0.00652413  0.58977185
   0.86009369 -0.15438864 -0.91341547 -0.09782692 -0.77229848 -0.07556372
   0.60714741 -0.89351757 -0.96275227  0.88842855  1.04388945 -0.13561536
  -0.71661843  0.79847519  0.81242272 -0.29806857 -0.05216582 -0.16503609
   0.62353155 -0.8757132  -0.16286078  0.66020703  0.49749821 -0.83705462]
 [-0.50125109  1.13580593 -0.78321149 -0.87336489 -0.12638153 -0.71466448
   0.8799428   0.43698945  0.05183445 -0.27438957  0.16131268 -0.09495635
   0.6750385  -0.42631496  0.20048879 -0.55680744 -0.25011676 -0.24010333
  -0.78979709 -0.17786766 -0.20598396 -0.2496925   0.60178852  1.13194039
  -0.783615   -0.61770467  0.52330157  0.16168339  0.70328857  0.35942965]
 [-0.9735144  -0.13239517  0.66989809 -0.81700555 -0.12657473  0.20918648
   0.57969623  0.28741665  0.55920131  0.35562768  0.43778936  0.56023495
   0.50551225  0.09559404  0.25220552 -0.08307915 -0.22870055  0.32612643
  -0.22827445 -0.60194918  0.54968966  0.40057873 -0.89744539 -0.21596735
   0.90186954 -0.40524504  0.75297347 -0.68252121  0.37098995 -0.55441208]
 [ 0.91601228  0.8264135   0.68085212 -0.03346485 -0.06907087 -0.38526417
   0.0232239  -0.6995937   0.21265054 -0.34013101 -0.34539094 -1.08412413
  -0.44484132 -0.64475251  0.15695094  0.13772031 -0.88919996 -0.51565706
  -0.71330031 -0.29435058 -0.52888478  0.508402   -0.47435798 -0.44483363
   0.07553788  0.74941059  0.38889066  0.05624687 -0.07150342 -0.81356142]
 [ 0.00733444  0.88846423  0.73880811  0.44756074 -0.46440429  0.85685063
   0.26537916 -0.08395419 -0.1660952  -0.19578415 -0.16041416 -0.32959111
  -0.70802144  0.41757206  0.29812605 -0.54555572 -0.23419373  0.97023203
  -0.33615394 -0.79063675  0.03570544 -0.34518845  0.33993331 -0.36357448
   1.13532851  0.06815652  0.05296423  1.03601013  0.9627073  -0.29276359]
 [ 0.89348589  0.08393064  0.15164129  0.64602344 -0.41440338 -0.06159896
  -0.21488216  0.28603614 -0.95994854  0.35372128 -0.62937517  0.20065215
  -0.032827    0.10376082 -0.47450715 -0.36973265 -0.09340559  1.00531357
  -0.92505673  0.5701895  -0.62348036 -0.89691307 -0.5119257  -0.75417487
   0.20715005  0.51991392  0.08437145  0.27506195  0.16694913  0.29802368]
 [ 0.65520434  0.35066227 -0.06572402 -0.11765368 -0.76097414  0.57320186
   0.43450714 -0.77236632  0.29730845 -0.57696837  0.93356113  1.04371218
  -0.61926846 -0.37498301  0.26742323  0.44935256 -0.78757822  1.06053359
   0.43016288 -0.16990297 -0.0430079   0.85892751  0.72185926  0.23188408
  -0.89214631  0.17676545  0.11155653  0.17197725 -0.83480239  0.29823852]
 [ 0.61380119 -0.94730874 -0.53769367 -0.92695874 -0.26903356 -0.09921679
   0.60521737 -0.07163055  0.08616849  0.41028992  0.5340901   0.21459168
   0.2548395  -0.48460695  0.64796286 -0.7216857  -0.90498007 -0.04746951
   0.88283268 -0.50207792 -0.37962816 -0.24398315 -0.93800041 -0.55632436
  -0.50099102  0.07759757 -0.18495556 -0.54418072  0.04712546 -0.5364937 ]
 [-0.73278103  0.03503611 -0.3171963   0.79042686  0.51859254 -0.51136329
   0.89619617  0.35644414 -0.22254189 -0.90215775  0.85930917 -0.92149704
   0.2623786   0.12186174  0.75640593 -0.82027444 -0.13026178  0.38461516
   0.3089955  -0.70252578  0.30456607  0.41368881  0.4061058   0.75713098
   0.26114702 -0.46972671  0.04772864  0.33892598 -0.00860568 -0.90899053]
 [ 0.17734035  0.20901797  0.68852191 -0.02805629 -0.91662688  0.46582542
   0.76525129  0.11942839 -0.29664641 -0.90154446 -0.23826897  0.94976626
  -0.88906497 -0.13289876  0.0260489   0.85528503  0.7648214   0.38340675
   0.32748801  0.90865024 -0.04569974  0.00492529  0.31125471 -0.43978696
   0.54861562 -0.23560736  0.81201602 -0.27634347 -0.82855296 -1.03171108]
 [ 0.16240425 -0.10844561 -0.48874434 -0.17031017  0.27310312  0.92539817
  -0.05765955 -0.39845444 -0.468226   -0.71756482 -0.76879991  0.56426091
  -0.42244331 -0.00976759 -0.02854351  0.24077348 -0.12603672  0.21063713
  -0.22739202 -0.15312978 -0.25253929  0.82470895 -1.0231388   0.77062234
  -0.25159196  0.41715506  0.7783438   0.24864068 -0.26363357 -0.20468368]
 [ 0.61532016 -1.00393537 -0.30828554  0.06194398 -0.96568359  0.12836511
  -0.12016762 -0.84464625 -1.07118918  0.57927402  0.61112984 -0.19982896
  -0.84379946 -0.8981653   0.41615042  0.64256577  0.39737616 -0.75085243
   0.88093342  0.55971477  0.1380525  -0.80375549  0.58504021 -0.99361895
  -0.03043429 -0.99880478  0.36660361  0.68432393 -0.49200312  0.90535128]
 [-0.99289724  0.72392994  0.90383367 -1.14987783 -1.09542708 -0.14506733
   0.23229672  0.4859481  -0.93191207 -0.41449022  0.20944646  0.83075924
   0.86085559 -0.74576073  0.18025479  0.43104255  0.18361374 -0.60510169
  -0.41347362 -0.67016629 -0.38781043 -0.83289869  0.00240944 -0.1766192
  -0.59359198 -0.03672402 -0.8456573   0.80230043  0.0668986   0.00261605]
 [ 0.28158536 -0.22630697  0.94065899 -0.54360984 -0.93096102  0.04610379
   0.51584876  0.18538645 -0.98152204  0.22021146 -0.85146791  0.30540475
   0.40070031  0.20250937  0.46909326 -0.01349436 -0.89505717 -0.063735
   0.00676468  0.41047987 -0.85013959  0.10008945 -0.06919875 -0.68564305
   0.51950997 -0.52706289 -0.82297121 -0.3677106  -0.04606283 -0.76459194]
 [-0.63894677  0.31128661 -0.29152213  0.32964868  0.15473638  0.42041703
  -0.04769988  0.66198848  0.35857325  0.74589495 -0.99823992 -0.94319195
  -0.90742769 -0.44785469 -0.92355042  1.04999652  0.37947532  0.39390312
  -0.28258485 -0.07238318  0.49658274 -0.44917674 -0.80069954 -0.78419223
  -0.96343482  0.6579612   0.2511946   0.98865876  0.57824361  0.63970828]
 [-0.68808546  0.46460865 -0.38253038 -0.1367954  -0.79868841  0.54066888
   0.59762649 -0.50800232 -0.25057152  0.86274991  0.07415428 -0.56124769
  -0.05666417  0.32136246  0.05800579  0.29939717 -0.98704852  0.66026175
  -0.52041086  0.53013685 -0.30727109 -0.39585234 -0.82769171  0.18488186
   0.69774682 -0.06052176 -0.71503206 -0.69712966 -0.67998599  0.93264883]
 [ 0.8838373  -0.61444586 -0.87189292 -0.12235836 -0.52771628 -0.89966728
  -0.4679983  -0.14272732  0.22000043  0.34051543  0.8692339  -0.66992405
   0.51835534 -0.87061017  0.5562238   0.29328646 -0.52052334 -0.64298309
   0.6708479  -0.24309969  0.13845843 -0.61635073  1.00937746  0.14678993
   0.2261907  -0.42530495  0.5918843  -0.05236252 -0.34933258  0.21307942]
 [ 0.85184061 -0.84560182  0.71900457  0.36998442  0.48008888  0.58032473
  -0.41533313 -0.6523826  -0.45649056  0.46671233 -0.39348388 -0.04660241
  -0.76463282 -0.26176915  0.8341834   0.58155638  0.18469659  1.04267864
  -0.75414156  0.62005749 -0.39697558  0.50790716 -0.13234195 -0.05593954
   0.99348469 -0.87791339 -0.38328499  0.91648849 -0.79086681  0.08018902]
 [ 0.69719252 -0.92044787  1.07124075  0.05459832  0.10961242  0.44367463
  -0.69244535  0.81556019  0.4208252  -0.86160644 -0.04205402  0.80821744
   0.96087353 -0.17288632  0.17785314 -0.80930661  0.04184511  0.23790267
   0.84816879 -0.55421942 -0.75198272  0.35765874 -0.21983214 -0.91634796
   0.23596736  0.4352992  -0.95029938  0.53394925  0.27707386  0.45722215]
 [ 0.56941739  0.53802911  0.32093651 -0.86296936 -0.14942109  0.76898406
  -0.48093693  0.6170201   0.0255489  -0.00198145  0.97731913  0.76445139
   0.59961311 -0.2453099  -0.3571235  -0.82922266  0.27740913  0.84121865
  -0.58879876  0.62085307 -0.51224712  0.81562756 -0.28942931 -0.88175202
  -0.56677071 -0.49623087  0.87334921 -0.8339275  -0.57805533 -0.62111562]
 [-0.25637563  0.45617228  1.05764488 -0.57528635 -0.12114105  0.15997497
   0.5934533   0.40369501 -0.35481648 -0.15954613  0.83523682  0.74493695
   0.41511996 -0.36911814  0.02274816 -0.58459618  0.59854479 -0.9340493
   0.41145165 -0.11130254 -0.40399361  0.70549651 -1.11569995 -0.87440051
  -0.61229158 -0.3756587   0.1218643  -0.49101634  0.87107852 -0.55449242]
 [-0.92433255  0.98300617  0.29035957 -0.86857185  0.53254026 -0.99376904
   1.24455864  0.32704432 -0.66214258  0.89601185  0.36344632 -0.08339349
   0.66006184 -0.52982721 -0.1083006   0.51344683  0.24310025 -0.32613743
  -0.58102486  0.08247554  0.48061348  0.08416872  0.47931382 -0.84147916
   0.23928968  0.74759692 -0.47163845  0.04992421 -0.14099148 -0.04675999]
 [-0.64859125  0.79533346 -0.03652274  0.55521278  0.82160944  0.6461971
  -0.29333988 -0.97831043  0.42548858  0.37138882  0.1431948   0.57555782
   0.0176835   0.11331201  0.08137766 -0.21459876  0.00255771 -0.74368557
  -0.08176062  0.59617055 -0.15677186  0.5541495   0.08349838 -0.23824401
  -0.7698321   0.9168268   0.7730552   0.16532621  0.2356918  -0.11156355]
 [ 0.12392128  0.27778906  0.16961738  0.38902212 -0.04790319  0.50389748
  -0.69603472  0.21432386 -0.85630545  0.53213883  0.72270225  1.0308046
  -0.07692539 -0.00263057  0.1482616   0.88878594 -0.35897265  0.21161898
   0.87815602 -0.18104499  0.71479198 -0.56597275  0.90258324  1.04896765
  -1.00946304  0.82282696  0.80467266  0.18368774 -0.48473124 -1.07583961]
 [-0.04628895  0.44979551 -0.8552609   0.41990824 -0.86008331  0.89680848
   0.52667422 -0.37275716 -0.86272471 -0.31781153  0.23190077  0.00349881
   0.53111198 -0.00803605 -0.32491066  0.00210623  0.34159143 -0.56006224
   0.91647201 -0.81626588 -0.84808137 -0.83948188  0.91110489  0.06511705
  -0.4067196  -0.98143211 -0.54820253  0.47539617  0.60362131 -0.46868464]
 [ 0.61950822 -0.02012746  0.06096786  0.0736982   0.4087806  -0.46705223
   0.46280843 -0.61826431 -0.74481584 -0.83075379  0.4447992   0.98012481
   0.68536745 -0.53991607 -0.2815448  -0.08245086  0.02595164 -0.61284278
  -0.78412347 -0.91541521  0.25120569  0.62145562  0.96499648  0.71350043
  -0.16390846  0.47970617  0.59498382 -0.96858379 -1.0239434  -0.61974674]
 [ 0.32247475 -0.15561114 -0.39994062 -0.61556329  0.20149322 -0.06531774
   0.80986975  0.52688213 -0.46587073  0.20674088 -0.03115954 -0.74758013
  -0.94208222 -0.56603864 -0.38810336  0.21069062 -0.48910444  0.10236629
   0.4725216   0.76599581  0.83540087  0.7260839   0.74657002 -0.92176129
  -0.01096606 -0.85206773 -0.63620085  0.39324813 -0.3173394   0.61407992]
 [ 0.01831392 -0.09216609  0.18910155 -0.92837294 -0.57223987 -0.94921769
   0.68585317  0.29365698 -0.98734831 -0.77583047 -0.35774356  0.24260468
   0.86276877  0.68296844  0.73172391 -0.59713185 -0.08706643 -0.64635587
   0.50834815 -0.00516109  0.7562098  -0.24434502 -0.55146681  0.35179854
   0.07187859 -0.31034527 -0.00497925 -0.77220115  0.64973388  0.53428497]
 [-0.92011229  0.02810737  0.06418074 -0.78887505 -0.86791177 -0.02041074
  -0.3724202   0.35866198 -0.3709197   0.78401962 -0.46915342  0.96820155
  -0.82557996 -0.14375643 -0.69062434  1.04982914 -0.25662301  0.53461783
  -0.82320884 -0.5619747  -0.07076454  0.44880501  0.63755718  0.38929462
   0.31084187 -0.62735939  0.28878101  0.21867127  0.55853231 -0.61458657]
 [ 0.69119248 -0.4831458  -0.76738966 -0.20405146 -0.73835467  1.01490341
   0.26187521 -0.27583513  0.00414389  0.0939061  -0.53056403  0.61628496
  -0.6630933   0.41728523 -0.25166145  0.14139718  0.26502899 -0.73607356
   0.50510659 -0.78305701  0.43644105 -0.25716756  0.53699327  0.41502896
  -0.40197033 -0.1500266  -0.29104683  0.4308253   0.28227124  0.86181494]
 [ 0.89461067 -0.62139612  0.18309905  0.65395269  0.82958481 -0.23887642
  -0.08818631  0.65758187 -0.53565494 -0.62485867 -0.95713935 -0.43738795
  -0.10087692 -0.50668521  0.28521406  0.8682642   0.97739124 -0.20942687
  -0.10172632  0.0145239   0.16502366  0.10121291  0.43283493  0.37344983
   0.93377091 -0.47629449  0.42225942  0.37025256  0.95915371 -0.79579903]
 [ 0.12929007  0.26223506  0.79465824  0.21181931 -0.85805088 -0.39326988
   0.43082921 -0.56516633 -0.25318443 -0.90749919 -0.83782154  0.74720359
   0.35177121 -0.81457584  0.82028324  0.35121547  0.05883428 -0.80040252
   0.34622714  0.20234271 -0.55545918  0.65358272 -0.39290149 -0.33493975
   0.12426841  0.80881149 -0.86367841 -0.75678975 -0.26948788 -0.38906599]
 [ 0.04112942  0.81910173 -0.42196964  0.01046431 -0.61280063 -0.10947866
  -0.79014577 -0.69690733  0.86869731  0.17070548  0.04331024 -0.72000924
  -0.30379629 -0.20874606  0.04212662  0.62337577  0.33615171  0.24381159
  -0.62545448  0.37894696  0.35430063  0.68222703  0.69416493 -0.20018255
   0.11214255  0.14144936 -0.58811398 -0.41021104 -0.0034242   0.66432121]
 [-0.7973077  -0.83348326 -0.80296542 -0.4093312  -0.52048101  0.94417141
   0.1192429  -0.65875518  0.05730278 -0.38899203  0.64301555  0.28652278
  -0.00996817  0.27155573 -0.18791497  0.28369828 -0.55314102  0.28476189
  -0.41981247  0.60258049 -0.2888609  -1.00033156 -0.48365605  0.45008371
   0.54294894 -0.18538236  0.54554389  0.39350831  0.23994301 -0.7933726 ]
 [-0.66964567 -0.36126622  0.72084372 -0.82020691 -0.63372385 -1.11455628
   0.90362664  1.05897741  0.0751511   0.80996348 -0.78675108  1.0434947
   0.29746714 -0.2030227  -0.46452245  0.60190551  0.31633452  0.61159702
  -0.34791667  0.79568579 -0.87813271 -0.76928349  0.00455238 -0.00705808
  -0.74534966 -0.54445808 -0.38262312 -0.01346121 -0.35176577  0.95555913]
 [-0.70099395 -0.71020281 -0.24788804 -0.57437462 -0.99046944  0.222834
   0.56801699 -0.12831279  0.74106933  0.65657084 -0.15862126  0.38478828
   0.30464471 -0.30263429  0.76436354 -0.52944078  0.51224634  0.98347053
  -1.02989005 -0.91212253 -0.5690391  -0.12141226 -0.62107629 -0.91598598
   0.30858409 -1.08701634 -0.83343577 -0.27526996  1.01248986 -0.27645437]
 [-0.55390239  0.71146278 -0.78141719  1.08654592 -0.31858663 -0.59636294
   0.2179227   0.00955243 -0.29587866 -0.89226465 -0.01465591 -0.95068468
  -0.33557643  0.90729109 -0.19982846 -0.35384551  0.16639093  0.62671502
  -0.0380846  -1.01930373  0.81691834  0.08708816  0.09182117 -0.49866025
  -0.3007932   0.8686332  -0.01572365 -0.97395281  0.38660276  0.38682705]
 [ 0.01309496  0.63068162  0.0478227  -0.36635624  0.48131077  0.29012655
  -0.46394823  0.33947839 -0.11118272 -0.90795045 -0.95766216 -0.57151497
  -0.43820834  0.27452678 -0.90784781  0.09726682 -0.87381826  0.58826487
  -0.12649665  0.45228961  0.59169673  0.58559991 -0.47022518 -0.00991576
   0.11059527  0.87902628  0.29767983 -0.38380436  0.26923005  0.30376885]
 [ 0.52759427 -0.2459623  -0.74080175  0.28227458 -0.67828417  0.16725384
   0.60721641 -0.67319787 -0.41305184 -0.06116495  0.64186213  0.92642039
  -0.10096238 -0.14061436  0.82826791  0.30612187 -0.08275482 -0.26496737
   0.29059285 -0.32852238  0.69099352 -0.19922098  1.00633683 -0.09125174
   0.13813523 -0.40367491 -0.87922735  0.88910437 -0.32449335 -0.16317763]
 [-0.28163489 -0.67073435  0.92997193  0.38205438 -0.23453896  0.76965421
   0.10488513 -0.37477662 -0.32470027 -0.49679903 -0.93111751 -0.86259552
   0.67272278 -0.24590157 -0.2103228  -0.92273442  0.95991994  0.98314066
  -0.38740612 -0.03720673 -0.08095096 -0.712019    0.15799298 -0.7351339
  -0.52707589 -0.96340456 -0.18422519 -0.70902974  0.93178602 -0.03787689]
 [-0.99617921 -0.26664567  0.7287314   0.65831878 -0.81267492 -0.40734155
   0.33780313  0.42792323  0.90685575  0.65064571 -0.08854703 -0.59935255
  -0.68261825 -0.84093287 -0.61654379 -0.41833418 -0.35874712  0.38294832
   0.23588197  0.68999853  0.71275465  0.40274635 -0.23332901  0.85973691
  -0.34033608 -0.34962585 -0.28640955  0.0045918   0.71227871 -0.31081914]
 [ 0.32304864 -0.37253193 -0.30244536 -1.09168873  0.55387817 -0.71065881
   0.19617809 -0.49228428  0.59214103 -0.59673256 -0.58057296  0.00459649
   0.22516752  0.30422806 -0.84211052  0.40360835 -0.57568145  0.77027256
  -0.72049963  0.49115924 -0.61499013  0.70076858  0.50774885  0.64421963
  -0.21988573 -0.72160864  0.58683254  0.01965945  0.12388762 -0.19646642]
 [-0.84944731  0.77001479 -0.24059788  0.21534147  0.9310976  -1.0204983
  -0.62289699  0.17637484 -0.57053295 -0.35051398  0.10272454  0.99889875
  -0.26706732 -0.56277794 -0.95297778 -0.12320465  0.08132154 -0.4051557
   0.55048759 -0.0418841  -0.66258608  0.26967896  0.47213911  0.82042788
   0.42998995  0.6174493  -0.01393661 -0.32074149  0.06220187  0.44958286]
 [-0.69734739 -0.51686528 -0.24767713  0.25559006 -0.29918095 -0.71042306
   0.16741507 -0.69418063 -0.59588027  0.52291827  0.25862677 -0.73363734
   0.35389157  0.80354542 -0.62966676 -0.55374887 -0.15245428  0.35143215
   0.53859989 -0.5505113   0.3588365   0.44661543  0.15979733 -0.59598183
   0.05787884  0.74545012 -0.83049674  0.26535638 -0.02499768 -0.64374691]
 [-1.02129881 -0.85949563 -0.41707234  0.02080344 -0.38705784 -0.52203881
  -0.12853903  0.07613044 -0.93870587 -0.54722709 -0.55035102  0.36162274
  -0.36057326 -0.41359031 -0.36441239 -0.2705437   0.25281563  0.26892417
  -0.8749054   0.89865002 -0.94005326  0.17519809  0.51097357 -0.85907303
  -0.35637036 -0.50800414 -0.19730477 -0.85131386  0.31581149  0.61837329]
 [ 0.95489153 -0.43827019  1.02737955 -0.66848805 -0.85351557 -0.14086937
   0.25099861 -0.16592682  0.25673334 -0.5581728   0.50897694  0.73841065
   0.50322181 -0.63568604 -0.13892874 -0.42496512 -0.3702778   0.09664405
   0.18895349  0.29503523  0.68325147  0.10188799  0.7578693  -0.10970995
   0.71646858  0.26102499  0.51069307 -0.86236806 -0.65097582 -0.38519165]
 [-1.01092284  0.42254206  0.67568861 -0.82541946  0.40751889 -0.01807618
  -0.23120808  0.3702204  -0.88187526 -0.06341949 -0.78874417 -0.7057671
  -0.16786167 -0.90845579 -0.16996174  0.65946965 -0.10661685  0.07062491
  -0.53161396 -0.22221848 -0.26562357  0.17672416  0.69779901 -0.77135687
  -0.54336138  0.04728268 -0.45383208  0.54429376  0.89497145 -0.38725731]
 [-0.24966846 -0.537712   -0.90861743  0.44815814 -0.58238939 -0.68057805
   0.65963714 -0.2957531  -0.87126866 -0.22852113  0.96928083  0.2935828
   0.55927721  0.25046123  0.38941241 -0.50278667 -0.26990216  1.02259807
   0.51663215 -0.6227548  -0.76703655  0.37857864  0.7751989   0.45388207
   0.25237618  0.10896661 -0.22143946  0.4330106  -0.78470053 -0.66024061]
 [-0.63974385  0.49317003  0.75407093  0.91623228 -0.26029812 -0.59733304
  -0.90366608  0.4446204  -0.88632967  0.74448606 -0.18376934 -0.79602806
  -0.39740176 -0.07169295 -0.65349548  0.90364315  0.41786155 -1.17289713
  -0.78422945 -0.81385415 -0.03985411 -0.583817   -0.20173581  0.60863141
   1.04168176 -0.12819189 -0.90710691  0.37437601 -0.89425468 -0.58685236]
 [ 0.3258648   0.37058688  0.73410071 -0.6109758   0.45725653 -0.95991251
   0.64030063  0.57806981  0.36286821 -0.86217009 -0.5229638   0.09862791
  -0.71734183 -0.45510111  0.42340217  0.38635344  0.94126244 -0.83599201
  -0.67529309 -0.94122945 -0.42416335  0.36725288  0.53496384 -0.63037434
  -0.40130794 -0.7135588   0.49959424  0.51688178  0.66780795  0.15514213]
 [-0.65593761 -0.08516983 -0.12837143 -0.28216237 -0.36883172 -0.01257123
  -0.19690556 -0.81991898  0.34182422  0.0072631   0.62367394 -0.07018093
  -0.50320316  0.35992459  0.39383653 -0.92689921 -0.87203607  0.69869759
  -0.41966647  0.91247101 -0.1048392   0.66532813  0.35705884  0.77360817
   0.86086089 -0.57439526  0.53320798 -0.53613367  0.88429725 -0.23813063]
 [ 0.87052005 -0.4884178   0.70192169  0.84854225  0.13109722  0.67269177
   0.74819385  0.1656848  -0.40000388  0.68230097 -0.73622234  0.31003357
   0.72345435  0.1727899  -0.48083807  0.7091072   0.38877923 -0.22469076
  -0.53710684  0.89791535  0.15787488 -0.43897781  0.4056783  -0.83839801
  -0.14812178  0.68436506  0.69806534  0.38825086 -1.00597147 -0.81515742]
 [ 0.15061519 -0.00758227 -0.21725126  0.51284037  0.93904497 -0.71356562
  -0.20930306  0.44564286 -0.79652158  0.71549883  0.44968696 -0.23886086
   0.76826026  0.78165448  0.97391848  0.32677487 -0.52600237 -0.67441376
   0.32598794 -0.18880921  0.14815329 -0.11422062 -0.14555942  0.69085798
   0.17559285 -1.02605922  0.50106081 -0.44899843 -0.74933581 -0.08972495]
 [ 0.85125479 -0.17330531 -0.25875909  0.14015239 -0.24584872 -0.140911
   0.7701627   0.19660118  0.43542319  0.1300239  -0.05938895 -0.66273538
  -0.72450768  0.90081019 -0.72786614 -0.3224318  -0.62424165 -0.03125491
   0.80070545  0.68041711  0.71531296 -0.98454376 -0.98386131 -0.61463152
   0.31545146  0.54164201  0.43223743 -0.49785113 -0.70250017  0.26075045]
 [-0.28225363 -0.67241332 -0.10288712  0.69929046  0.75059464 -0.75329958
   0.57522088  0.96296841 -0.64009574  0.19771432  0.66690306 -0.13093892
  -0.46802383 -0.967629   -0.27968303  0.81685399  0.62582462  0.97394128
  -0.17443401 -0.22385436 -0.1060433  -1.03364433 -0.69700647  0.55746865
   0.79244693 -0.13495176 -0.18238379  0.38297542 -0.10889488  0.68087319]
 [-0.16620053  0.36782561 -0.21707665  0.10996359 -0.4575235  -0.48917453
   0.36538768  0.21583687  0.01629237  0.48859635 -0.73732944  0.40776102
  -0.43342588  0.3053897  -0.3765638  -0.89782186 -0.2083956   0.23885803
   1.05458454 -0.07738775 -0.93463445  0.19049829  0.83825367  0.02163099
   0.52580645 -0.98061774  0.07136075  0.62427325  0.02232254  0.9091449 ]
 [-0.48119884  0.69275482 -0.69396399  0.95737064  0.68019451 -0.43446251
   0.00265837  0.43124072 -0.33510993 -0.59564969 -0.74044756  0.98331264
   0.560444   -0.00126748 -1.01854825 -0.77415706 -0.75419185 -0.5702416
  -0.02457207  0.03127295  1.09606072  0.69294696  0.46692035 -0.05621638
   0.12622979 -0.04830342  0.78644343  0.96492742  0.39456204 -0.78646023]
 [ 0.09906254  1.0554664   0.79983672 -0.27266053 -0.21855498  0.04002899
  -0.22324927  0.36202481  0.97083517 -0.99488166 -0.89662107 -0.0565227
  -0.80333201 -0.03637953  0.66218816  0.3599266   0.93024391  1.22164553
  -0.79865471  0.25620734  0.45913266 -0.74771967  0.94389398  0.35695847
   0.25013391 -0.83434368  0.06622253  0.81120148 -0.35490928 -0.07166576]
 [-0.31877373  0.12885817 -1.06915375  0.57333672 -0.37651432  0.57035659
  -0.12853742 -0.9214889  -0.30389     0.07669064 -0.29671713  0.12178173
  -0.3302371  -0.66076396 -0.22878791  1.03168119 -0.34802031 -0.57128495
   0.71467818 -0.7116917   0.69431805  0.94144582 -0.62639147 -0.56948126
  -0.56523415  0.73732179 -0.30995872 -0.79608655  0.2786403   0.05322884]
 [-0.91425628 -0.91659666  0.14668509  0.44299562 -0.63804175 -0.97473499
   0.25501857  0.42295231  1.01907516  0.41466494 -0.53830408  0.86158555
  -0.70527603 -0.4185288  -0.26316112  0.16599232  0.33789025 -0.79010301
   0.66331352  0.3354922  -0.95709251  0.2404223   0.68646292 -0.48136352
  -0.19984172  0.14819785 -0.407786    0.69250706 -0.83637997  0.25084207]
 [-0.89663995 -0.12024622  0.6896321  -0.49148787  1.00866283 -0.7534163
   0.03634472  0.44155094  0.84251802 -0.69883123  0.07485179  0.82105846
  -0.812167    0.47927926  0.53040465  0.41924345 -0.04577889  0.75664854
   0.9036744  -0.71689204  0.11404256 -0.14421386  0.5164348  -0.89052967
  -0.41307397 -0.84721763 -0.35042636 -0.65221085 -0.42160965  0.74023615]
 [-0.17212263  0.44309934  0.85107722  0.58399854 -0.65282066 -0.36437913
   0.86632368  0.4653875   0.86873468 -0.32076286  0.25243108  0.73267442
  -0.52770246  0.67869557 -0.20690114 -0.69452786  0.08050137  0.29116668
  -0.89129364  0.8330991  -0.18440225 -0.91159163  0.4358197  -0.19040198
  -0.58625371  0.65261323  0.62814494 -0.18416235  0.5244073  -0.08244785]
 [-0.56440945 -0.69427698 -0.44615805 -0.89085949 -0.07756806 -0.36450859
  -0.07105664 -0.45402565 -0.52290515 -0.37741834  0.24966815 -0.61289314
   0.43873602  0.12682617 -0.3037609  -0.54461996  0.18340438  0.18083553
  -0.90655563 -0.3289917   0.162474   -1.07905884  1.09222176  0.63743496
   0.0705617  -0.63865755 -0.67045034 -0.56900003  0.76198607  0.71894102]
 [ 0.94284892 -0.00348422  1.0448304  -0.81111589  0.53286353 -0.34604017
  -0.0866789  -0.07372061 -0.48825419  0.77008271  0.30444893 -0.29951866
  -0.94065954 -1.11663417 -0.4312164  -0.52407034  0.05638653  0.81278557
  -1.049359   -0.72849976 -0.39497521  0.56487548  0.07713874 -0.43873347
   1.07897801 -1.06001528 -1.10531685 -0.43284353  0.06923669  0.7395012 ]]
[[-0.90577231 -0.35414924  0.87131109 -0.70936398  0.34913058 -1.0787755
   0.09155225]
 [ 0.19100066 -0.96606068  0.09796946  0.43591594  0.03815052 -0.78151329
  -0.99040951]
 [-0.67989682 -0.00401521  1.02768327  0.17945681  0.65006581 -0.62400714
   0.26131787]
 [-0.86607415 -0.84145727  0.02494056 -0.5774284  -0.18138067 -0.50095589
  -0.81874023]
 [ 0.19299206  0.24825319 -0.42909675  0.1263894   0.37483893 -0.61765283
  -0.98087378]
 [-0.05358337  0.27498275  0.43572367  0.35814703 -0.38078532  0.20553567
  -1.1304831 ]
 [ 0.0746357  -1.90088279  0.69922816 -0.90899454  0.80253979 -1.47920979
   0.51008609]
 [-0.06960581  0.7305734   0.75022564  0.74446462 -0.86277847  0.02865034
  -0.83085549]
 [-0.48057915  0.43684627 -0.8011268  -0.39295898  0.02259437  0.62411495
  -0.27816559]
 [-0.68570813  0.21981579 -0.33503061 -0.12624362  0.57810137 -0.00248647
   0.49876089]
 [ 0.01737977 -1.10202553  0.6069763   1.15102165 -0.98204357  0.32414973
  -0.67848686]
 [ 0.47281698 -0.60919411 -0.08450717 -0.2756732   0.3926403   0.74556493
   0.62879648]
 [-0.80610241 -0.3777781  -1.13822297 -0.73317083 -0.44484479  0.95578259
  -0.21402488]
 [ 0.49801984  0.10666538 -0.64792455 -0.06689205 -1.0411189   0.71222737
   1.3149227 ]
 [-0.72741734 -0.63317864  0.04901799 -0.66080709 -1.22057713 -0.26160267
  -0.13917085]
 [-1.42811702 -1.27940831 -0.63243592 -0.6604222  -0.42358905 -0.5560918
   0.94525458]
 [-0.38194354  0.93390953 -0.61935252 -0.74469726  0.63565227 -0.21940508
  -0.66512956]
 [-0.03891976  0.2175939  -0.50528921 -0.69047438 -1.22473683 -0.4272657
   0.28257453]
 [-0.68300963  0.10086459 -0.85609832 -0.16523683  1.20791872 -1.09400682
  -0.49945554]
 [-0.88997602 -0.5687599  -0.06850806 -1.10485359 -1.05001681  0.85194103
   0.52314443]
 [ 1.33862146 -0.63970503 -0.59061699 -0.49729896  0.13514846  0.26366539
  -0.17541191]
 [-0.85278607  0.64279892 -0.64411822 -0.82768775  0.70828834 -0.21587222
   0.01707763]
 [-0.28032854 -0.10806042 -1.04614133  0.23139274 -0.58269289 -0.13262024
  -0.37996588]
 [ 1.07490382 -0.39823338 -1.03568173 -0.54638236 -0.51009324 -1.38538459
   0.94491737]
 [ 0.32174129  0.44538539 -0.93064859  0.32339737  0.09161109  0.13718159
   1.06690143]
 [ 0.71661403 -0.70444811 -0.44383125  0.50859112  0.60355139 -0.31558115
  -1.22450906]
 [-1.15075911 -0.75832105 -0.01190401  0.14491813  0.42484961  0.04460488
   0.38101821]
 [-0.78921204  0.55916562  0.96067033  0.24067505 -0.5640941   0.32644863
  -0.30010748]
 [ 0.96373631  0.39843428 -0.232255   -0.31093533 -1.84899364 -0.41748731
  -0.56102604]
 [-0.17254863  0.41991715 -1.01839908  0.46384413 -0.72358341 -1.23715834
  -1.16950202]
 [ 0.81601816  0.21530945  0.79468446 -0.23346227 -0.23620258  0.65817978
  -1.19539596]]
