[[ 8.97567248e-01 -3.67780896e-01 -6.65770458e-01 -5.66886758e-01
   1.70931432e-01  2.00095907e-01  8.98050071e-01  2.77050167e-01
   4.88030761e-01  3.25866118e-01  5.37940959e-01  9.34571777e-01
  -9.92437256e-01 -8.34149033e-01 -3.41931185e-01  3.16067046e-01
   5.85682992e-01  7.74290052e-01  9.55456396e-01  4.27414476e-01
   2.69116149e-01  4.23064952e-01  1.69109025e-02 -3.83619038e-01
  -1.44695719e-01  5.23533323e-01  1.00263488e+00  3.99439086e-01
   5.75991628e-01 -6.15399598e-01 -9.67845573e-01  6.29137269e-01
   7.82004177e-01 -9.55615506e-01 -2.25487208e-02  3.80739386e-02
   2.30131505e-01 -8.97483154e-01  8.19409871e-01  4.52721046e-01
   6.14320665e-01  1.51518384e-03  6.49588664e-01 -8.38871484e-01
  -5.57092755e-01]
 [-5.00884817e-01 -8.45784687e-02 -6.09638173e-02  4.49851037e-01
  -6.87987714e-01  5.64738419e-02 -6.60776063e-01  5.48880962e-01
   9.31150615e-01  2.50426760e-01 -6.59408151e-01 -9.67968102e-02
  -1.98620906e-01  6.81835185e-01  8.54153406e-01 -2.80947864e-01
  -3.45265184e-01  1.70272202e-01 -5.30897538e-01 -7.45912582e-01
   3.43539401e-01  5.80447263e-01  6.00280745e-02  9.28034990e-01
   2.24141072e-01  8.03593043e-01  2.80266101e-02 -3.48901104e-01
   4.34132543e-01 -4.32121503e-02 -5.58434624e-01 -4.93894936e-01
   5.60073735e-01 -2.99695505e-02  8.24502316e-01  8.58524038e-01
   7.85261942e-02 -4.94807826e-01  3.46459631e-01 -2.49651560e-01
   5.23294771e-02 -5.42381796e-01 -3.21344351e-01  3.13628777e-01
  -3.41256514e-01]
 [ 5.26663135e-01  5.24863164e-01  7.25120392e-01  9.29002302e-01
  -8.23610033e-01  8.01996964e-01 -3.25754397e-01  6.48464500e-01
   8.39516079e-01 -8.71569151e-01 -5.72554626e-01 -4.88523319e-01
   2.77347555e-01 -8.43410177e-01 -7.17380948e-01 -1.70021534e-02
   4.15678181e-01  7.49242492e-01  3.69839563e-01  1.67751310e-01
   3.90539328e-01 -5.08567601e-01  6.83084547e-01 -1.33830701e-01
  -1.00063095e+00  9.36319675e-01  2.93661253e-01 -2.69173868e-02
   3.72366599e-01 -7.35289908e-02  8.68922803e-01  4.78150167e-02
  -8.81195328e-01  1.14709085e-01  2.21233294e-01  8.52158951e-01
  -1.58152905e-01 -4.70867094e-01 -8.98753435e-01  5.56926521e-03
  -1.81269299e-02 -9.48388667e-01  3.60103985e-01  4.74700224e-01
   4.91468122e-01]
 [-1.77709749e-01 -9.58028340e-01  8.77427982e-01  5.65078277e-01
  -6.29762561e-01 -3.97876379e-01  2.15543812e-01 -2.78186559e-01
  -7.03294904e-01 -6.25970222e-01  7.71948382e-01 -3.94162399e-01
   2.13578085e-01 -5.82905824e-02 -1.62151754e-01  7.79633561e-01
   4.15395605e-01 -4.28480760e-01 -8.13350449e-01 -5.86116254e-01
   8.30083960e-01  6.94702506e-01  9.67230576e-01 -9.25758966e-01
   1.17509834e-01 -2.38815581e-02 -9.63982190e-01 -2.51157583e-01
  -1.76824131e-01  1.67837961e-01  3.59226152e-01  7.33086566e-01
   4.91826394e-01 -2.14445672e-01  5.80661792e-01  7.64196714e-01
  -4.74096706e-01  9.76303109e-01  6.88851548e-01  4.76398709e-01
  -2.70381725e-01  7.66447988e-01  6.96253418e-01  9.13740315e-01
  -9.50146111e-01]
 [-9.49192292e-01 -3.78033386e-01  9.91483684e-01 -7.14291368e-01
  -6.22050394e-01  5.16469632e-01 -8.99057343e-01  2.16825020e-01
  -1.36396814e-01 -1.02952105e+00  5.22205459e-01  6.10127471e-01
  -6.37505611e-01 -9.57900034e-01  5.04571997e-01 -5.75680895e-01
  -4.73173740e-01 -4.53247158e-02 -5.81231781e-01  1.36575690e-01
   6.49098204e-01 -2.04239662e-01 -8.68940175e-02  6.15522466e-01
  -2.94010512e-01 -9.24872628e-01  8.90612659e-02 -4.73010829e-02
   4.43879551e-01 -2.27746304e-01  7.64764376e-01 -3.00072532e-02
   7.41967493e-02  3.75918958e-01 -1.25716496e-01  2.46165268e-01
  -5.01430451e-01  4.64698218e-01 -1.34385926e-01 -5.89976309e-01
  -4.82256465e-01 -5.16386667e-01 -6.64589717e-01  5.49327415e-01
  -4.84543632e-01]
 [-7.79316565e-01  3.28683890e-01 -1.91076515e-01  3.52472170e-01
   2.82292192e-01 -4.06595313e-01 -5.84316314e-01 -7.14301687e-01
  -7.83128632e-01 -8.98078709e-01 -9.49865476e-01 -5.29360247e-01
  -4.97244241e-01  2.14073348e-01  7.19694949e-01  5.32760057e-01
   4.47411375e-01 -3.42338674e-01 -3.14802823e-01 -6.13151017e-01
   8.31628853e-01  1.54350948e-01  6.87224149e-01 -3.55383094e-01
   5.42702029e-01 -6.94593672e-01  3.85644956e-01  7.73634740e-01
   6.21540732e-01 -3.30280428e-01 -3.93695585e-01  4.00949006e-02
  -1.98605012e-01 -1.00949927e-01 -9.01005218e-01  2.32237953e-01
   4.98383266e-01  5.89398989e-01 -2.33676481e-01  6.33232889e-01
  -3.09134946e-02  4.32358636e-01 -5.63194748e-01 -8.57950513e-02
   6.95606735e-01]
 [ 6.35218105e-01 -6.67209741e-01 -9.83813390e-01  4.11637691e-01
  -3.50488590e-01 -1.64329854e-01  5.50753637e-01  9.42220771e-01
   8.82529449e-01 -6.52256756e-01  6.11551476e-01  3.42613258e-01
   9.86838647e-02  6.85569823e-01  5.51675500e-01 -8.17397685e-01
  -3.52516269e-01 -1.46680922e-01 -8.60190267e-01  1.11175007e-01
   3.86781032e-01 -2.92577215e-01 -1.69640648e-01 -2.02176242e-03
   1.11555438e-01 -6.83471785e-01  1.03345521e+00 -2.48329880e-02
  -1.73574239e-03 -6.00070346e-01 -4.36965803e-01  6.44262902e-01
  -4.00494741e-01  3.70291720e-01 -4.10722595e-01  8.24673805e-01
  -3.89762989e-01  7.97807406e-01  8.00547771e-01 -6.22474336e-01
  -2.14308965e-01  3.78212486e-01  8.81326609e-01 -7.00736899e-01
  -7.41156675e-01]
 [-1.70516216e-01  9.72943695e-01 -9.17719315e-01 -6.29468856e-01
   1.78182815e-01 -8.36568940e-01 -3.55815346e-01  2.00149369e-01
  -6.15290836e-01  4.69319659e-01 -4.91057335e-01  4.19307980e-01
  -4.23259543e-02 -5.03576708e-01 -4.90965095e-01  7.88151735e-01
  -4.55907047e-01  7.60150708e-01 -5.79087539e-01 -3.76505448e-01
   9.15917620e-01 -2.04451531e-02 -1.28647300e-01 -9.08118980e-01
   2.93950442e-01 -2.98679015e-01 -4.66603261e-01 -9.24962385e-01
  -3.15998499e-01 -8.51704759e-01 -9.91297550e-01 -9.09305755e-01
  -2.77374756e-01 -8.37420850e-01  2.53758960e-02 -5.50116422e-01
   9.82256997e-01 -4.54974690e-01  3.00587390e-01  8.14757598e-02
  -1.12873706e-01  3.21793239e-01 -6.91465316e-01  6.17006184e-01
  -7.20509825e-01]
 [ 2.25587125e-01 -5.52017686e-01 -9.37393876e-01  2.30588108e-01
   2.42092581e-01  2.73170681e-01  7.64900472e-01 -2.88761055e-01
  -1.18174393e-01  1.71288093e-01  8.30355967e-01 -7.36910236e-01
  -5.48450729e-01 -6.41786816e-01  4.08983980e-01  8.58388806e-01
  -1.01701842e-01  6.42160851e-02 -3.41183800e-01 -6.51595306e-01
   3.65069232e-01  4.75433095e-01  8.78929480e-01 -2.19366001e-01
   3.89908839e-01  9.76755067e-01 -7.44498716e-01  4.71721272e-01
  -6.79676860e-01  5.92476347e-01  1.03731845e-01  1.58295244e-01
   8.97651081e-01 -1.29718964e-01 -4.58566333e-02  3.18876642e-01
   2.23682778e-01 -7.38036647e-01 -3.16478200e-01  2.56629107e-01
   8.95839407e-01 -8.07159318e-01 -8.94501458e-01 -1.71846496e-01
  -5.71242462e-01]
 [ 2.73735990e-02  1.26721821e-01  2.44073394e-02 -5.75503914e-01
  -5.59470653e-01 -5.75096218e-01  3.10281395e-01  6.90993237e-01
   8.26359960e-01  6.92856979e-01  4.11519296e-01 -5.33284020e-01
   4.75115649e-01  3.75012680e-01 -2.65952047e-01  7.08140335e-01
   5.51488515e-02  7.96336797e-01  6.76490491e-01 -5.33949439e-01
   6.67446111e-01 -7.46619289e-01  1.23587995e-02 -7.37493837e-01
  -8.06250783e-02  2.89823625e-01  5.55203834e-01  2.69967379e-01
   4.36616062e-01  7.21155319e-01 -7.00039170e-01 -6.72740840e-01
  -4.12689293e-01 -9.42667300e-01  4.00162623e-01  5.53762435e-01
  -3.14185058e-01  2.25543452e-01  8.60528864e-01 -3.84833589e-01
   3.70333601e-01 -9.23804180e-01 -9.01353068e-01  6.70801551e-01
  -7.85633679e-02]
 [-2.54198198e-01 -3.38172635e-01 -5.10742614e-02  6.46711619e-01
  -1.01943622e-01 -1.66434526e-01  1.72682075e-01  5.07415940e-01
  -8.80050669e-01  2.29634922e-01  1.99609315e-01 -1.00973724e+00
   2.15000865e-01 -8.72591389e-01  1.10839346e-01 -1.06485830e-01
  -2.58597352e-01  8.37112245e-01 -4.91649338e-01 -4.17445021e-01
   2.56464343e-02  3.05454527e-01  8.59433970e-01 -8.93460648e-01
  -1.29615337e-01  1.12469019e-01  4.48798853e-01 -6.94669516e-01
   2.67309770e-02 -4.22026952e-02  8.07079389e-01 -2.63031366e-01
   3.51168573e-01 -9.01408954e-01  5.08489925e-01 -2.47993019e-01
   8.58657789e-01 -3.04151319e-01  3.38555583e-01  6.53081078e-01
  -5.11465334e-03  9.67282064e-01  1.78418230e-01  5.50058200e-01
   3.64026233e-01]
 [ 8.78628299e-01  8.83107800e-01  1.01519553e+00 -7.78322126e-01
   9.98276761e-01 -5.31910479e-01 -6.44686380e-01  1.20661084e-02
   2.79533308e-02 -5.29587693e-01 -4.25293329e-01 -3.91764329e-01
  -4.64398361e-01  2.50355976e-01 -5.80502085e-01 -2.00978975e-01
  -3.98224877e-01 -6.84803914e-01 -6.14886840e-01  9.96922233e-01
  -1.20923654e-01  6.76937351e-01  5.87030043e-02  3.38170232e-01
   5.03929291e-01 -3.51215161e-01 -2.23240334e-01  7.81416861e-01
   6.07176491e-01  6.43105805e-01 -6.15126396e-01 -3.29869286e-01
  -1.69103417e-02  9.41762590e-01  1.32223081e-01  6.49794692e-01
  -8.34361846e-01  1.12464577e-01  1.63473833e-01  7.96051588e-01
  -2.90331355e-01  7.97567592e-01 -7.49790613e-01 -8.11068918e-01
   8.97154074e-01]
 [ 8.64784832e-01  2.00490391e-01 -8.61760985e-01 -9.21335791e-01
  -3.93090751e-01 -2.51006434e-01  5.60773768e-01  8.41885830e-01
   1.61694382e-01 -2.96268956e-01 -1.71813016e-01 -7.84296862e-01
  -7.25328257e-01  5.38317011e-01  7.36376840e-01 -4.59964438e-01
   3.88896410e-01 -3.14614466e-01 -9.25695248e-01  5.52084877e-01
  -1.46323629e-01 -3.61542756e-01 -4.94267583e-01  2.31154124e-01
  -3.12438696e-01  8.19253664e-01 -7.74648092e-01  7.21851239e-01
   1.43396576e-01 -9.23709013e-01  7.16541574e-01 -5.77633313e-01
   6.24326978e-01  5.70899498e-01 -9.32123856e-01  2.66716391e-01
   1.56527871e-01 -8.42341437e-01  4.50950972e-01 -7.27987422e-01
  -4.77638851e-02 -7.95072244e-01  8.35215578e-02 -1.93852567e-01
   1.69188493e-01]
 [ 4.64335585e-01  8.29334921e-01 -3.14066394e-01 -3.75607219e-01
  -1.78517320e-02  5.15842543e-02 -7.40146240e-01 -8.11255813e-01
   2.07479057e-01  6.67355257e-01 -8.93512041e-01  6.13977555e-01
  -6.15827284e-01  5.90340084e-01 -4.58510763e-01 -5.94247847e-02
   8.43547134e-01  8.11069095e-01 -8.18189246e-01  1.07040510e-01
   2.41443542e-01  2.55446025e-01  2.62431280e-01 -3.79248913e-01
  -7.42424965e-01  2.76850690e-01 -4.53000804e-01 -6.90703558e-01
   1.35249773e-01  2.64238844e-01 -9.17964909e-01  9.37759356e-01
  -7.50679555e-01 -1.89690409e-01  3.28429540e-01 -5.95412859e-01
  -5.82487932e-01  2.23296223e-01  5.77407798e-01  6.17721713e-02
  -6.21073713e-01  5.62734016e-01  6.54333496e-01  4.47264575e-01
   8.71671962e-01]
 [ 6.72126749e-01  8.69378929e-01  8.20455464e-03 -7.54742170e-02
   1.36082088e-01  8.81128897e-01 -2.58411136e-01  5.92894983e-02
   2.36127625e-01  1.21998949e-01 -8.12176449e-01 -1.79355163e-01
  -4.65142398e-01  5.77393795e-01  5.03715567e-01 -6.59180523e-01
   4.74891724e-01  8.35254684e-01 -1.88288525e-02  7.70627020e-01
  -1.28460877e-01 -8.42213053e-01 -2.18406626e-01 -5.90111677e-01
  -7.50525087e-01 -6.51603431e-01  7.49845138e-01  6.04269321e-01
   2.74464088e-01  8.58787198e-01 -6.82396687e-01  2.56133016e-01
  -3.98532678e-01  6.85323561e-01  3.34155955e-01 -1.38998940e-01
   4.32988779e-01 -5.51080533e-01 -9.65037831e-01 -3.74860617e-01
   2.53705639e-01 -8.00624338e-02  4.29407445e-01 -6.23814702e-01
   9.41840307e-01]
 [ 8.75012142e-01  1.03271658e+00 -8.27520011e-01  4.20093670e-01
   1.58061109e-01 -8.37305629e-01  1.01418164e+00  1.29006065e-01
   3.49592627e-01  4.30620271e-01  8.66821692e-02  1.13056758e-01
  -5.95734428e-01 -4.71224428e-01 -2.28935317e-01 -7.99688356e-01
   5.63858763e-01 -3.60119692e-01  9.75620771e-01  8.17645813e-01
   8.36628717e-01  4.91255886e-01 -8.13683761e-01 -2.07380883e-01
  -1.02315353e+00 -8.64954353e-01  3.85265327e-01  9.27598990e-01
   3.45197046e-01 -2.11432030e-01 -9.21865128e-01  8.22682831e-01
   3.99829562e-01 -3.00988068e-02 -5.92718520e-01 -8.21150878e-01
   2.84287814e-01  9.84589083e-01  2.06756796e-01  6.66908523e-01
  -6.58623786e-01  7.61238557e-01  4.76649368e-02  9.68015435e-01
   4.86684050e-01]
 [-8.30232133e-01 -4.56461535e-01 -4.15861301e-01 -8.27548543e-01
   3.22705557e-01 -5.54950309e-01  1.02059225e-01  5.43205681e-01
  -5.51880769e-01 -3.52360578e-01 -2.38121483e-01  8.65791233e-01
   2.92957503e-01  8.83358349e-01 -8.18302585e-01 -5.25259503e-01
  -4.50962674e-01  6.99858462e-01  6.78971696e-01 -4.17146465e-01
   3.24836994e-01 -1.79870889e-01 -9.77574999e-01  4.54324273e-01
   1.94245279e-01 -3.52697001e-01 -4.95368429e-01 -4.69453933e-01
   5.45571152e-01 -2.04817223e-01 -4.06540794e-01 -4.78752216e-01
  -4.71608810e-01  6.67780041e-01 -6.36286092e-01 -5.00225689e-01
   1.95037876e-01  9.50770814e-01 -1.09206684e+00 -4.87067867e-01
   4.72516464e-01 -5.05459756e-01  8.15296490e-01  5.83073238e-02
   3.54594846e-02]
 [ 4.13760277e-01  2.64717341e-01 -3.97770540e-01 -1.00539685e+00
   1.54149241e-01  6.89013991e-01  1.36565869e-03  5.83930198e-01
  -2.03994198e-01 -2.73225467e-01  7.52534541e-01  7.78168468e-01
   4.50701680e-01 -3.84112360e-01 -3.58129519e-01 -4.35961163e-01
   5.91369416e-01 -1.02089624e+00 -8.67520795e-01 -9.72908932e-02
  -4.82217726e-01  8.26287050e-01  6.79538836e-01  4.67828149e-01
  -4.80662890e-01  7.62762375e-01  9.19338394e-01  1.38065039e-01
  -4.56416572e-01 -4.40947726e-01  2.55794202e-01  5.22425321e-01
  -1.32361680e-01  3.22557080e-01 -1.46978363e-01 -2.81857204e-01
   2.27555467e-01  6.25045560e-01  8.58720933e-04 -8.89866083e-01
  -2.59164777e-02  7.34067174e-03 -1.64258522e-01 -2.18792447e-01
   5.20502857e-01]
 [-7.94506484e-01 -9.50089083e-01  6.00424394e-01  6.79008813e-01
  -5.14486180e-01  2.54233361e-01 -8.83168661e-01 -4.27500913e-01
  -1.41542062e-02  3.19356633e-01 -5.49299432e-01 -5.99876876e-02
   9.49686763e-01  9.09560639e-02 -5.30345780e-02  3.54897316e-01
   5.26388402e-02 -5.20742755e-01  6.81188387e-01 -7.13061753e-01
  -6.35154843e-01 -6.73485913e-01 -2.90568776e-01 -7.51105409e-01
  -1.80578272e-01  5.19508850e-01 -2.48177206e-01  7.89022734e-01
   9.06634992e-01  6.42685536e-01 -7.99576903e-01  8.56845187e-02
  -7.63873439e-01  7.19906032e-01 -2.90202354e-01  7.88042463e-01
  -7.69271725e-01  2.81106980e-01  7.04264574e-01 -1.03115773e+00
  -4.02816989e-01 -9.34474407e-01  5.03136068e-02 -6.89596191e-01
   1.62122914e-01]
 [-9.80835333e-01 -4.53408854e-01  5.52313017e-01  7.31424563e-01
  -2.58219284e-02 -2.06330963e-02 -9.02140297e-01  5.53163798e-01
   6.19517417e-01  7.11253320e-01  6.14025022e-01 -8.72031862e-03
  -9.75910054e-01 -2.97435749e-01  4.66188959e-01  8.15771859e-01
  -4.03398954e-01 -6.43738508e-01  7.45961091e-01 -2.12676278e-01
   2.49471215e-01  1.98814190e-01 -4.25440598e-01  3.10994933e-01
  -5.58648077e-02  3.09117346e-01 -6.95873497e-01 -6.27646457e-01
  -2.44270019e-02 -4.27589743e-02  5.06645252e-01 -6.51564535e-01
   1.00945122e+00 -3.56036331e-01  7.00703766e-01  6.33822409e-01
   7.90005259e-01  4.80648059e-01 -3.48823618e-01 -9.50521272e-01
   1.34259786e-01  9.13347991e-01 -6.95945313e-01  5.43094689e-01
  -9.49385954e-01]
 [-6.49085536e-01  2.76943143e-02 -1.30824092e-01  5.92194853e-01
  -7.79338060e-01  7.76548161e-01 -6.03017957e-01 -1.00316294e-01
  -6.74026199e-01  3.92045901e-01  5.89863729e-01 -6.38421493e-01
   9.66523542e-02  4.41774928e-01 -1.10151304e-01 -4.87166834e-01
   4.59640160e-01 -3.13157217e-01  3.07510324e-01 -9.05498903e-01
   8.29822988e-01  5.52219437e-02 -5.32201229e-01  7.17670599e-01
  -9.08349193e-02  3.81428612e-01  9.53942069e-01  6.50450332e-01
   8.72459677e-01  7.63780145e-01 -8.43839687e-01 -4.51094494e-01
  -5.36390483e-01 -1.72830726e-01 -1.55669851e-01  9.39704911e-01
   8.10771310e-01  9.68863865e-01 -2.82752870e-01  9.31189396e-01
   1.99793282e-01  2.70311101e-03 -4.00146883e-01 -6.46968738e-01
  -1.08901940e-01]
 [-3.56035074e-01  2.57920635e-02  1.10680876e-01 -9.86145056e-01
  -4.42266228e-01 -6.86605976e-01  9.52042868e-01 -4.87700583e-01
   6.89118794e-01  4.12024975e-01  1.01425993e-01  3.64575286e-01
  -5.41269825e-01  4.19365064e-01  2.14375691e-01  4.72704117e-01
  -6.53478829e-01 -9.00757207e-01  9.01981297e-01 -1.27187567e-01
   2.50632001e-01  9.49835340e-01  6.44660153e-01 -7.75287622e-01
  -6.71533509e-02 -6.09919789e-01 -9.35843419e-01  7.36355021e-01
  -4.59615195e-01 -9.39649128e-01  3.80440703e-02  5.77579698e-01
   6.31672604e-02 -7.07907315e-01 -2.10553486e-01 -4.86131093e-01
  -1.35658143e-02  7.95598891e-01  6.95456221e-01  6.81724079e-01
  -5.24755730e-01 -7.40779958e-01 -7.95589649e-01  7.77633958e-01
  -7.97392067e-01]
 [-2.57056695e-01 -5.65107607e-01 -1.22873267e-01  6.06119831e-01
   9.13653250e-01 -1.00671357e+00  1.55212376e-01  5.34881084e-01
  -2.19253562e-01 -4.01955272e-01  5.44982329e-01  5.03622589e-01
   7.04541572e-01  9.91572066e-01  7.20901886e-01  2.78319811e-01
  -4.04825945e-01 -7.95575026e-03  1.33927386e-01  9.44212218e-01
  -1.51567671e-01  9.04105752e-01  2.77996154e-01  8.62572420e-01
  -2.76245819e-01 -9.01498835e-01  7.43503621e-01  4.48742005e-01
   1.16259451e-01  1.93187191e-01  6.71949293e-01  8.33745934e-01
  -1.20121455e-01 -7.82696531e-01  6.32215684e-01  7.45880787e-01
  -5.67562681e-01 -1.06420938e-01  3.06628173e-01 -2.58211520e-01
  -3.49389137e-01  7.95993382e-01  1.65007890e-01  7.55391280e-01
  -8.66126863e-01]
 [ 2.31508986e-01  6.36738285e-01  2.51769670e-01  3.85154432e-01
   3.58631431e-01  8.84543905e-01  7.64836844e-01 -6.56514529e-01
   3.83861274e-01 -8.73135185e-01  6.29956694e-01  5.77174072e-01
  -6.05599126e-01  2.19173201e-02  5.62497912e-01 -4.24939376e-02
   9.87227623e-01 -2.24613797e-02 -3.37225525e-02  7.18114375e-01
   8.28437686e-01  2.85073516e-01  4.83405287e-01 -1.01896731e+00
   3.02441544e-01  6.10799543e-01 -9.29767795e-01  1.29041199e-01
  -6.03297406e-01 -2.41740796e-01 -3.01210351e-01  9.45718830e-01
   4.38044056e-01  9.16180819e-01  1.20200903e-01 -5.98613842e-01
  -6.25742525e-01  4.27141439e-01  6.17254511e-01  3.74647271e-01
  -2.52596270e-01 -7.88389755e-01  2.22638565e-01 -5.87403216e-01
  -5.29358593e-01]
 [-3.69847325e-01  4.00734661e-01  2.11457487e-02  9.12519068e-01
   3.40530907e-01 -5.83896645e-01 -4.84054913e-01 -2.40445154e-01
  -8.51781821e-01 -4.64214070e-01 -1.89351854e-01  1.93144574e-01
   2.47748477e-01  1.02891331e+00  6.90512104e-01 -3.37531097e-01
  -8.64703203e-01  5.13237317e-01  1.29270312e-01  2.89978349e-01
  -8.91304017e-01  4.58743677e-01  7.59409780e-01  4.23557239e-01
  -6.15066619e-01 -5.99263107e-01 -4.07558233e-02  5.67600438e-01
   1.36383879e-01  4.48653525e-01 -8.25498608e-01  7.69489345e-01
  -5.83232827e-01 -3.46629653e-01 -3.16402954e-01 -3.64003356e-01
   7.26649018e-01 -1.87806882e-01 -3.52663090e-01 -7.23106924e-01
   4.60497637e-01 -1.41209622e-01  2.15012780e-01 -8.39255015e-01
   1.54296232e-01]
 [-6.36871327e-01  1.44690500e-01  4.24393768e-01  7.65709789e-01
   3.65321306e-01  8.78009796e-01 -3.20613469e-01  2.03070297e-01
   4.19826137e-01 -5.72102982e-01  5.86150122e-01 -6.88053078e-01
  -4.74101501e-01 -3.32204308e-01  5.89140936e-01  6.56215879e-02
   2.39687965e-01 -8.74584537e-01  9.56023712e-01  2.49281061e-01
   9.36740912e-01 -5.92574012e-01  3.19861180e-02 -4.95929893e-01
  -5.86762103e-01 -8.71297696e-01 -8.00696517e-01 -7.26440221e-01
  -2.87789397e-01 -4.27441697e-01 -2.71746744e-01 -2.80666649e-01
  -7.32165960e-01  8.35585946e-02  9.07642429e-01  9.60954594e-01
  -8.26541830e-01 -5.16262111e-01  6.40072901e-01  8.04119918e-01
  -4.92257622e-01 -5.74328681e-01 -9.54456344e-01  2.28744581e-01
   7.46924567e-01]
 [ 6.46534117e-01  6.91459999e-01  6.07627080e-01 -2.88805262e-01
   8.51088891e-01 -8.13473415e-01  3.31555719e-01 -2.89589194e-01
   4.76387161e-01  3.84602734e-01  8.37286659e-01 -2.40274751e-01
  -2.25658508e-01 -2.27957492e-01 -6.03716581e-01 -2.98018206e-01
  -6.75478456e-01 -4.90569781e-01 -7.80134046e-01 -9.50320095e-01
   8.28679735e-01  7.35090839e-01  3.62113917e-01 -7.48516253e-01
  -3.85039593e-01 -7.92424990e-01 -9.86174909e-01  7.28935394e-01
   6.28522381e-01 -4.28165887e-01 -9.16962298e-01 -2.97585542e-01
  -6.36900753e-01 -3.78352078e-02  8.11209090e-01 -2.40151174e-01
  -7.26156197e-01  2.20564929e-01 -9.32541724e-03 -2.66801086e-01
  -8.04762804e-01  8.09054124e-01  7.72471424e-01 -5.04438343e-01
  -9.34403098e-01]
 [ 7.19089129e-01 -7.60960732e-01  1.82982750e-01  3.30253585e-01
   3.91604251e-03  4.99503036e-01 -1.92052003e-01  4.78803662e-01
  -9.08819622e-01  4.10034305e-01 -6.26984400e-01 -6.64662670e-01
   8.60538580e-01  1.35945760e-02 -7.32509202e-01  4.05572993e-01
  -2.01345751e-01  1.61297275e-01 -3.61479396e-02  1.30070107e-01
  -8.63449215e-01 -6.93818614e-01 -1.66211929e-01  5.54428233e-01
   2.48448461e-01  4.76872498e-01 -4.87246842e-01 -3.56557449e-01
  -1.44682919e-01  9.26238799e-01 -3.49469664e-01  3.94760336e-01
  -9.04294929e-01 -3.11225527e-01  9.31700262e-01  3.09500803e-02
   3.19196071e-01 -4.12469733e-01  5.65086291e-01  9.23278375e-01
  -7.71033049e-02 -4.70424073e-01  1.27342041e-01  6.97472984e-01
  -8.81097907e-01]
 [-7.17216671e-01 -8.95492550e-01 -9.73023842e-01 -2.31203728e-01
   9.18419550e-01 -6.77381505e-01  4.11784157e-01  1.56340930e-01
  -3.79599888e-01 -8.21291337e-01 -9.97478439e-01 -7.90671168e-02
   9.41376211e-01  1.79957298e-01 -4.61779830e-01  1.52301784e-01
   3.65807886e-01  1.64435686e-01 -7.81809749e-02 -8.90543766e-01
  -6.56364107e-01  8.14164625e-01 -2.34912891e-01 -4.96049813e-01
   1.36209110e-01  1.28700898e-01  8.64618229e-01  8.20975967e-01
   1.94837912e-01 -6.97211223e-01 -4.41233625e-01 -9.44802053e-01
  -9.75646803e-02 -7.43058192e-01  2.61274563e-01 -9.98620629e-01
  -4.45446660e-01 -2.53361913e-01 -4.25872707e-01 -3.80437617e-01
  -4.45911764e-01  8.18818946e-01 -2.92089807e-01 -2.26613682e-01
   1.49747624e-01]
 [-7.43925487e-01  1.05891446e+00 -1.54994731e-01  4.80840145e-01
  -7.90119193e-01 -8.28737505e-01 -4.26777109e-01  3.55990326e-01
  -3.50817103e-01 -1.00131555e+00 -6.74728049e-01 -5.53022245e-01
  -3.72204241e-01 -4.36481533e-01  5.80542072e-01  8.30059286e-01
   3.36026920e-01  2.37104352e-01 -6.76971805e-01  1.23016570e-01
  -2.81296241e-01  4.83025731e-01  8.99842776e-01 -5.46779262e-01
  -5.29493002e-01  2.31114121e-01 -8.81220859e-03 -2.93955333e-01
  -4.92001370e-01 -4.14751055e-01  7.32209586e-01  6.62592271e-01
  -9.86709654e-02  7.52957158e-01  7.52023248e-01  5.93248584e-01
  -7.93204158e-01  1.56008935e-01 -8.35580287e-01  3.11626342e-01
  -8.59474056e-02 -3.92517910e-01 -1.09832599e-01  9.38986530e-01
   4.20211471e-01]
 [-9.35888747e-01  8.44565069e-01  7.90112720e-01 -7.29283739e-01
  -8.37757177e-02 -9.40249081e-01  7.12055588e-01 -7.30180165e-01
   7.57719648e-02 -4.68302206e-01 -7.78074884e-01 -7.20568506e-01
  -3.35863887e-01  6.67536805e-01  2.02154542e-01  1.16077309e-01
  -3.57076150e-01  8.77624383e-01 -1.33979672e-01 -7.45263861e-01
   6.20243138e-01  7.87176860e-01 -1.18351915e-01 -9.37289830e-01
   6.67683210e-01 -7.93885701e-02 -2.93585072e-01 -6.04606233e-01
  -6.38804052e-02  7.94977408e-01  7.65890861e-01 -1.19874483e-01
   9.49260177e-01  7.25157365e-01  9.06373930e-02  3.30816366e-01
  -9.65798379e-01 -5.76095462e-01 -7.47069781e-01  1.83303231e-01
   6.86183746e-01  5.72510405e-01  2.73485612e-03  7.31884530e-01
   2.78942719e-01]
 [ 8.89094058e-01 -8.06972444e-01 -9.12490783e-01 -6.04231178e-01
   1.02405064e+00 -8.64592474e-01  1.73459120e-01  6.96315467e-01
  -5.88483017e-01 -1.08448440e-01  1.77323969e-01  1.58526770e-01
   8.56354432e-01 -5.48842762e-01  7.90532295e-01  1.08178123e-01
   2.38735042e-01  9.40935590e-01  6.62843655e-01 -9.41036361e-01
   2.37010351e-01  9.81989529e-01  6.92330218e-01  1.26554554e-01
  -9.51207847e-01  3.04850748e-01  4.70086223e-01 -7.89753204e-01
  -8.01955629e-01 -9.11093379e-01 -2.63386828e-01 -6.11519561e-01
  -2.06583404e-01 -8.30778410e-01 -8.26359468e-01 -3.87206797e-01
  -5.72940304e-01  6.82683520e-01 -8.92246403e-01 -5.25632984e-01
   8.47255468e-01  4.58829494e-01 -8.52361532e-01 -1.59356011e-01
  -2.63408216e-01]
 [ 6.33906338e-01  7.93116227e-01  7.56981682e-01 -7.58857303e-01
  -9.42010387e-01 -3.78819828e-03  3.42529865e-01 -7.15769331e-01
  -5.78756070e-01  1.01389294e-01 -5.57848432e-01 -7.21001533e-01
   3.06740878e-01 -4.58467184e-01  6.40338962e-01  6.80104536e-01
   2.21169865e-01 -3.23408559e-01 -7.18555768e-01  2.28855662e-01
  -4.20960399e-01  6.68974926e-01 -7.87814378e-01  2.71614219e-01
  -7.06831215e-01 -7.65093401e-01  9.06788250e-01  6.85979198e-01
  -2.15605419e-01 -8.02602640e-02 -5.38115643e-01  6.33071157e-01
  -6.74867933e-01 -3.80863702e-01 -4.46293466e-02 -5.28043578e-01
   3.29297896e-01 -7.88214794e-02 -6.66081906e-01 -4.66022761e-01
  -8.99029248e-01 -3.89203130e-01 -1.64678573e-01 -8.82135194e-01
   3.70657447e-01]
 [ 3.97136496e-01  1.25655659e-02 -3.02714326e-01  1.13707751e-01
  -4.01092303e-01  5.81251560e-02 -6.53725078e-01 -5.61429918e-01
  -9.10199815e-01 -2.31216590e-01 -6.93719043e-01  5.76673647e-01
  -9.79289120e-02 -3.52830102e-02 -2.95372101e-01  3.01065755e-01
   3.81036482e-01  2.93333679e-01  7.77712850e-01 -8.30525446e-01
  -5.60341431e-01  7.69803233e-01  4.72521698e-01 -8.96642632e-01
  -2.30445321e-01 -3.06111566e-01 -8.44375249e-01 -7.19685087e-01
  -4.22095318e-01 -6.98816078e-01  7.74298700e-01 -2.90022049e-01
  -4.34934311e-01 -7.37503922e-01  4.60858182e-01 -2.29783829e-01
   7.22845856e-01  6.84570375e-01  5.12630673e-01  7.11518332e-01
   2.98420765e-01 -9.29713289e-01  8.78807812e-01  3.94252447e-02
  -2.22554596e-01]
 [-7.03097286e-02 -4.90708766e-02 -4.63567204e-01 -5.67745726e-01
  -7.86003967e-02 -8.93758380e-01 -5.13834831e-02 -7.23731472e-01
   6.69969038e-01 -2.24189835e-01 -4.87939761e-01 -7.87649627e-01
  -8.87646818e-01 -4.62245177e-01 -3.17222953e-01  9.25254890e-01
   4.61808933e-01 -8.58980683e-01 -2.19872614e-01 -1.00898125e+00
   4.97091687e-01  9.26857409e-01 -2.37338064e-01 -7.65308674e-01
  -5.89920317e-01  2.96997234e-01  7.82299489e-01  6.39577059e-02
  -2.39839012e-01  7.12522659e-01  4.16791752e-01 -1.00450675e+00
   2.57775332e-01  5.05962690e-01 -9.67737298e-01 -6.60925722e-01
   4.38203841e-01  7.17452111e-01  8.01253650e-01 -2.64540645e-01
  -6.17472844e-01  7.73538399e-01  5.93825498e-01 -1.94816018e-01
  -8.18604380e-01]
 [-8.51690990e-01  6.66847349e-01  5.54027556e-01  8.78592563e-01
   3.42320906e-01 -5.81132546e-01 -8.87962875e-01 -7.74460526e-01
  -6.38277968e-01  2.39005439e-01  5.43696996e-01  6.92221590e-01
  -9.62651069e-01 -6.69997661e-01  3.60490585e-01 -2.62749575e-01
  -5.53088841e-01 -1.66729780e-01  2.93882224e-01  8.70813728e-01
  -5.91010141e-01 -4.31088948e-01  2.50530555e-01 -9.01099342e-01
   7.01796693e-01  4.07878879e-01 -5.36935131e-02  2.96280239e-01
  -9.13608861e-01 -9.20262668e-01  4.68650536e-01  1.73482473e-01
  -7.48152626e-02 -3.41561291e-02  9.91698847e-01  9.56171803e-01
  -2.42264604e-02  9.67477691e-01  2.81989808e-01 -8.26215752e-01
  -3.06241977e-01  1.29738347e-01 -6.76049203e-02  4.18459697e-01
   2.36064370e-01]
 [ 5.35102128e-01  3.12690761e-01 -5.27558738e-01  3.40668478e-01
  -2.27028842e-01  3.61528334e-01  4.21134078e-01  4.12400862e-02
   1.64118961e-02  3.41589126e-02  8.34669351e-01  5.30942951e-01
  -1.45378568e-01  2.09148861e-01  3.08670306e-02  2.50515156e-01
  -4.31399128e-02 -6.81138081e-02 -2.59326844e-01 -1.55257269e-01
  -6.75556016e-02  1.80830701e-01  1.27190323e-01 -6.21412084e-01
   6.18083396e-01 -3.36981553e-01  4.22719593e-01 -2.13310936e-01
  -2.96832928e-01 -7.51039922e-01  9.66180854e-01 -4.37532041e-01
  -9.18918981e-01 -2.82635219e-01 -7.69666123e-02 -3.24433164e-01
  -7.35084656e-01  2.84692475e-01 -8.09350791e-02  9.04491967e-01
   2.89410535e-01  4.31858830e-01  6.31542150e-01 -5.85374979e-01
  -2.70183156e-01]
 [-5.84603090e-01 -3.82579200e-01  1.60276009e-01  7.26826201e-02
   2.13288178e-01 -3.43109352e-01  9.90386348e-02 -6.68032849e-01
   6.56557626e-01 -8.11631911e-02 -3.93056291e-01  2.25312800e-01
  -7.22444622e-01  2.05937172e-01  4.59782011e-01 -3.49631223e-01
   3.36402366e-01 -3.06079661e-01 -2.43441853e-01  4.98581389e-01
   7.24482627e-01  2.84324873e-01 -5.57281311e-01  9.07846405e-01
  -5.51294695e-01  6.80231401e-01 -1.02737986e-01  8.09923321e-01
  -5.09705472e-01  9.43051761e-01 -2.35590078e-01  3.54155587e-01
  -8.74193825e-01 -9.63382772e-01 -2.26715769e-01 -6.36678556e-01
  -2.89731697e-01  4.06935862e-01  4.43184427e-01 -5.28729269e-01
  -2.32474014e-01 -5.23864182e-01  3.15602483e-01  1.02962859e-01
   5.23555675e-01]
 [-3.90015469e-01  7.72057055e-01 -6.03125970e-01  2.38607837e-01
   2.33515227e-01 -1.55362508e-01 -7.97455163e-01 -1.29340607e-01
   9.76852298e-01 -6.88895552e-01 -7.96524919e-01  4.05651920e-01
  -1.32278473e-01 -2.87639241e-01 -8.37049927e-01 -6.04443536e-01
   4.49480292e-01  5.97327457e-02 -9.12089939e-01 -5.79205251e-02
  -2.35802156e-03 -5.37602441e-01 -6.28443685e-01  4.47116556e-01
   1.35094625e-01 -4.70083609e-01  7.24886660e-01  4.58196089e-03
   8.19073152e-01  7.56146566e-01 -5.27360324e-01  2.35906420e-01
   1.91447601e-01 -4.85202314e-01  6.14596715e-01 -8.10566960e-01
  -7.29728635e-01  8.14569003e-01  1.14706333e-01  2.90690922e-01
   3.76681259e-01 -8.90530120e-01  4.89943335e-01  5.43466227e-01
   8.00955342e-01]
 [-5.48606527e-02 -9.22535207e-01 -1.66248731e-01  2.12485092e-01
   3.00900255e-02 -1.74951933e-01 -7.56043630e-01 -3.88322080e-01
   9.49404755e-01  2.22198856e-01 -6.28297123e-01 -4.18218903e-01
  -6.92442299e-01  8.42152550e-01  8.81820034e-01  4.24172258e-01
   8.53289335e-01  9.47089289e-01  4.05336119e-01  8.34584338e-01
   5.00884831e-01  2.83304795e-01 -4.87439331e-01 -4.33123130e-01
   5.07015591e-01  5.63123191e-01  7.95244246e-02  2.77663628e-01
  -9.79101155e-01  5.28270836e-01  5.71376674e-01  3.74115308e-01
  -6.74807736e-01 -6.60580523e-01  6.36726720e-01  4.75637192e-01
  -2.39201385e-01  9.71522913e-01  3.78503792e-02  2.65044567e-01
  -7.54937169e-01 -1.91061600e-01 -7.42226376e-01 -6.35516469e-01
  -6.27712283e-01]
 [-3.61363471e-01 -1.67596577e-01  8.90807659e-01 -2.48005239e-01
   7.63655527e-01  9.72712282e-01  8.40405201e-02  5.39862550e-01
  -3.08919064e-01 -8.58541965e-01 -2.45840539e-01  3.23956101e-01
   9.78375420e-02  6.42116900e-01  8.68758681e-01  7.99424082e-01
   9.48748550e-01  8.15360000e-01 -7.86178030e-01  9.58420794e-01
  -7.08023156e-01  4.82566028e-01 -9.12003067e-02  3.70154604e-01
  -8.00627453e-01 -9.60641430e-01  8.63517753e-01 -1.93416418e-01
  -9.95947150e-01 -8.63397941e-01 -2.00523154e-01 -2.52380313e-01
  -7.85332434e-01 -8.97861769e-01 -8.44697479e-01  5.91959536e-01
   3.65252770e-01  3.34354148e-01 -3.05040330e-01 -2.09277002e-02
  -4.77224757e-01 -6.90715267e-02 -2.03108804e-01  5.46095482e-01
  -5.28807428e-01]
 [ 3.03628697e-01  3.91695856e-01  5.76386974e-01  4.29625093e-01
   1.16030711e-01 -1.74185363e-01  1.79990691e-01 -5.03734857e-01
  -8.17749177e-01  4.14044247e-01 -4.86433821e-01 -1.00852153e-01
  -5.55899677e-01 -3.61218751e-01 -2.61402069e-01  3.45486343e-01
   4.14832141e-01  9.69170345e-01 -7.97899086e-01  1.14933267e-02
  -1.60897993e-01  1.00566979e+00 -4.21918545e-01  3.19192599e-01
  -1.66445560e-01  4.76148297e-01  5.20838337e-02  6.02449651e-01
  -8.23637105e-01  5.59597210e-01 -7.08377349e-01  5.83044467e-01
   9.53981864e-01  6.46368383e-01  2.37432762e-01  5.58817455e-01
  -1.20785150e-01 -8.51642352e-01  7.74384954e-01 -1.22189844e-01
   9.19420010e-02 -4.54121608e-01 -8.05524365e-01 -4.98322787e-02
  -7.37316235e-01]
 [-8.95530020e-01  2.90064956e-01 -4.84655913e-01  5.37573778e-01
  -1.76709329e-01 -6.30320303e-01  7.61633832e-01  6.85963323e-02
   2.10024627e-02 -9.77191108e-01 -8.37447398e-01  3.13148331e-01
   8.97340560e-01  8.84703987e-01 -3.12888617e-01  8.85358256e-01
  -8.14044166e-01  2.73700912e-01  3.71451377e-03  7.65259202e-02
  -7.73768474e-01 -5.12951837e-01  3.50596537e-01  1.90961134e-02
  -1.01068454e+00  4.81326615e-01 -5.01505711e-01  5.33061925e-01
   6.82630920e-01  2.80933442e-01 -8.52473736e-01  7.21796736e-01
  -1.98803928e-01 -9.86191998e-01  8.08999330e-01  8.15688738e-01
  -2.56975616e-01  9.02506747e-01 -1.01499826e+00  1.53055833e-01
   9.63273412e-01  3.13353007e-01  7.89519901e-01 -1.83686648e-01
   7.00983059e-01]
 [-2.97106472e-01  2.81485329e-01  3.31461516e-01 -8.28083952e-01
   1.98327588e-01 -1.34083601e-02  9.67808582e-01  2.27616878e-01
  -2.75911985e-01  1.07525864e-01  3.41539869e-01 -8.05706589e-01
  -5.39039648e-01 -9.06995363e-01 -3.80132174e-01  7.82415943e-01
  -3.41508254e-01 -2.53875733e-01  7.20660905e-02 -1.27655716e-01
  -3.73333341e-01  6.37272695e-02  1.02197925e+00  1.02567817e+00
  -2.62165477e-01 -4.90156727e-01  8.96516009e-01 -9.18956322e-01
   8.61191166e-01  3.09536456e-01  6.54555198e-01  4.11063824e-01
  -6.91212010e-01  6.22086341e-01 -9.16559119e-02 -2.31129367e-01
   2.68808532e-01  5.53284074e-01  2.39402026e-01  6.49040817e-01
  -4.24794199e-01  8.21355902e-01  2.21397425e-01  3.12858455e-01
   2.90446408e-01]
 [-9.22031496e-01 -7.61682064e-01 -2.21171683e-01 -9.24534185e-01
  -6.15629308e-01 -2.99002326e-01  5.15409581e-01  7.27267850e-01
   4.00685420e-01 -3.03758244e-01  7.42131587e-01 -1.03566619e+00
  -2.14693000e-01 -1.87217076e-01  7.49402537e-01 -5.90709928e-02
   1.56988082e-01  1.39433798e-01  9.10675509e-01  2.22979798e-01
   1.04089900e-02 -1.73498337e-02  4.93525595e-01  9.16301800e-01
  -9.49484516e-02 -5.45390894e-01  5.05273143e-01 -2.49855860e-01
   5.43606021e-01 -3.19194278e-01  6.67068814e-01 -2.28193170e-01
   1.66993368e-01  2.21884363e-01 -2.87122867e-01  7.39079163e-01
   2.66213962e-01 -2.37459043e-01 -4.82087591e-01  2.53469998e-01
  -3.22287120e-01  7.46022188e-01  2.79056885e-01  7.60316054e-01
   1.92481270e-01]
 [-5.41390453e-01  6.34275552e-01  5.73507606e-01  1.44948001e-01
  -3.87470401e-01 -2.87441303e-01 -8.92694840e-01 -3.20579294e-01
   5.56104580e-01  6.22904910e-01  7.67020643e-01  1.09632972e-01
   7.64997133e-02 -7.50710312e-01  8.34079007e-01 -2.14734256e-01
  -7.26989737e-01 -3.89820451e-01 -8.74996263e-01  8.23844950e-01
   1.96166738e-01  7.08197179e-01 -2.45968512e-01 -5.64208742e-01
  -7.70478484e-01  3.76624398e-01  8.89684506e-01  7.20175278e-01
   9.05801668e-02  7.89881421e-02  9.71072517e-01  8.01046941e-01
  -8.13814579e-01  1.32805217e-01 -9.51433829e-01 -7.80580222e-01
  -8.08558662e-01  5.14624892e-01  1.04853722e-01 -8.37003347e-01
  -5.20231237e-02 -6.83693037e-01 -7.37878845e-01 -7.39541385e-01
   4.52382114e-01]
 [-2.48752428e-01 -4.74244610e-02 -1.63808201e-01  3.74330040e-01
   5.73030065e-01  5.96200686e-01 -5.33518443e-01  9.68294529e-01
   5.20540818e-02 -7.33503218e-01  4.53447637e-01  1.49557966e-01
  -2.40144351e-01  1.29308873e-01 -4.22319941e-01 -7.16371124e-01
  -8.59686006e-02  1.72055151e-01  1.75847584e-02  2.92894777e-01
  -8.91604186e-01 -1.45490253e-01 -1.47978699e-01  4.84815631e-01
  -2.44519682e-01  7.62653745e-01 -2.93944880e-01 -2.02783571e-01
  -8.57069742e-01  3.69025444e-01 -2.33915425e-01 -1.87209991e-01
  -6.12166402e-01  2.16442632e-02  5.01010168e-01  1.40108199e-01
   1.09335143e-01  1.38322955e-01 -9.63950226e-01 -3.89906648e-01
   6.32967588e-01 -1.34172499e-01  8.12212608e-01 -4.46923195e-01
   7.27750081e-01]
 [-9.52366963e-01  4.00664844e-01 -7.08894688e-01 -7.75020371e-01
   8.98266786e-01  1.81295619e-01  3.63968531e-01 -4.80942836e-01
   8.61049865e-01 -7.14416044e-02 -6.71127064e-01 -8.91622838e-01
   6.68406986e-01  8.67981677e-01 -9.43854331e-01  8.73180006e-01
   6.06375828e-01 -6.03396646e-01 -2.08719084e-01 -5.51153542e-01
  -8.21926091e-01  1.97861256e-01 -2.37077834e-01 -2.35310698e-01
   2.22485513e-01  3.29743743e-01 -4.87721096e-01 -6.66920518e-01
  -3.10499379e-01 -7.23550693e-01  8.07119383e-01  9.21741749e-01
   8.49741926e-01 -9.56994254e-01  7.37433530e-01 -6.75350540e-01
  -2.93690548e-01  3.13646554e-01 -9.17362111e-01  4.20182438e-01
   5.65584577e-01  2.81915717e-01 -3.91887550e-01 -8.47121098e-01
  -2.43926463e-01]
 [ 8.54107499e-01  5.84149634e-01 -5.53999452e-01  2.18371832e-01
  -3.16199382e-01  6.03404909e-01  3.68624965e-01  1.93013375e-01
   2.19213360e-01 -8.49467930e-01  6.17347835e-01  9.48234789e-01
  -1.02433202e+00  5.27598231e-01  8.51716730e-01 -4.15076754e-01
  -5.03059504e-01  6.44389427e-01 -3.77799430e-01 -7.46947629e-01
  -4.58095772e-02 -6.90373378e-01  3.50315429e-02 -4.01735344e-02
  -1.04311628e-01 -2.88587196e-01  3.11028615e-01  1.00560359e+00
   4.17250441e-01  4.40659733e-01 -6.43422581e-01  2.52070947e-01
  -8.37708565e-01  5.04651864e-01  5.47582885e-02  2.73112516e-01
   2.09384716e-01  5.90512036e-01 -9.16078589e-02 -1.95992324e-01
   6.95882442e-02  7.83511928e-01 -2.03311878e-01 -5.87883144e-01
  -4.54968515e-01]
 [ 4.93379277e-01  9.54611973e-01 -7.26827919e-03  8.21871191e-01
  -6.57765977e-01 -1.38739759e-01  1.65095509e-01  4.65693188e-01
  -1.06982925e-01 -8.10600295e-01 -5.71945389e-01  7.13512992e-01
   3.79512043e-01  6.52486578e-01  9.23694085e-01 -7.53521068e-01
  -4.31358410e-01  5.15505340e-01  7.56319850e-01  2.95000653e-01
  -7.02518805e-01 -5.82413736e-01  7.07515155e-02 -4.13638027e-01
   2.77750279e-01  2.60758947e-02 -1.45137800e-01  1.78309148e-01
   6.34734665e-01  2.48684050e-01 -3.32500031e-02 -8.99948953e-02
  -3.83966530e-01 -7.74438752e-01 -8.81834830e-01 -2.64459162e-01
  -8.91974831e-01  1.17701479e-01 -8.50708059e-01  4.89091153e-01
  -3.41192846e-01  9.55286483e-01  3.06089341e-01 -6.87587297e-03
   6.13845564e-01]
 [-9.88374266e-01 -6.06219957e-01 -5.69020071e-01  5.78951646e-01
   1.25110397e-01  1.55851140e-01 -4.44379127e-01 -6.09717656e-01
   6.98978317e-01  1.86528829e-01 -4.17457940e-01  6.01380532e-01
   1.58130794e-01  6.86860163e-01  3.44870156e-02 -3.34342690e-01
   4.32117211e-01  9.66106103e-01  8.58823262e-01  1.63377348e-01
  -4.96834697e-01  1.51780177e-01 -1.32322653e-01  3.05522438e-01
   3.66425992e-01  3.17774751e-01 -9.06255466e-01  8.56683749e-01
  -8.71219124e-01  2.39744487e-01 -1.47270472e-01  6.47943108e-01
  -1.16185144e-01  7.07469575e-01 -2.70747374e-02 -6.22167906e-01
  -7.59482206e-01  8.65302433e-01 -5.38394549e-01 -6.91994434e-01
   1.69353725e-01 -1.37189601e-01  5.88273748e-01 -8.47019434e-01
  -6.23096103e-03]
 [-3.84039835e-01  4.97734129e-01 -5.22645993e-01 -7.16875073e-01
  -6.67788735e-01  3.81471961e-01  8.43225409e-01 -6.46214323e-01
  -1.21636595e-01 -2.02835225e-01  9.04936552e-01 -5.84655930e-01
  -1.06221766e+00  1.06862529e-01  7.40673563e-01  7.40408002e-01
  -3.75735942e-01 -3.55385206e-01 -8.94580927e-01  4.43455615e-01
   7.18335490e-01  9.54220661e-01 -3.66910978e-01 -1.42708357e-01
   7.58380063e-01 -1.56701295e-01  5.56269706e-01 -9.25901306e-01
  -8.29209008e-01 -8.62441589e-01 -2.40895475e-01  2.14339527e-02
  -8.78905460e-01  3.36239950e-01 -9.31087436e-01 -8.67238806e-01
  -3.26934582e-01 -1.27478839e-01 -6.14302452e-01  5.23890116e-01
   3.24201686e-02 -6.27790394e-01 -8.70507895e-02  3.20985662e-01
   8.52226119e-02]
 [-9.41338219e-01  3.79018120e-01  4.14143147e-01  7.05235108e-01
   8.66510751e-01 -3.83925231e-01 -8.92551516e-01 -1.84080139e-01
   3.61778209e-01  5.15253927e-02 -5.07377750e-01 -2.51729558e-01
   9.07941801e-01 -4.33645616e-01  2.54646840e-01  6.73946870e-02
  -9.07518800e-01  7.49229722e-01  3.47693482e-01  2.99902749e-01
   3.06124628e-01 -2.32178698e-01 -2.41371834e-02 -2.93795716e-01
   5.70895247e-01 -1.05054103e+00 -1.34231287e-01 -7.11484500e-01
   3.23114843e-01  2.38102813e-01  7.52533509e-01 -5.92616720e-01
  -4.43281206e-01  8.61118501e-01  4.53151825e-01 -1.90580961e-01
  -7.03325344e-01  8.73394659e-01  7.39552669e-01 -2.00518766e-01
   9.65102991e-01  9.26683258e-01 -1.42749475e-01 -7.37082388e-01
  -7.53416774e-01]
 [ 6.39596831e-01 -4.61310497e-01  3.82647679e-01  3.14907751e-01
   5.29904080e-01  4.06796754e-01 -6.91066080e-01  2.95370172e-01
  -5.31446623e-01  7.46302096e-01 -6.22677722e-01  2.69127086e-01
   6.92250575e-01 -4.78761653e-01 -5.94716308e-01  9.62571263e-01
  -1.95416392e-01  6.49739610e-02  5.25881993e-01 -8.81791852e-01
  -3.39834658e-01 -3.39404023e-01  7.19390665e-01 -6.23001985e-01
   4.06715598e-01 -8.14201861e-01  1.20035573e-01  6.81421855e-01
   3.70499642e-01  5.03886871e-01  6.30547905e-01 -7.94932262e-01
  -7.86792515e-01 -2.05762934e-01  9.44629928e-01  1.67166318e-01
  -5.87845505e-01 -5.04202652e-01  8.14223971e-01  6.70767944e-01
   2.61927783e-01 -5.89934007e-01 -7.03169990e-01 -8.58038824e-01
   5.45155238e-01]
 [-4.78377971e-01  8.34207482e-01 -6.41809518e-01 -2.15143192e-01
  -5.87808099e-01 -5.52133545e-01  8.75629883e-01  4.47765249e-02
   4.56113887e-01  7.03857410e-01 -6.07009240e-01  3.23794645e-01
   1.61124516e-01  1.36291199e-01  3.47257150e-01 -5.63607791e-01
  -7.88537874e-01 -8.65021226e-01  2.60111129e-01 -3.62051231e-01
   6.88055493e-01  1.97831833e-01  7.04436846e-01  3.56694452e-02
   8.95867206e-01  6.03988833e-01  1.63400900e-01 -5.14571432e-01
  -4.01715813e-01 -1.34215052e-01 -1.11065474e-01  8.55422644e-01
   2.50652820e-01  3.76712626e-01  5.76524667e-01 -6.26496804e-01
  -4.27955519e-02 -3.79395415e-01 -2.45379776e-02  6.51425689e-01
  -6.22208066e-01 -9.57651939e-01  6.50651250e-01  8.89655721e-01
  -3.74460157e-01]
 [-3.39080235e-02  1.83626694e-01 -4.53696328e-01  4.58919878e-01
  -9.03776375e-01  1.82128884e-01 -1.53480462e-01  4.66501482e-01
   3.43114393e-02  5.57831848e-01 -3.91816574e-01  3.80329961e-01
  -3.80148182e-01 -4.00482347e-02 -4.45577345e-01 -9.27228741e-01
   6.74718994e-01  8.70366321e-01 -1.98604744e-01  7.13513990e-01
   9.76308589e-01 -3.33132964e-01  2.58843504e-01 -6.46920745e-01
  -6.96102579e-01  1.09204565e-01 -7.86800003e-02  3.76639124e-01
  -1.26001128e-01 -4.65174891e-01  7.38289265e-01  2.33099942e-01
   3.56070786e-01 -1.99279300e-01 -4.55110873e-01  5.99877083e-01
   1.58837178e-01  1.66472228e-01 -7.44955462e-01 -2.11107927e-01
   3.54504216e-01 -4.00121907e-01 -2.05200813e-02 -2.92730982e-01
  -8.90239036e-01]
 [ 5.42695149e-02 -3.93365508e-01  2.02381664e-01  1.45425489e-01
   3.06768866e-01 -5.45149890e-01 -6.51066593e-01  3.06385106e-01
   2.34917666e-01  6.99295798e-01  6.89556629e-01 -5.42452777e-01
   5.39772838e-01 -5.95973079e-01 -2.24557172e-02 -4.04816488e-01
   6.67964275e-01 -9.12296035e-01 -5.00724920e-01 -3.47466902e-01
   8.01889517e-01 -5.34190226e-01  8.59932077e-01  7.88040195e-01
  -1.68540888e-01 -3.00980701e-01  5.50393177e-01  1.41556153e-01
  -4.05610268e-01 -8.41831643e-01  9.97170731e-01  3.73010935e-01
  -3.45488512e-01 -8.55021347e-01 -2.60401703e-01  6.98625845e-02
   6.70953026e-01 -4.52215887e-01 -6.16691410e-01 -8.55328453e-01
   9.10076138e-01 -9.53356364e-01  1.44707125e-01 -5.31683261e-01
   3.45882830e-01]
 [ 5.56508929e-01  5.66082346e-01 -9.58057050e-01  7.84129849e-01
  -6.00185488e-01  5.90268178e-01 -8.24815439e-01 -4.22025366e-01
  -5.74897545e-01  7.38453192e-01  2.28638387e-01 -6.41576477e-01
  -8.97013322e-01 -1.63078123e-02 -2.08174087e-01 -8.55720657e-01
   8.98322639e-01 -7.31118159e-01 -7.06658255e-01  6.20771562e-01
  -7.40165628e-01  4.17876939e-01  2.97425865e-01  1.78676482e-01
  -2.28715543e-01 -3.37346610e-01  1.03209935e+00  6.46287562e-01
   6.81577179e-01 -4.55399648e-01 -1.78533781e-01 -5.08073097e-01
   5.45022816e-01  3.37454998e-01 -5.94251969e-01 -2.84589666e-01
  -8.34754879e-01  6.54144002e-01 -2.58170239e-01 -7.40510593e-01
   7.81673139e-01  3.41709887e-02 -3.93430590e-01 -8.21368731e-01
   1.85133686e-01]
 [ 9.91765269e-01 -1.13624886e-01  4.10676463e-01  5.94521693e-01
   7.80982980e-01  5.65609864e-01 -5.01046399e-02 -9.15739979e-02
  -7.03566562e-01 -3.90328092e-01  7.98719227e-01 -1.52649642e-01
   1.03812936e-01 -6.58718066e-01  9.14846039e-01  1.22093940e-01
   6.80386304e-01  4.91496436e-01 -4.29892234e-01 -2.77790228e-01
   8.26252326e-01  8.38742092e-01 -3.28977260e-01  1.83032718e-01
  -3.18857915e-01 -3.08472015e-01  6.17207193e-01  5.60820836e-01
  -5.57936554e-01  7.94020518e-01  8.96579746e-02 -4.74400651e-01
   1.50270725e-01 -2.58857291e-01  9.54140743e-01 -5.57275874e-01
   8.15297556e-01 -3.26566161e-01  9.19424253e-01  2.05722238e-01
   3.51635526e-02 -7.15043500e-01 -4.70205354e-01  7.93290751e-02
  -9.22914497e-01]
 [ 9.20962268e-01  3.59301211e-02  5.47608108e-01  7.63554356e-01
  -5.99529105e-01 -7.20150311e-01  2.42796039e-02 -9.91435962e-01
   5.61703688e-01 -1.02911768e-01  9.65179187e-01 -8.82632355e-01
  -3.65827416e-01  1.40703966e-01  4.98649761e-02 -3.18742721e-01
  -6.01679035e-01  2.34639102e-01 -9.47351336e-01  4.62593647e-01
  -8.46183884e-01 -3.89184998e-01  4.49808331e-01  7.79240289e-01
   4.08119515e-01  5.59944769e-01 -3.61075489e-01  4.68561860e-01
  -5.55311969e-01 -6.99244872e-01  2.98840150e-01 -4.82000428e-01
  -6.03029290e-03 -2.54743949e-01  5.96347259e-01 -1.59425025e-01
   9.64757494e-01 -6.83047376e-01 -5.89490097e-01  7.20251982e-01
   6.72841287e-01  9.16540153e-01 -2.80262049e-01  1.62422233e-01
  -5.17647676e-01]
 [ 7.54411834e-01  8.35325965e-01 -4.78766958e-01  9.39722639e-01
  -1.01184098e+00 -7.43141607e-01  5.38788728e-01 -1.79798001e-01
   6.37781084e-01  3.45839380e-01  2.05736293e-01 -7.53880422e-01
  -3.57397833e-02 -9.81972509e-01 -7.30530640e-01  5.78069863e-01
  -8.77941552e-01 -2.48675236e-01 -4.85081740e-01 -8.19598265e-01
   2.79530157e-02 -4.79384309e-01 -2.88951361e-01 -9.32417374e-01
   7.72388494e-01 -3.32882578e-01  2.00713542e-02  5.16361128e-01
  -1.75580911e-01 -7.98894229e-01 -2.33694461e-01  6.44302432e-01
  -3.71643964e-01  3.13674341e-01 -5.05516643e-01  5.19371476e-01
  -7.75049129e-01  4.47426989e-01 -3.93682971e-01  9.78914876e-01
  -3.58727921e-01  2.99947473e-02  1.01236185e+00  5.87137625e-01
   8.08136603e-01]
 [-1.84110996e-01 -3.09131862e-01  5.33762732e-01 -6.19247210e-01
   1.20809758e-02  4.47428050e-01  2.36089874e-01  2.42652065e-02
   6.03518524e-01  3.94970324e-01  6.50206301e-01  5.98718386e-01
  -6.83158495e-01 -9.65571040e-01 -2.40562560e-01 -7.12153544e-01
   2.74380334e-01 -6.29502783e-01 -5.75604852e-01 -4.70338121e-01
   8.35678381e-01  6.71214869e-02  3.86917237e-01  6.74399915e-01
   7.00644711e-01 -6.18132121e-01  2.99659375e-01  9.44740081e-02
   5.89689850e-01  3.24207606e-01  5.33194044e-01  1.99492164e-01
   6.61797498e-01 -3.48648054e-01  7.06257778e-01  9.90810063e-01
  -4.06817538e-01  5.02692242e-01 -4.65460569e-01  4.51328724e-01
   4.27864961e-01 -6.86722881e-01 -3.16254534e-01  5.98010463e-01
  -1.00793528e-02]
 [-6.22670515e-01  2.22786279e-01 -7.68780991e-01 -2.73304072e-01
   8.19989796e-01 -7.29897214e-02  7.50366242e-01  6.66709105e-02
  -6.07282079e-01  6.62719143e-01  1.24001819e-01  9.44156885e-01
  -7.43079858e-01  3.81678834e-01 -5.15671986e-02 -1.71355044e-02
   4.31597389e-02  4.70590886e-01 -1.30358047e-01  2.05904855e-01
  -3.86264522e-01  3.60386148e-01  9.72318782e-01  7.00031376e-01
  -9.86398539e-01 -8.63677706e-01  3.61610888e-01  3.27758696e-01
  -6.69132685e-01 -3.96416757e-01 -5.23312219e-01 -7.85921498e-02
   4.62454102e-01 -7.39538345e-02  5.93553263e-01 -8.16398333e-01
  -3.91705610e-02  1.05082076e-01  5.71507568e-01  8.67220385e-01
   2.38090153e-01  1.80552647e-01 -3.10506865e-01 -1.76018814e-01
  -7.11038960e-01]
 [ 6.77983103e-01 -2.62680764e-02 -7.69452372e-01 -3.85908616e-01
  -6.68340657e-01  7.14667319e-01  6.29313934e-01  6.58285373e-01
  -8.59246437e-01  7.33070522e-01  3.81487891e-02 -9.54143234e-01
  -3.99252282e-01  5.15659702e-01  9.67031426e-01  5.19056466e-01
  -2.25361591e-01 -2.71134577e-01 -2.25879246e-01 -7.66701153e-01
  -6.44269152e-01 -2.41508973e-01 -7.94449393e-01 -2.12933802e-01
  -7.15375569e-01  7.66529222e-01 -6.68986988e-01 -7.87986429e-01
  -9.74621938e-01  4.60449145e-01  3.49066923e-01  6.51126463e-01
   4.62016757e-01  5.65407765e-01 -2.20098791e-01  4.85362794e-01
   4.57569108e-01 -8.45798458e-01 -6.87459776e-01 -9.10608841e-01
   3.12258439e-01 -1.21780068e-01 -8.05465162e-01 -5.65811762e-01
  -4.77026141e-01]]
[[-7.36069595e-01 -3.93821941e-01  7.15979979e-01  1.01846409e+00
   1.36079385e-01 -7.38129362e-01  7.22330267e-02 -2.20678149e-01
   4.43455049e-01  9.89674463e-01 -5.98802034e-01 -3.42302295e-01
  -4.53531453e-01 -2.51971284e-01  9.89849723e-01  5.04293897e-01
   1.02281883e-01  5.95729729e-01  6.29392813e-01 -2.66243948e-01
   6.96256943e-01 -3.66452314e-01  8.50885849e-01  4.46977386e-01
   6.53938056e-01  8.89009625e-01  7.23804395e-01  4.71022248e-01
   1.11184670e-01 -7.97939870e-01]
 [ 4.20308438e-01 -3.93716153e-01  7.95470810e-01 -5.14271887e-01
   9.31005125e-01  8.57261655e-01 -9.58188489e-01  1.10196716e-01
  -2.61975813e-01 -8.10474267e-02 -3.94640747e-01 -6.59724737e-01
   6.32318553e-01 -4.33348476e-02 -3.25434115e-01 -1.52633891e-02
   6.78186100e-01 -2.74243808e-01 -7.15085210e-01 -3.48085043e-01
   2.83324220e-01 -5.01979626e-02 -2.42289732e-01  4.09102171e-01
  -2.37657808e-01 -7.00497926e-01 -3.73567072e-02  2.22659065e-01
   1.02470520e+00  3.26768533e-02]
 [ 6.17353580e-01 -6.93681618e-01 -9.62764514e-01  7.47205637e-01
   4.65355640e-02  6.29997770e-01 -2.15770414e-01  2.95349776e-01
  -1.01112314e+00 -8.66677376e-01  9.58143517e-01  7.09200712e-01
  -7.34838060e-01  8.51948371e-01  2.98953393e-01 -5.75345378e-01
   3.87491920e-03 -7.25345142e-01  3.54699892e-01  1.46074866e-01
   2.22781848e-01 -5.83017392e-01 -9.68509762e-03 -7.60466353e-01
   6.55072670e-01  8.10289366e-01 -2.37803366e-01  2.19292970e-01
  -9.56052993e-01 -1.75792188e-01]
 [ 8.42968266e-01  8.92031091e-01  1.32172570e-01 -2.38092936e-01
  -8.42123127e-01 -3.52420534e-01 -4.73053913e-01  8.34670790e-02
   3.36928093e-01  4.61385293e-01 -4.16752703e-01 -1.12159107e+00
   5.31035464e-01  5.28012246e-01 -7.05183023e-01  6.15773493e-01
  -5.45633991e-01  4.05674838e-01  5.80073794e-01  9.71967309e-01
  -6.82590662e-01  5.82065543e-01 -1.26342954e-01  2.56530847e-01
   6.10982949e-01 -6.72058225e-01 -4.64881223e-01 -6.75445582e-01
   1.47369234e-01 -5.29319935e-01]
 [ 1.02998123e-01 -2.75136621e-01 -6.62167191e-01  1.00583247e+00
  -3.84431226e-01  3.72339022e-01  7.27348439e-01  5.74187790e-01
  -8.24477048e-01  3.31366688e-01  3.57127615e-01  2.51369362e-01
   1.38565982e-02 -7.89616356e-01  4.41937685e-01  2.35628994e-01
  -3.33693036e-01  2.42943006e-01  6.78439951e-01  4.97142649e-01
   5.93031069e-01 -8.72169375e-01  4.95127810e-01 -9.73470588e-02
  -9.60203764e-01  5.66867135e-01  4.31912940e-01 -3.14163423e-01
  -3.38749489e-01 -2.22691882e-01]
 [-4.28178352e-01 -9.48690032e-01  9.60753669e-01 -5.69716672e-01
  -1.04533761e-01  6.33540011e-01  5.76695994e-01 -3.99127726e-01
   7.07017084e-01 -4.70576895e-01  8.20438690e-01 -9.37761756e-01
   3.14446670e-01 -5.38766524e-02 -4.06844645e-01  8.90974676e-01
  -2.46550733e-01 -7.24874871e-01 -4.10547782e-01  3.36976705e-01
  -3.46574784e-01  3.78351801e-01 -6.56242599e-01 -6.31277415e-01
  -5.86324675e-01  2.83443586e-01 -2.34338995e-01 -8.51382402e-02
  -7.78680909e-01 -8.69020701e-01]
 [ 5.58883880e-01  5.62959628e-01 -7.82578866e-01  1.63269303e-01
   4.51273378e-01  7.93058713e-01  2.20665799e-02  4.02433036e-01
   1.02766601e+00  9.94386394e-01  3.07663467e-01 -8.74472438e-01
  -6.55842699e-01 -7.36094863e-02  3.54226358e-03  8.74438274e-01
  -1.76861185e-01  5.98810312e-01  6.07567924e-01 -4.94948444e-01
  -9.35448168e-01 -2.13544297e-01 -6.65072034e-01 -8.37084122e-01
   2.08246893e-02 -5.58901859e-01 -5.57275085e-01 -6.28582312e-01
  -1.97797663e-01  7.15207006e-01]
 [-7.59018551e-01  2.74451701e-02 -8.57264260e-01 -7.16268646e-02
   7.52321166e-01 -9.96226194e-01  2.05941147e-02  2.92112564e-01
  -8.57668184e-01  6.83764978e-01  2.34587860e-01  9.65027156e-01
   6.54988632e-02  3.98830316e-01 -4.41738350e-01 -5.00701573e-01
   8.20588807e-01  1.91703807e-01  1.17176760e-01 -8.60031150e-01
  -4.75661887e-01 -6.13869688e-01  1.97133861e-01 -3.29040694e-01
   1.96913335e-01 -2.38453951e-01  5.08574136e-01  9.77136576e-01
  -3.29882092e-01  2.19949001e-01]
 [-3.46475467e-01  7.13616575e-01 -1.04065140e+00 -7.07344679e-02
  -1.29546232e-01  2.62334381e-02 -6.61170796e-01 -9.60959780e-01
   4.72501413e-02  8.07412644e-01  5.81135579e-01  8.89713656e-01
   9.99543475e-01 -3.87044302e-01 -6.10691855e-01 -7.34987815e-01
  -8.56190253e-01  8.47211202e-01 -4.52274733e-01  7.19186488e-01
  -1.75752289e-01 -4.76726824e-01 -8.94048041e-01  4.95541847e-01
   9.56212121e-01  8.99870330e-01  6.14693374e-01  9.54928215e-01
  -8.04353340e-01 -9.77356655e-01]
 [ 1.35914201e-01  7.43059394e-01 -4.93842936e-01 -9.03829738e-01
  -2.25334368e-01 -6.73884304e-02 -8.06766033e-01 -6.81424080e-01
  -5.87081474e-03  7.57813181e-01  7.63340426e-02  5.39919881e-01
  -1.34863604e-02 -3.40433245e-01 -2.66125882e-01 -4.22766652e-01
  -5.39655101e-01  3.24174261e-01  6.96041781e-01  4.51330903e-01
  -8.30527351e-01 -2.63352427e-01  2.48502826e-01 -8.55284090e-01
  -8.44133644e-01 -1.92301070e-01  2.46300963e-01  7.78560234e-01
   2.18791774e-01 -3.72524197e-01]
 [ 2.13373337e-01  8.46977355e-01 -2.91277676e-01 -4.13241083e-01
  -2.54787123e-01 -7.60548677e-01 -6.71367937e-01 -3.26472557e-01
  -8.70204683e-01  3.34242541e-01 -1.35324967e-01 -4.57003433e-01
   1.15993795e-01 -3.05705785e-01  5.07035498e-01 -2.44074283e-01
   8.66652485e-02 -6.30923844e-01 -8.51005417e-01  6.23985022e-01
   7.70163485e-01 -8.54729911e-01  6.04896084e-01  9.67249767e-01
  -3.72106194e-01 -2.84115480e-01 -1.03476119e+00 -2.86263695e-01
   1.70205236e-01  8.56549628e-02]
 [ 8.06942024e-01  5.57278866e-01 -7.51337952e-01 -4.67351036e-02
  -6.95351889e-01  2.89427811e-01 -6.58846793e-02 -4.66073442e-01
  -5.95300661e-01  5.60325107e-01  3.65119862e-01  2.57355448e-02
   2.52082041e-01  3.31053885e-01 -7.21174660e-01  8.38376513e-01
   5.84106526e-01  2.34212404e-01 -3.42558486e-01 -3.23458240e-01
  -4.15798531e-01  4.31384045e-01 -4.08919184e-01  1.28114099e-01
   9.35233077e-01 -1.50864830e-01  1.22269682e-01 -9.00427731e-01
  -7.35298362e-01  6.66470346e-01]
 [ 9.56494994e-01 -5.75941545e-01  6.57407715e-01 -6.68591763e-01
   6.14142933e-01  9.14700423e-01 -7.54840423e-01  9.96903190e-01
  -5.09998085e-01  4.59332277e-01  7.55980817e-01  5.25880462e-01
  -7.22224743e-01 -6.11212132e-01 -7.61641904e-01  1.96348311e-01
  -5.05630653e-01  3.25693776e-01 -4.02338354e-01 -3.35525853e-01
   4.29922591e-01  7.87537379e-01  3.27474656e-01  4.58330539e-01
   8.03721923e-01 -2.41506538e-01  2.32774552e-01  6.45302410e-01
   6.10894997e-01 -1.02371272e+00]
 [-5.57149097e-01 -6.51305819e-01 -7.03775299e-01 -9.89318724e-01
   8.70134528e-01  2.53334623e-01  8.25859408e-01 -6.32652863e-01
   1.77466481e-01 -6.02243327e-01 -1.96193887e-01 -7.14529579e-01
   3.50502943e-01  2.13086170e-01 -7.23832617e-01 -2.02223556e-01
  -5.69177475e-01  9.83396018e-01  9.07288030e-02 -4.22046686e-01
   9.31672286e-02 -8.65502104e-01  1.26911088e-01  2.42468294e-01
   5.20637459e-01 -6.12224462e-01 -3.19009215e-01  6.27782368e-01
   8.98899618e-01  5.58219164e-01]
 [ 8.44290762e-02 -1.33159484e-01 -7.64972464e-01  2.23275959e-01
   4.69042238e-01  4.07090005e-01 -8.64373191e-01  4.38467336e-02
  -7.94187151e-01  2.45834822e-01  7.59571228e-01 -7.12969612e-01
   9.20225221e-01  5.40143670e-01 -2.67024221e-01 -3.67604314e-01
  -6.57357397e-01  8.23840611e-01  5.09096571e-02 -2.24211813e-01
  -7.20074839e-01 -5.40338003e-01 -1.75878165e-01 -8.60036666e-01
  -2.24258146e-01  5.10206972e-01  3.80179760e-01  8.04386565e-01
  -6.94563070e-01 -4.68013109e-01]
 [ 6.57215876e-01  3.19009551e-01 -9.98497316e-02  4.01878596e-01
   8.33906419e-01 -2.57907238e-01 -1.47284332e-01 -7.48422958e-01
   6.26965143e-01  4.01975327e-01 -5.22713944e-01 -4.16289394e-01
  -2.81757928e-02  5.21829855e-01 -8.53476598e-01  5.34253837e-01
  -7.53834842e-01  7.17488472e-01  1.13870337e-01 -6.75967379e-01
  -9.68392560e-01 -9.28255712e-01 -4.27168100e-01  4.76007216e-01
  -6.02301652e-01 -1.71592768e-01 -2.81685016e-01  1.00187739e+00
  -7.85993965e-01 -9.59799067e-01]
 [-9.64071836e-01  3.85371106e-01 -2.17431350e-01 -7.64962478e-01
   3.75682960e-01  5.57308461e-01 -1.54135261e-01  5.21143120e-02
  -8.43132015e-01  1.76048275e-01 -9.63491374e-02 -6.16727173e-01
  -7.54379716e-01  8.00240527e-02  5.84709701e-01 -2.20065984e-02
  -6.47056251e-01 -7.35787347e-01 -3.89615617e-01  8.00645909e-01
   1.55531735e-01  2.98046008e-01  8.24037499e-01 -2.23599111e-01
   4.79684940e-02 -1.21151975e-01 -3.73265653e-01  9.30647909e-01
  -4.85137451e-01 -9.72677238e-02]
 [-5.52275558e-01 -1.91618070e-02  4.04614950e-01 -9.35581679e-01
  -6.50343061e-02 -5.31364858e-01  8.14905013e-01  1.08935366e-01
  -6.60452435e-01 -7.19701238e-01 -2.00836220e-01  6.17665879e-01
   1.44645896e-01  6.06933884e-01 -6.85635584e-01  6.28512434e-01
   8.55848668e-01 -3.43301286e-01 -6.46179771e-01 -1.65212092e-01
  -2.74583195e-01  7.22647183e-01  7.74908933e-01  9.97314967e-01
  -4.71737732e-01  7.34206594e-01  5.09250431e-01 -2.78623826e-01
  -1.73548537e-01  7.27328719e-01]
 [ 9.18170679e-03 -2.65866752e-01  6.61037207e-01 -9.90319696e-02
   6.23778616e-01  4.05306630e-01  3.52302441e-01 -1.50482883e-01
  -1.97762217e-01 -8.81262884e-01  7.23744914e-01  3.91266183e-01
  -4.88574065e-01 -8.00047020e-01 -7.33632434e-01 -7.76716181e-01
  -2.92106468e-01 -4.88034563e-01  9.58977921e-01 -3.35383046e-02
   3.05514221e-01 -9.53174101e-01  1.80111416e-01 -9.15068201e-02
  -3.72195016e-01 -6.12917273e-01 -1.32515454e-01  5.27740030e-02
   6.81006437e-01  1.85467513e-01]
 [ 5.49404961e-01  9.43898526e-01  3.47890160e-01  3.94896843e-02
   5.27023877e-01 -6.06480246e-01  4.70450598e-01 -9.45143172e-01
  -7.21129411e-01  5.06387987e-01  8.56178489e-01  8.74420296e-01
   4.87575693e-01 -2.60017232e-01 -8.56331916e-01 -8.27600378e-01
  -7.62339658e-01 -7.41844695e-02 -4.83852450e-01 -9.18779524e-01
   1.82618118e-02  2.67806636e-01  3.52913186e-01 -1.48652765e-01
  -1.59590633e-01 -4.30821349e-01  7.57408336e-01  1.01526896e+00
  -1.36914421e-01  6.35173954e-01]
 [ 2.11930125e-01  1.05233325e-01  7.47246422e-01 -5.42137882e-01
   8.17402545e-01 -2.27164850e-01 -1.62563948e-01  6.70940046e-01
   2.95856470e-01 -4.43700406e-03  5.87437610e-01  2.05960707e-02
  -9.57208784e-01 -2.44424186e-01  3.41361310e-01 -1.07613078e+00
   6.58414595e-01  6.60607076e-01 -7.80240745e-01  2.75997277e-01
   4.69130286e-01  9.50027743e-01  5.17260776e-01 -2.57908736e-01
  -2.59474329e-02 -5.34771754e-01  9.01247720e-01 -8.06425434e-01
   7.70339180e-01 -6.42122495e-01]
 [ 5.17576617e-02 -8.32666100e-01 -8.40316617e-01  5.72863629e-01
   2.60165627e-01  3.42344931e-01 -1.10998509e+00 -3.21140097e-01
   2.13387347e-01 -3.10390327e-01  9.02254784e-01  5.55652167e-01
  -9.32548453e-01 -4.04007295e-02 -1.37562312e-01  5.38499186e-02
  -8.26941323e-01 -9.11894996e-01 -2.92715159e-01 -7.02563059e-01
   8.99884877e-01  9.73891501e-01 -3.90911738e-01  4.64336124e-02
  -4.63935598e-01  2.74839080e-01 -8.30881714e-01  5.56422968e-01
  -2.98624009e-01 -4.33363479e-01]
 [-8.07317374e-01 -8.48786351e-01 -3.33646096e-02 -3.44600120e-01
   6.91950828e-01 -5.11219551e-01  1.03960648e+00  6.02727701e-01
   2.77238392e-01  6.86576385e-01 -2.52211867e-01  1.24443589e-01
   3.75038739e-01 -8.58881406e-01 -9.67077301e-01  5.09145908e-01
   5.44119426e-01 -1.34789945e-01  6.61152023e-01  6.86355227e-01
   3.21497741e-01 -5.11417178e-02 -1.06487510e+00  1.73976813e-01
  -8.38803572e-01  6.60137818e-01  3.37864199e-02  2.33315182e-01
  -1.43720362e-01  2.37366573e-01]
 [-3.74027784e-01  1.30712966e-01 -8.90826014e-01 -8.50967254e-01
  -9.56597089e-01 -7.19492797e-01 -4.55244807e-01 -3.61796969e-01
  -9.79247267e-01 -8.26036954e-01  9.22803207e-01 -4.17547317e-01
  -4.44134287e-02  9.89431590e-01  7.04118360e-01 -9.98881927e-01
  -5.19564927e-01  7.97632740e-01  5.66722900e-01 -7.56443433e-01
   5.95997034e-01  3.22531202e-01 -7.94081079e-01 -7.64598271e-01
   4.01494988e-01  7.92475237e-02 -3.77795341e-01  3.07690332e-01
   4.58274557e-01  3.10217389e-01]
 [-6.10299626e-01  4.83438772e-01  6.23457544e-01  9.04982463e-01
   6.21022847e-02 -3.79944794e-01 -1.92040030e-01 -1.98965336e-02
  -6.34744847e-01 -8.90706037e-01  5.91985738e-01  4.01768182e-01
   1.69177802e-01  6.47851297e-01 -6.91153900e-01 -9.21519340e-02
  -8.58991297e-01  6.05924323e-01 -4.28084064e-01 -3.57225362e-01
   4.02346536e-01  4.70607308e-01  4.01486916e-01  7.51412419e-01
  -8.13939470e-01 -6.73850432e-01  1.84891745e-01  1.04122357e-01
  -7.28002232e-01  6.47070843e-01]
 [ 9.03828620e-01  5.28488934e-01 -1.61428000e-04  1.08473198e+00
   8.05056261e-01  2.42549545e-01  6.96958654e-01 -3.14829226e-02
   6.89231583e-01  4.79049673e-02  7.87053298e-01 -3.29066078e-01
  -3.45758940e-01 -5.02725540e-01  5.02044778e-01  1.61793502e-01
  -6.54418375e-01  2.84552583e-02 -5.58118477e-01 -7.83291946e-01
   7.36735313e-01 -6.83973500e-01 -2.46667965e-01  8.26639322e-01
   4.72469015e-02 -2.41844651e-01  8.07450585e-01 -1.03495827e+00
   1.78838719e-01 -4.37517563e-01]
 [ 1.85953014e-01  4.60484957e-01 -5.45307624e-01 -2.46027216e-01
  -9.50961115e-01  9.89446160e-01  2.43116180e-02 -4.65748280e-01
  -1.89103257e-02  1.89352496e-02  5.97209922e-01  9.51723756e-01
   8.18784586e-02 -1.07013077e+00  2.09948592e-01 -1.74561864e-01
  -2.05432890e-01 -6.61474756e-01 -1.01723890e+00  8.63880221e-01
   7.09729618e-01 -7.60393634e-01 -1.35831916e-01  7.99446205e-01
  -5.68893258e-01 -1.80013420e-01  2.09665926e-01 -4.16097743e-02
  -6.97951838e-01 -1.87786071e-01]
 [ 6.13206572e-01  7.14809583e-01  2.81755790e-03  5.23214398e-01
   1.25816969e-01  5.02901981e-01  4.79857064e-01 -4.04201278e-01
  -8.19853730e-01 -8.86241147e-01 -9.78345136e-01 -7.36292048e-01
   3.20464765e-01  1.10627165e-02  4.60854175e-01  3.51196477e-01
  -6.30193629e-01  1.41492502e-01 -2.34025731e-01 -3.27680581e-01
   4.90008452e-01 -1.90119806e-01  7.12744654e-01 -9.46754722e-01
  -5.36916373e-01 -3.44366504e-01 -2.50471263e-01  4.53764255e-01
   9.79835989e-01  2.85637633e-01]
 [ 8.61853797e-01  3.33604629e-01  3.99434057e-01 -7.00985057e-01
  -9.00593125e-01 -6.18382363e-01  1.06340575e+00  4.05577773e-01
  -7.45814308e-02  2.03305386e-01  2.68794128e-01 -4.37305925e-01
  -7.26171832e-01  9.49576272e-01  8.48545551e-01 -3.04278734e-02
   5.55203467e-01 -7.36373467e-01  4.30108293e-02 -8.92609821e-01
  -1.57086817e-01 -1.10591778e-01  5.45836304e-01  8.44654860e-01
  -5.66723462e-01 -4.38615131e-01 -2.34821473e-01  7.14910219e-01
   6.13438865e-01 -8.60895826e-02]
 [-6.96828174e-01 -7.75149954e-01  2.72914251e-01 -9.28147388e-01
   6.64835534e-01 -7.07816264e-01 -7.89765385e-01 -4.98572069e-01
  -6.66339746e-01  6.32798790e-01 -2.68022276e-01 -8.54969926e-01
   4.23564591e-01  6.63336673e-01 -4.12787980e-01 -7.47625849e-01
   1.51299144e-01  1.27729638e-01 -6.02732593e-01 -9.24985073e-01
  -8.30137834e-02 -1.00294126e+00 -3.13490807e-02  2.00773585e-01
  -1.33661418e-01  6.42804308e-01  1.44670294e-01 -4.14640572e-01
   1.22808019e-01  5.83159829e-01]
 [-4.24254733e-01 -2.00457887e-01 -9.09076807e-01  6.88544185e-01
   7.06197132e-01  8.27184678e-01  3.67015325e-01  6.46010160e-01
  -4.39352378e-01 -5.94319136e-01  7.47060563e-01  2.91231870e-01
   8.92399862e-02 -8.08696616e-01  6.91731112e-02  7.22234504e-01
  -8.50544487e-01 -6.25231345e-01 -5.86583893e-01  3.86921730e-01
   5.25960194e-01 -1.33100043e-01 -1.82133307e-01  1.41830191e-02
  -2.48404910e-01 -7.06982732e-01  9.01030447e-01  4.51894789e-01
   7.51112272e-01 -1.04223370e+00]
 [ 1.03496168e+00  5.80707190e-02  8.85941865e-01 -5.14676613e-01
  -5.19928122e-01  4.43430680e-01 -6.22061669e-01  9.94155075e-01
   2.61294123e-01 -1.86416800e-01 -6.44719034e-01  5.79572182e-01
  -7.10399415e-01  7.96644437e-01 -4.98371654e-01  7.14313493e-01
  -7.41003463e-01 -5.89016931e-01  4.45675222e-01  7.48552888e-01
  -2.80004451e-01  3.79778757e-01  5.55397859e-02 -8.38223281e-01
  -6.83705699e-01 -1.65582388e-01 -8.51451823e-01 -7.16136248e-01
   9.61060119e-01 -3.62662732e-01]
 [-5.02329235e-02  4.79722111e-01  7.87410871e-01 -4.09146348e-01
  -1.21053844e-02  3.08002189e-01 -8.19867373e-01  3.04233706e-01
  -4.24930497e-01 -5.29443983e-01 -5.68161736e-01  3.39383289e-01
   3.83351787e-01 -2.20076627e-01  9.36693205e-01  7.42041866e-01
   1.23970091e-01  3.02905045e-01  4.06638112e-01 -4.73133798e-01
  -6.76233229e-01 -1.66506990e-01  3.61295124e-01 -8.50344675e-01
   4.15604356e-01 -3.52535595e-01 -7.09734849e-01  4.48519471e-01
  -1.01219841e-02 -3.90727873e-01]
 [-3.56300945e-02 -8.47321195e-01  7.39191269e-01 -3.29180444e-01
   5.72884162e-01  3.95040457e-01 -1.81307151e-01  9.79813435e-01
   4.38657210e-01  5.31869737e-01  4.17567646e-01  1.39374443e-01
  -7.90177321e-01 -6.17739821e-01 -6.65714917e-01  8.01315427e-01
  -9.66492378e-01 -8.64800669e-01 -7.26622381e-01 -8.75392145e-01
   6.19906180e-01  8.86760439e-02  4.98939584e-01  3.64003060e-01
  -8.48976847e-01  8.53473696e-01 -4.34389105e-01 -5.14359794e-01
  -5.78800089e-01  4.96774815e-01]
 [-5.35976239e-01  5.43694446e-01  6.83166724e-01  4.17782784e-01
   2.84575542e-01 -5.78790365e-01  7.84304694e-01  3.99712467e-01
   2.65991278e-01  7.76773556e-01 -1.19079810e-01  3.44119120e-01
  -9.71738118e-01 -3.36545824e-01  5.19512198e-01 -3.52117975e-01
   1.02312544e+00 -9.93011724e-02  2.26660475e-01 -7.24842566e-01
  -5.11554439e-01  4.84231100e-01 -9.78159320e-01 -4.74062653e-01
  -1.44651447e-01  9.87574094e-02  4.54657831e-01 -6.12390091e-01
   2.08061723e-01  5.35284434e-01]
 [-5.10520474e-01  7.40748214e-01  5.88295653e-01  2.92691168e-01
   6.29079834e-02 -8.09948198e-01 -9.54804608e-01  3.01695845e-01
   6.56672093e-01  7.51494685e-01  1.29368936e-01  2.52599113e-01
  -8.11212134e-01  7.83802373e-01  2.60584899e-01 -1.13351957e-01
  -9.94244632e-01  3.72306735e-01 -7.52054291e-01 -8.72910906e-01
  -5.60005003e-01  9.20117291e-01 -7.67021878e-01 -2.02117078e-01
  -5.21398911e-01 -2.60801948e-01 -8.39234296e-01  5.98891022e-01
  -8.44172827e-01  9.97659919e-01]
 [ 5.09745895e-01  4.03306756e-01 -8.69914570e-01 -4.68257492e-01
   8.78312515e-01  7.12907720e-01  6.82106782e-01 -8.37200443e-01
   1.59699290e-01  7.69913774e-01  3.95444167e-01  7.83239815e-01
   2.62388316e-01  3.53520816e-01 -6.84755547e-01  4.17314724e-02
  -2.35824780e-01 -1.75410544e-01 -1.10062996e-01 -9.54913325e-01
  -2.67375223e-01 -7.38859268e-01  6.06151301e-03  6.76692848e-01
   2.68332956e-01 -6.21250438e-01 -2.78874235e-01 -7.67667544e-01
   4.29857915e-01  8.04758777e-01]
 [ 8.78935798e-01  7.17228541e-01  4.26747114e-01  7.36064488e-01
  -2.38384225e-01 -3.83734241e-01  1.00584872e-01 -5.95279543e-02
   7.59644103e-01 -1.79119783e-01  1.50896865e-02  1.33945282e-01
  -6.28213511e-01 -3.36520333e-01 -2.82527821e-01 -7.87087937e-02
   4.12032769e-01 -1.00696000e+00  7.64776429e-01  3.04173054e-01
  -7.62217743e-01  2.50537544e-01 -6.81382172e-01  4.51122650e-01
   7.18856100e-01 -2.52171830e-02 -6.93873666e-01  8.39367001e-01
   5.08100069e-01  8.72735768e-01]
 [-2.75142560e-01 -2.04662097e-01 -6.78211810e-02  8.55211853e-01
   8.27289586e-01 -9.80317416e-01  8.38823536e-01 -1.80559905e-01
  -5.35148418e-01  3.27967637e-01  9.01766285e-01  7.11142684e-01
  -4.20741328e-01  4.06017687e-01 -7.37237202e-01  1.60742272e-01
   1.77363869e-01  6.60856240e-01  9.99452364e-02  3.72630125e-01
   4.23978485e-01  3.53157130e-01  1.30541442e-01  2.71851249e-01
  -5.61994451e-01  8.11479541e-01  1.03588458e+00 -2.51625886e-01
   5.56162927e-01 -1.03585947e+00]
 [-5.81950335e-01  9.23533827e-01  3.61313420e-01  1.20311737e-01
  -1.78174003e-01  7.61207109e-02  7.66929261e-01 -4.67021991e-01
   7.82541875e-01 -2.91812192e-01  1.28714272e-01 -3.19205519e-01
  -7.57105795e-01  1.69444498e-01 -4.80363172e-02 -3.85728390e-01
   6.45763879e-01  6.85239650e-01 -4.76461987e-01 -2.22692423e-01
   8.71008466e-01  4.07985596e-01 -9.98084750e-01  3.60005654e-01
   3.60612368e-01 -9.94402105e-02  8.22281995e-01  1.22562189e-01
   7.68829805e-01 -1.05095195e+00]
 [-5.88748714e-01  6.46100315e-01  7.29294253e-01  4.40840396e-01
   2.97309374e-01  8.31230024e-01 -6.00421952e-01 -7.10916294e-01
   6.58849410e-01 -4.81223016e-01 -8.22336161e-01 -7.16276459e-01
   8.89856488e-01  3.97939426e-01  7.64990251e-01  4.61221930e-01
  -3.81103143e-02 -4.41742001e-02  7.50690143e-01 -5.52924705e-01
   7.97771584e-01  9.64677848e-01 -8.97194154e-01  8.09056671e-01
   8.96243216e-01  2.44316080e-01 -2.62409874e-01 -3.59361192e-01
  -8.86658765e-01  3.59364665e-01]
 [-7.10539456e-01  8.98383921e-01 -8.93760886e-01  3.19545144e-01
   1.70750173e-01  5.62684846e-01 -5.69693446e-01  2.73027750e-01
  -6.97309677e-01 -5.96372238e-01 -3.04422002e-01  5.61735808e-01
  -2.55288451e-01 -1.00940729e-01 -5.63319453e-01  9.12183176e-02
   5.19304979e-01  5.71127988e-01  8.17438920e-01  1.79198529e-02
   8.74941210e-01  3.51974295e-01 -1.66278783e-01  9.57971060e-01
  -2.83828998e-01 -3.92041432e-01  9.36203939e-01  7.24777999e-01
   1.57392736e-01 -7.01016553e-01]
 [ 5.99652973e-02 -5.53076545e-01  8.63561715e-01  2.05364514e-01
  -6.32278696e-01 -3.61690141e-01  3.46196239e-01 -4.11576301e-01
  -5.17722171e-02  1.60471363e-01  1.49388621e-01  8.55951884e-01
   9.93696308e-01  6.81124620e-01  9.81416821e-01  4.13208916e-01
   8.15068835e-01  7.95859566e-01 -7.55696921e-01 -7.19580133e-01
  -8.18890422e-01 -9.99033571e-01  1.32206159e-01 -8.76432597e-01
  -2.39098229e-01 -6.07385379e-01  8.38432558e-01 -6.67312842e-02
  -3.16007621e-01 -6.76444538e-01]
 [ 4.35276971e-01  8.63416058e-01  3.40027035e-01  9.49454940e-01
  -3.05736493e-01 -4.18538802e-01 -6.04160273e-01 -5.01528502e-01
   5.89764741e-01  6.79395556e-01 -5.68138992e-01  1.00038225e+00
  -9.22667823e-01 -5.45378455e-01 -1.45233291e-01 -1.90186966e-01
   4.78175475e-01 -9.00368489e-01  6.61176323e-01 -1.66572921e-01
  -1.30562714e-01  9.34525427e-01  4.54324195e-01 -9.00251226e-02
  -7.77269223e-01 -8.99977112e-01 -5.78110211e-01 -7.63230265e-01
   1.02821929e+00  5.78857176e-01]
 [ 8.18719686e-01  4.86650268e-01  5.94366927e-01 -1.32532362e-01
  -6.55728410e-01  9.04799952e-01 -3.64835107e-01 -2.09705060e-01
   2.50538948e-01 -6.97230571e-01  4.27244034e-01  6.52607387e-02
  -3.70254501e-01 -9.49261419e-01 -4.62345528e-01 -3.44430946e-01
  -4.19786483e-02  2.42272484e-01  1.02972580e+00  3.39137878e-01
  -1.85162900e-01 -1.70214186e-01  8.95637965e-01  5.27255672e-02
   5.86720759e-01  5.68582670e-01 -1.13950976e-01 -9.61219104e-01
   9.86807007e-01  6.07387332e-01]
 [ 2.61738529e-02 -4.08046730e-02 -9.38060981e-01 -4.30684206e-01
  -3.31407644e-02  9.43012363e-01 -8.27564455e-01  1.56090718e-01
   6.50313424e-01  8.33481770e-01 -7.81816514e-01  7.07037113e-01
  -6.15623345e-01  4.14136558e-01  8.20869757e-01  2.73464067e-02
  -7.76076067e-01 -2.35465746e-01  8.08136380e-01  1.11315748e-01
  -6.76196110e-01 -3.41173145e-01  9.95522006e-01  5.65266230e-02
   9.73180046e-01 -3.26928826e-01 -7.95021545e-01  7.11633623e-01
   5.18073075e-01 -2.35781217e-01]]
[[ 8.47649394e-01  9.46279811e-01  3.24549954e-01 -5.62057047e-01
   7.21867509e-01  1.04717910e-01  6.74567697e-01  5.21054119e-01
   8.78959439e-01 -7.81758266e-01 -5.63702667e-01 -8.85988319e-01
   9.89787201e-01  4.90525083e-01 -6.72187395e-01 -9.40347193e-01
   8.90586307e-01 -1.93658000e-01 -8.55638565e-04 -9.38601049e-01
  -6.21364850e-01]
 [ 1.87065853e-01  3.72387456e-01 -5.09785764e-01 -3.86300371e-01
  -4.21523114e-01  4.15793670e-01 -3.88622268e-01 -8.03507024e-01
   2.20533072e-01  7.38221767e-01 -1.91092586e-01 -3.82932802e-01
  -3.61662172e-01  5.24740643e-01  7.78358974e-01  9.26865083e-01
   2.34456982e-01 -1.26553230e-01 -2.79119595e-01 -3.83537177e-02
  -9.36511233e-01]
 [ 8.93586517e-02  8.29048701e-01 -1.01022033e+00 -5.64020187e-01
  -7.33926725e-01 -9.41992439e-01 -5.63111644e-01 -8.89966891e-01
  -3.57879157e-01  1.59463726e-01 -6.98570069e-01 -1.79396154e-01
  -3.58079590e-02 -3.37123728e-01 -6.63578965e-01 -6.32090038e-01
   1.93070582e-01 -2.19009704e-01  4.44398934e-01  1.06172307e-01
   4.59027017e-01]
 [-8.09263190e-01 -1.03474103e+00  4.88734024e-01  1.28541276e-01
  -1.64500378e-01 -3.78807812e-01 -1.14780780e+00 -5.75218677e-01
   4.83051087e-01 -7.62489992e-01  3.89819344e-01 -5.99408923e-01
   6.98197874e-01  6.62034847e-01  7.01848023e-01 -2.54942504e-01
  -6.06924861e-01 -9.43951878e-01  4.68502988e-01  6.93288808e-01
   5.67528605e-01]
 [ 2.01555584e-01  3.64770870e-01  1.07904590e+00 -3.18030112e-01
  -2.72818843e-01 -1.45371919e-01 -6.22680312e-01 -2.92479621e-01
   6.11876755e-01 -3.57034659e-01  8.89483281e-01 -4.66074271e-01
  -6.67725819e-01 -4.92882411e-01 -1.69521040e-01 -3.85045383e-02
   9.87811165e-01  1.05779242e+00 -1.62393505e-01  8.66117722e-02
  -3.17157425e-01]
 [ 5.88672531e-01 -6.51460238e-01  1.24998747e-01 -3.00324593e-01
  -1.48286821e-01 -3.29511202e-01  1.53070676e-01  9.62930622e-01
  -8.42751211e-01 -7.57223645e-01 -2.05877233e-02  1.30372458e-01
   2.69483753e-01  1.83099929e-01  2.34813765e-01 -6.25142779e-01
   2.39633059e-01 -1.40148112e-01 -6.00951426e-01 -3.78120900e-01
   7.66471602e-01]
 [-1.53509773e-01  7.51436873e-02 -6.45822327e-01  2.01780765e-01
  -2.00888771e-02 -5.95014604e-01 -2.67030716e-03  2.34292166e-01
   5.80485257e-01 -1.65241402e-01  8.00124196e-01 -2.08470440e-01
   3.39375781e-01  6.44963586e-01  8.77328446e-01  4.39012125e-01
   5.03105713e-01 -9.44931648e-01 -3.82649353e-01 -1.71789079e-01
   6.91802101e-01]
 [-4.46346773e-01 -9.58266408e-01  1.07256830e+00 -3.30355471e-01
  -9.62621149e-01 -4.30948941e-01  7.20569661e-01  9.78039513e-01
  -5.99296665e-01  5.15179932e-01 -8.40352939e-01 -4.28291838e-02
   2.20515940e-01  3.59468608e-01 -4.94712278e-01  6.82466712e-01
  -7.36092835e-01 -3.99491414e-01 -8.58916078e-01  7.19084890e-01
  -8.59558957e-01]
 [-8.80259193e-01  6.83018708e-01 -7.73607204e-02 -6.25640894e-01
   9.12954303e-01  5.01335852e-01 -4.97061301e-01  5.24311052e-02
  -1.30700858e-01  8.29660846e-01 -2.37468853e-01  2.20035647e-02
  -9.25354537e-01  2.65083379e-02 -6.00763919e-01  1.90406785e-01
   3.75334351e-01 -4.68038162e-01 -1.07201851e+00  3.28037727e-01
  -1.01604027e+00]
 [-2.20470518e-01 -2.28164938e-01  4.84900455e-01 -7.29084644e-01
  -5.92764234e-01 -1.71546148e-02  7.86362619e-01  6.48334630e-01
   7.33990154e-01  2.80629297e-01 -1.92515119e-03 -1.03179523e+00
  -5.10665494e-01  6.51846304e-01  6.29495241e-01  6.63061006e-01
   2.83989336e-01  8.71212577e-01  3.05253888e-01  6.24714466e-01
   5.99266224e-01]
 [-4.08176367e-01 -5.93164589e-01 -5.95446642e-01 -8.76893762e-01
   2.67864228e-01  1.76771434e-01  4.35623497e-01  8.33109468e-01
  -6.47996622e-02 -4.93836645e-01  7.86261287e-01  3.72511078e-01
  -8.61365260e-01  1.03562818e-01  4.24391959e-01 -2.30145925e-01
  -9.12026914e-01  5.11930009e-02  3.63173252e-01 -7.33557150e-01
   3.31441244e-02]
 [-8.91229065e-01 -1.61515658e-01  6.04217734e-01  1.80623229e-01
   8.38762896e-01 -7.50485342e-01 -1.06148977e+00  3.12822169e-01
   5.08462534e-01 -1.85766149e-01  6.22245811e-02 -5.13199915e-01
  -3.27162130e-01  7.56324090e-01 -9.79147967e-01  3.21453069e-01
  -6.25709425e-01  8.01396944e-01 -7.75937982e-01  5.99835706e-01
  -1.03401481e+00]
 [-8.32744199e-01  6.72593718e-01 -7.92796142e-01  3.64331424e-01
   3.11608076e-01  4.97239758e-01 -1.01557951e+00 -9.73614261e-01
   4.04193908e-01  7.33370258e-01 -3.57873018e-01  1.03583899e+00
  -4.64980989e-01 -1.83687942e-01 -3.01240892e-01  8.53288533e-01
  -8.02747654e-01  9.05663704e-01  5.98065938e-01  1.07311071e-01
   5.37138996e-01]
 [ 1.46930288e-01  5.69156430e-01 -3.32071292e-01  7.27375071e-01
   7.14552734e-01  2.97852827e-01  8.61576424e-01  1.49840594e-01
  -5.38630284e-01 -7.97563293e-01  4.67132040e-01 -4.20902666e-01
  -1.10794641e-02  4.85445613e-01  5.18847186e-01  6.25733997e-01
  -5.23928455e-01 -5.05403458e-01  2.46932820e-01  4.18796284e-02
   5.22675659e-01]
 [ 6.03399927e-01  7.62748547e-01  1.05676195e+00  8.28968619e-01
  -3.86041276e-01 -1.36762589e-01  7.35876460e-01 -2.82608796e-01
   7.99727022e-01 -3.42601716e-01 -1.02713216e+00  7.31274736e-01
  -8.66639172e-01 -7.05438977e-01 -6.18873328e-02  9.55482059e-01
  -6.60303597e-03 -4.15675369e-01  5.00361183e-02  3.35710832e-01
   8.02035763e-01]
 [ 8.57787709e-01 -1.08330366e-01  7.86054855e-01  3.89734471e-01
   7.03801204e-01 -8.51560762e-01 -1.40925022e-01 -1.20152191e-01
   7.46438271e-01  4.36075890e-01  2.17397552e-01 -2.75176899e-01
  -4.80506802e-02  8.81588822e-01 -2.08957090e-01 -9.63043105e-01
   8.65570529e-01  8.50441645e-01  3.93981889e-01  2.25607846e-01
   2.73788906e-01]
 [-8.59868958e-01 -4.71926646e-01  9.11830763e-01  5.08949285e-01
  -7.02681099e-01  1.62348491e-01 -3.54998865e-02 -8.58742815e-02
  -7.80713279e-01 -2.38807161e-01  1.03569003e+00  1.31579625e-01
  -6.68137679e-01  7.33005341e-01  8.72713719e-01  8.70576381e-01
  -7.16574392e-01  2.98484522e-01  6.34375452e-01  4.59775559e-02
   1.30860977e-01]
 [-7.30530079e-01  1.45463243e-01  4.35635929e-01  6.74057488e-01
  -8.18851397e-02 -6.10829168e-02 -9.55190450e-02 -4.18985444e-01
   2.69978550e-02 -6.82799194e-01  1.82550058e-01  8.86785463e-03
  -1.36954464e-01 -2.99184790e-01  8.07130814e-01  9.10862387e-01
   5.55112572e-01  1.21789635e-02 -9.10305774e-01  1.17579107e-01
   5.87704768e-01]
 [ 5.72024122e-01  6.40941927e-01 -7.30025931e-01  1.44728934e-01
   1.41187979e-01 -9.95706639e-01  5.78868181e-01 -4.00502384e-01
   1.21812465e-01 -3.68197713e-01 -7.26948480e-02  7.14056649e-01
   9.64256197e-01 -9.91291769e-01 -9.59135590e-01  6.84204091e-01
   2.55310877e-01 -1.78222786e-01  3.82705486e-02 -1.77853264e-01
   2.01516770e-01]
 [-1.03790439e+00  3.91310393e-01  1.05752658e+00  3.86893001e-01
  -2.30121997e-01  4.61103688e-01  9.47039056e-01 -7.27946212e-01
   9.07866110e-01 -6.76834738e-01 -1.13401003e+00 -7.27951278e-01
  -7.19748594e-01 -7.47855051e-01  1.07917956e-01  6.16976113e-01
   1.39644281e-01 -8.35001600e-01  2.64893207e-01  4.94532228e-01
  -8.37438077e-01]
 [-8.02486682e-01 -9.61169858e-01  8.33236733e-01  7.97019097e-01
   2.82504003e-01  9.66190095e-02  3.03262440e-02 -5.76632506e-01
  -3.46633835e-01  1.59559453e-01 -3.93182908e-01  6.09691462e-01
  -1.91158835e-01  4.26141812e-01 -5.94375109e-01  6.61861406e-01
   1.84518543e-01 -2.00402512e-02  1.15225343e-01  6.61161135e-01
  -7.03114955e-01]
 [ 1.28750030e-01  3.42900626e-01 -8.44898590e-01 -8.72017993e-01
   5.51329820e-01  8.96815895e-01  3.76386300e-01 -8.57355988e-01
   2.72109369e-01 -5.68623182e-01  9.20266585e-01  6.55208182e-01
  -4.74761262e-01 -7.19075920e-01  9.80899381e-01  7.09874734e-01
   6.09567331e-01 -4.67890217e-01 -2.57838802e-01 -7.20240638e-01
   1.90195655e-01]
 [ 7.75804603e-01  8.37077294e-03  4.23200748e-01 -1.05106591e-01
   6.21571454e-01  3.89043236e-01  7.07998856e-01  1.09044927e+00
   1.01146024e+00  5.96465930e-01 -1.18616501e+00  2.51132388e-01
   7.34693289e-01  4.35802874e-02  8.63726889e-01  1.96413126e-01
   7.83165147e-01 -1.07864751e+00  7.04750718e-01 -3.64652072e-01
   7.82716118e-01]
 [-6.16350732e-01  9.50933646e-01  1.76242446e-02  8.15307006e-01
  -1.02909271e+00  6.43034961e-01  6.72819676e-01  6.90879646e-01
  -2.96585457e-01  7.00873338e-04  6.94706418e-01  1.03977408e+00
  -6.14877591e-01  9.62522320e-01  1.31351666e-01 -3.11031266e-01
  -9.05934127e-01  8.29351091e-01  8.04887203e-01  3.12152571e-01
  -1.05712415e+00]
 [ 8.57559546e-01 -3.63847438e-01  7.07740495e-01  3.31790964e-01
  -7.29506004e-02  1.45647492e-01 -5.59895787e-01  8.39286929e-02
   7.93335865e-01 -4.87453525e-01  2.83736765e-01 -4.75696299e-01
  -8.70158997e-01  2.36875336e-01 -6.00700252e-01  8.36769360e-01
   4.95799862e-01  4.46462365e-01  8.69941718e-03  9.42016489e-01
   6.46050674e-02]
 [-1.09402458e-02  3.24289448e-02 -6.48692737e-01  4.92403323e-01
   6.41900809e-01 -4.87571067e-01 -1.93096920e-01  3.58644453e-02
  -7.65619443e-01 -1.58932321e-01 -1.20988777e-01  1.15187179e+00
  -8.58489356e-01  8.30319640e-01 -7.56364054e-01 -8.49379157e-02
  -1.06496240e-02  6.10090485e-01 -1.28592309e-01 -6.14843808e-01
  -6.93848682e-01]
 [-2.51346240e-01 -7.83513169e-01  5.90857242e-01  2.55442445e-01
  -5.72347380e-01 -7.26095288e-02  9.11432380e-01 -9.19422973e-01
   7.41221189e-01  8.57419125e-01  6.02654012e-01 -1.86370857e-01
  -2.61663225e-01  5.98891306e-01 -7.08568140e-01  4.44912615e-01
   5.60319486e-01 -3.81944133e-01  5.24997071e-01 -6.40760113e-01
   1.00197998e-01]
 [-2.95374489e-01  8.75485968e-01 -4.15328682e-01 -1.01019319e+00
  -3.14539160e-01  7.11485264e-01  9.03094429e-01  3.87059896e-01
  -5.40612527e-02  6.18067736e-01 -5.32932821e-01 -6.57617715e-01
   5.38334820e-01 -2.28616928e-01  6.40382510e-01  7.89046597e-01
  -6.25986954e-01  8.58089904e-02  3.28100189e-01  1.74102005e-01
   8.77355716e-01]
 [ 8.77746381e-01  3.63046601e-01  6.52539463e-01  4.80500324e-01
  -7.35048976e-01 -1.20812756e+00  5.90330896e-01 -4.80993631e-01
   1.99496756e-01  9.33210390e-01 -7.37591223e-01  4.64926659e-01
  -7.57720554e-01 -1.23029130e+00  6.88195793e-01 -8.06020580e-01
  -9.28171685e-01 -7.98689124e-01  6.96210401e-01  1.02807737e+00
   9.43880054e-01]
 [ 6.48250137e-01  6.13830538e-01  7.90882041e-01 -1.16254756e-01
   1.87744054e-01  5.87415882e-01  4.49875102e-01 -9.01451969e-01
  -1.51306034e-01 -5.33098251e-01 -9.13368085e-01 -5.67624897e-01
   1.87668862e-02 -1.04580160e-01 -9.04008987e-02  5.37989640e-01
   4.38527627e-01  3.25268065e-01 -1.07140530e+00 -5.54261892e-01
  -8.62377425e-01]
 [ 1.00028298e-01  9.43423424e-01 -6.62561652e-01  3.43275722e-01
   7.38749720e-01  4.98974878e-01  4.76760658e-01 -5.71089829e-01
   1.08775460e-01  4.55722042e-02  1.50665293e-01 -7.40718200e-01
  -7.99603916e-01 -2.13339437e-01 -3.30525507e-01 -5.51678220e-02
   1.03183157e+00  6.70686600e-01  4.74743321e-01 -3.38099098e-01
   5.31099222e-01]]
[[ 0.22847356 -0.6179515  -0.79357055  0.17059017  0.84542868 -0.42670576
   0.96978489  0.67688189  0.23430038  0.67571187 -0.80062555  0.21377294
   0.80776046 -0.37173119  0.80733454 -0.49269243  0.31027624 -0.41714375
  -0.65532503 -0.52877918]
 [ 0.00416528 -0.32084397  0.67838212 -0.25885458 -0.47819212 -0.97429252
   0.08287916  0.98978991  0.26280022 -0.96850424  0.64506605  0.66993572
  -0.39492019 -0.54421087 -0.54330648 -0.33494914 -0.00614087  0.70142461
   0.35968895 -0.7004683 ]
 [ 0.27985703  0.42532122 -0.08750278 -0.50067938  0.87020262 -0.9454135
  -0.73589138 -0.26595872 -0.7133508  -0.14240165  0.6553277  -0.96843718
  -0.39481499 -0.69559669 -0.92052819 -0.30077157  0.73364492  0.47274591
   0.11693961  0.35026336]
 [-0.91274915  0.53185674 -0.19077218 -0.67544888  0.98587166  0.48404257
  -0.39761384 -0.35067246  1.13111937  0.94506644 -0.17028618 -0.42015088
  -0.89088723  0.26208388 -0.61984519 -0.20926066 -1.07945072 -0.89984892
  -0.77710822  0.10804753]
 [ 0.10826322  0.47702098 -0.13838275  0.32728671  0.46186406 -0.35671611
   0.84214031  0.5244077  -0.01885969 -0.20535961 -0.1734795  -0.56730962
   0.50329451  0.08311089  0.81502366 -0.96150184 -0.39079504 -0.63106283
  -0.72245421  0.08650923]
 [-0.79996908  0.19293489 -0.05727336 -0.40278705 -0.48443103  0.39278736
   0.91972559  0.44311893  0.7445417   0.38972108  0.91755656  0.61435319
  -0.49652686  0.75940777  0.4058926   0.87440221 -0.84555698  0.45094014
  -0.20818479  0.63322455]
 [-0.53498949  0.40980256  0.39237653  0.44937381 -1.06248364  0.48043389
  -0.79392798 -0.67706655  0.01610425  0.58185074  0.77078147 -0.28291872
  -0.87296536 -0.88523821  0.29780749  0.69822515  0.95500331 -0.5552391
   0.05292729  0.4645835 ]
 [ 0.15266174 -0.22878595  0.15995195 -0.15303258  0.73600492 -0.09006804
   0.61621161  0.60579165  0.18618609  1.01143541  0.68569722  0.09916339
   0.09181658 -0.5104035   0.67743727 -0.74924557 -1.01594765 -0.9759166
   0.31146177  0.47538157]
 [-0.41499018  0.16400961  0.07666118 -0.84223907 -0.81863515 -0.25977256
  -0.90632515  0.39649493  0.84737442  0.27529146 -0.8900522   0.34547675
   0.15663254  0.46114618  0.21686976 -0.90604579 -0.55769695  0.55949236
   0.24691583 -0.842034  ]
 [-0.58109551 -0.03852847  0.51056298  0.66387256 -0.79801774 -0.41358635
   0.6110736   0.59522214 -0.66529898 -0.44569496 -0.75343444 -0.26486463
  -0.56249426 -0.1857055  -0.57991338  0.30363096  0.10791694  0.02861462
   0.17711708 -0.53284208]
 [ 0.88984281 -1.00207238 -0.36404538  0.02516723  0.69167226 -0.7831933
  -0.43621592  0.52579566 -0.73333541  0.8262524  -0.40265764  0.11838292
  -0.4606807  -0.62191053 -0.22228626 -0.84381189  0.77687204  0.87243227
   0.01941681 -0.03503067]
 [ 0.44763524 -0.98928131 -1.15224741  0.0843108   0.14277419 -0.71181793
  -0.38642359 -1.06025733  0.61028832  0.23877292  0.48840063  0.22463011
  -0.34832457 -0.61943882  0.20829987  0.78275438  0.9639918  -0.05824649
  -0.81028382  0.85851685]
 [-0.49606139  0.79304084  0.59412865  0.81592662 -1.10025034 -0.06277099
   0.78600984  0.67715149  0.02359934  0.79332614  0.8660647   0.18066815
  -0.50942581 -0.78331945  0.92095216 -0.36647653 -0.2158984   0.90629922
  -0.26629467 -0.63201875]
 [-0.59657116 -0.30666756  0.39203889 -0.49387179 -0.43753803 -0.40603749
  -0.10197586  0.36056119 -0.52001427 -0.73771692  0.41179354  0.88432067
  -0.52017347  0.5000446   0.37247533  0.3133954   0.60235131  0.22401922
   0.70864096  0.10351259]
 [-0.31621793  0.87344884  0.38544458  0.66995452 -0.7628696  -0.17079678
  -0.07212076 -0.73611441 -0.73294998 -0.73565871 -0.43918012 -0.49543002
   0.46562313 -0.1571569  -0.35706988  1.0898285  -0.81640966  0.68812562
   0.3646782  -1.00309431]
 [ 0.10105755 -0.99844094  0.01203716 -0.88954212 -1.15938704  0.63823203
  -0.18422094 -0.05480262  1.06034346 -0.70091774  0.17764275  0.7080516
  -0.90291008  0.68791369 -0.0997224  -0.46032086  0.53417635  0.87773342
  -0.71610124 -1.02760584]
 [-0.04968728 -0.43697868  0.87362473 -0.40821016  0.67494146 -0.87214884
  -0.56453039  0.06717175 -0.83648534 -0.17252025 -0.97552757  0.68116576
   0.48628593 -0.92630163 -0.68075553  0.91176186 -0.43331769 -0.93308308
  -0.11504357  0.2527101 ]
 [-0.25822399  0.62357198  0.07248396 -0.6095187  -0.18675167 -0.58069922
  -0.39924736 -1.15487941 -0.48779853 -0.22322514  0.64903039  0.64665879
   0.97384453 -0.43650482  0.92318714  0.90223186 -0.57475731 -0.66741871
  -0.05947806  0.09055124]
 [-0.57517123  0.45678857 -0.81433585  0.36214099  0.6282587   0.454953
   0.15844359 -0.21216489  1.0008452   0.11807215  0.61417454 -0.49388812
   0.24409432  0.81891495  0.86746458  0.7387706   1.12678985 -0.25823331
   0.0992739   0.62318899]
 [-0.892394    0.73069363 -0.98720484  0.78207409  0.58483223 -0.02710517
   0.55448965  0.38483618 -0.81635743 -0.13183273  0.65824016 -0.23864878
  -0.40188424 -0.7046085   0.83441108 -0.53603024 -0.11637195 -0.82901498
   0.66443148  0.50205721]
 [ 0.96894881 -0.13404023  0.43047771 -0.54243041  0.96014006  0.24451669
  -0.66642675  0.16845436 -0.29130729  0.37000041  0.42196157  0.27166845
   0.6262122  -0.8661458   0.1430438   0.62065239  0.84703971  0.45901841
   0.88113839 -0.00763145]
 [ 0.23895033  0.51730818 -0.57025062  0.54033415 -0.98315779  0.2168644
   0.04481933 -0.08933116  0.98700943  0.85253193 -0.56979448  0.9163939
  -0.54348396 -0.43122952  0.35361608 -0.75041058 -0.56470581 -0.18614775
  -1.02337296  0.41983764]]
[[ 1.20825955 -0.34000124  0.17521753  0.21693457  0.47789598  0.58892834
  -0.77178616  0.06315406  0.22098668 -0.01705613]
 [ 0.36924359 -0.32905304  0.12422963 -0.16373494  0.30392266  0.40304316
  -0.87928472 -0.78488136 -0.73834406 -0.55767065]
 [ 0.10785639  0.24334179  1.00660757  0.49717453 -0.2996534   0.14849841
   0.57692235  0.90968784  1.20472091  1.19203669]
 [-0.24396901 -0.43917536 -0.53653916  0.69447782 -0.59488325  0.68018359
  -0.22279425  0.38347335  0.52015551  1.02545952]
 [-0.47428454 -0.2601462  -0.38543213 -0.53924298  0.00554531  0.48107954
   0.78776496  0.73656593 -0.04909425 -0.80227631]
 [-0.11063116  0.21745923  0.60683078  1.17310062 -0.26711473 -0.3994766
   0.98112034 -1.1053583  -0.58556204 -0.1210552 ]
 [ 0.56383691 -0.37265356  0.75825802 -0.00952185 -0.61124238  0.61380257
   0.53476679 -0.1637149   0.16674987  0.46317212]
 [-0.49137168  0.74990467 -0.09559262 -1.1843279  -0.3288254   0.13616656
   0.55188156  0.07411606  0.04418027  0.80478749]
 [ 0.42359121  1.15691155  0.99943559 -0.53319117 -0.08932436  0.70414308
   0.83038259 -0.91189274 -1.19499651  1.40891485]
 [ 0.12205586 -0.42995581  0.24616286  0.38812553  0.75348401 -0.4982289
   0.60127461 -0.21861988  0.91999539 -0.16339086]
 [-0.61611734 -0.88512754  0.58114226  0.13770308  0.47393907  0.35119587
   0.40001626  0.37708535 -0.42736597  0.03415169]
 [-0.58988941  0.49548154  0.39196782 -0.44820342 -0.1637556  -0.67436074
  -0.53698422  0.03334752 -0.6103982  -0.66117771]
 [ 0.81371694 -0.09809655  0.63997325 -0.36736573  0.7797849  -0.06780528
   0.53472879 -1.00447565 -0.62744667 -0.58020705]
 [-0.75454769 -0.21517977 -0.66457195 -0.67180661 -0.1262498  -0.7959378
  -0.94544297  0.55526665 -0.42373655 -0.53621197]
 [ 0.24582744 -0.655678    0.04060522 -0.18884712  0.4426632  -0.69724811
  -0.17218077  0.82288498 -0.0096367  -0.18176229]
 [-0.75921893  0.29975765 -0.23014603 -0.72981774 -0.30446217 -0.89686062
   0.24159827  0.73806118  0.02369211  0.24919829]
 [ 0.72605108  0.54774637 -0.53292997  0.47970116 -0.99804082  0.59755752
  -0.65324693  0.35131264  0.56525918 -0.46196174]
 [-0.80154887 -0.54403585 -0.19836919 -1.30840271  0.55167455 -0.09926371
   0.59832503 -0.43284778 -0.76792858 -1.26416838]
 [ 1.08942155  0.8420157   0.51719164  0.16416416 -0.25174947  1.0063814
  -0.44220333 -0.5242967   0.01738508 -0.69923711]
 [ 0.10847281 -0.79219041  0.30626466  0.29636975  0.63992676  0.9674124
  -0.93508377  0.27322522  0.01941742 -0.85510394]
 [-1.00119898  0.03115382  0.16131974  0.74763785  0.47548526 -0.76156419
   0.70506583 -0.20752772  0.01072648 -0.52463219]]
[[ 0.58568604 -0.23995392  0.64973749 -0.75287031  0.5551705   1.19369645
   0.85163676]
 [ 0.79312421 -1.07415571  0.06651866 -1.08153841 -0.92008215 -0.48148313
  -0.35313861]
 [ 0.31502546  0.18876325  0.87495818 -0.03218305  0.09231475 -0.42955369
   1.18996285]
 [-0.72681343 -0.34069802 -0.03883996  0.18038592  0.47948564  0.13676685
   0.43989072]
 [ 1.44344034  0.74143081 -0.99174427  0.03387326  1.53068648 -0.09264249
  -0.47125765]
 [ 0.23365602  0.97927378 -1.20983159 -0.27789238 -0.35582075  0.7854377
   0.67763364]
 [ 0.97311657 -0.59965432  0.69198519  1.15875651 -0.72127595 -0.20858627
   0.90969225]
 [-0.91865543  0.00574477 -0.45936422 -0.78564562 -0.00841052  0.0420157
  -0.27138101]
 [-0.90279883 -0.02619101  0.15777007  0.88838127  0.07257465  0.24077333
  -1.19519367]
 [ 0.18098584 -0.85927333  0.90571336  0.14322135 -0.14836487  1.36000992
  -0.75640721]
 [ 0.20601083  1.55022646  0.38021039 -0.29033807 -0.19836801 -1.14863216
  -1.15410047]]
