[[ 8.92502459e-01 -3.62255794e-01 -6.71670153e-01 -5.50258850e-01
   1.70667835e-01  2.01882960e-01  9.01396169e-01  2.75937481e-01
   4.82282490e-01  3.39562501e-01  5.35266790e-01  9.45212964e-01
  -9.95659631e-01 -8.33991938e-01 -3.40552809e-01  3.15625445e-01
   5.85920005e-01  7.71519178e-01  9.55089144e-01  4.28143107e-01
   2.61676094e-01  4.37089927e-01  2.04659683e-02 -3.93618606e-01
  -1.44107039e-01  5.32672447e-01  1.00764162e+00  4.05218679e-01
   5.74700018e-01 -6.12547856e-01 -9.69426133e-01  6.32774178e-01
   7.71771752e-01 -9.56266056e-01 -3.90800984e-02  3.22985367e-02
   2.26505096e-01 -8.91052814e-01  8.28235998e-01  4.45236761e-01
   6.23371274e-01  2.03096600e-03  6.38631171e-01 -8.43323544e-01
  -5.61907540e-01]
 [-5.07709877e-01 -7.42039072e-02 -4.42795642e-02  4.86891155e-01
  -6.90119657e-01  5.77892644e-02 -6.56576968e-01  5.56164867e-01
   9.70602525e-01  2.51429690e-01 -6.67307507e-01 -8.77087617e-02
  -1.91847937e-01  6.93569797e-01  8.59419188e-01 -2.95982478e-01
  -3.43995933e-01  2.07056659e-01 -5.12833095e-01 -7.55240564e-01
   3.25642389e-01  5.93585946e-01  5.68436374e-02  9.23083374e-01
   2.24612611e-01  8.03397555e-01  1.90565438e-02 -3.45708359e-01
   4.31436468e-01 -4.45816628e-02 -5.32478609e-01 -4.93495914e-01
   5.61850785e-01 -4.16607230e-02  8.06326614e-01  8.61722133e-01
   7.15977051e-02 -4.69430667e-01  3.21649613e-01 -2.54760926e-01
   6.81444279e-02 -5.41468407e-01 -3.41337170e-01  3.16418451e-01
  -3.36921998e-01]
 [ 5.21236342e-01  5.30919815e-01  7.41807795e-01  9.64595467e-01
  -8.23718817e-01  8.00683314e-01 -3.21624982e-01  6.55172367e-01
   8.80128296e-01 -8.69910673e-01 -5.79346222e-01 -4.78975018e-01
   2.87273721e-01 -8.31720701e-01 -7.18492109e-01 -3.20273654e-02
   4.18894285e-01  7.86496259e-01  3.87905929e-01  1.58770135e-01
   3.72639279e-01 -4.95379192e-01  6.82568455e-01 -1.38784172e-01
  -1.00082736e+00  9.34716836e-01  2.81649258e-01 -2.19901138e-02
   3.70188999e-01 -7.59049988e-02  8.97815487e-01  4.85868441e-02
  -8.79417450e-01  1.03017319e-01  2.02299912e-01  8.56394055e-01
  -1.65637220e-01 -4.45497980e-01 -9.23839984e-01  7.93061473e-04
  -2.80031627e-03 -9.50438987e-01  3.40112175e-01  4.82902835e-01
   4.96499039e-01]
 [-1.81019835e-01 -9.48791721e-01  8.83260363e-01  5.90698531e-01
  -6.28140736e-01 -3.99130581e-01  2.21862402e-01 -2.73518017e-01
  -7.04575617e-01 -6.09572729e-01  7.65259037e-01 -3.89115177e-01
   2.22165816e-01 -4.05145882e-02 -1.61245815e-01  7.82992203e-01
   4.14249150e-01 -4.16812367e-01 -8.00236493e-01 -5.95452818e-01
   8.14430363e-01  7.06754103e-01  9.74448155e-01 -9.33859197e-01
   1.16466992e-01 -2.52412246e-02 -9.50176058e-01 -2.43224395e-01
  -1.80670968e-01  1.66621703e-01  3.60432397e-01  7.44316202e-01
   4.79189930e-01 -2.18488014e-01  5.63595958e-01  7.59846562e-01
  -4.81149267e-01  9.82671411e-01  6.92435575e-01  4.68503102e-01
  -2.58722541e-01  7.66638727e-01  6.70410533e-01  9.18596580e-01
  -9.47510173e-01]
 [-9.55223351e-01 -3.70527419e-01  9.86911618e-01 -6.88352173e-01
  -6.19954542e-01  5.17910909e-01 -8.94096819e-01  2.08095360e-01
  -1.35699067e-01 -1.02460594e+00  5.12783387e-01  6.22321875e-01
  -6.29765381e-01 -9.49803210e-01  4.96188181e-01 -5.70358030e-01
  -4.73260763e-01 -3.38398017e-02 -5.83722437e-01  1.30577048e-01
   6.31887417e-01 -1.87847639e-01 -8.11294782e-02  6.06455925e-01
  -2.93655124e-01 -9.17600693e-01  9.90578027e-02 -3.83778124e-02
   4.39780476e-01 -2.20526648e-01  7.65082120e-01 -2.26875004e-02
   6.28536526e-02  3.79443024e-01 -1.46290891e-01  2.41633258e-01
  -5.08385374e-01  4.71144093e-01 -1.20245465e-01 -5.96938576e-01
  -4.75620322e-01 -5.20052330e-01 -6.77122096e-01  5.51884138e-01
  -4.84293828e-01]
 [-7.84677474e-01  3.30951101e-01 -1.96012958e-01  3.71541375e-01
   2.82841041e-01 -4.05620618e-01 -5.78768456e-01 -7.17592970e-01
  -7.82771880e-01 -8.84789037e-01 -9.53695689e-01 -5.18541134e-01
  -4.90258463e-01  2.20339936e-01  7.13879342e-01  5.35319715e-01
   4.48266760e-01 -3.39517785e-01 -3.06168043e-01 -6.18035021e-01
   8.14616870e-01  1.68867608e-01  6.93004451e-01 -3.66173053e-01
   5.43054673e-01 -6.76005389e-01  3.88549536e-01  7.77087976e-01
   6.21065633e-01 -3.24582542e-01 -3.93087250e-01  4.84404737e-02
  -2.07524903e-01 -9.35544421e-02 -9.22376742e-01  2.29956249e-01
   4.89326093e-01  5.95168872e-01 -2.22083442e-01  6.29177267e-01
  -2.07379293e-02  4.29329384e-01 -5.76908165e-01 -8.19182364e-02
   6.96188773e-01]
 [ 6.51633964e-01 -6.69762907e-01 -9.86633036e-01  3.97521685e-01
  -3.52276744e-01 -1.64289091e-01  5.49361674e-01  9.46281276e-01
   8.83016102e-01 -6.44567859e-01  6.23801853e-01  3.53412665e-01
   1.01264978e-01  6.79765876e-01  5.62155677e-01 -8.21637165e-01
  -3.68640685e-01 -1.63572712e-01 -8.35214687e-01  9.98551721e-02
   3.96863982e-01 -3.05487213e-01 -1.64574157e-01  3.84420227e-03
   1.10651969e-01 -6.73162919e-01  1.02424452e+00 -4.02682321e-02
  -1.66178762e-03 -5.96421755e-01 -4.42035246e-01  6.50100094e-01
  -3.99701959e-01  3.60155621e-01 -3.91349555e-01  8.28033922e-01
  -3.94681836e-01  7.96470370e-01  7.84948456e-01 -6.05162402e-01
  -2.19848816e-01  3.81682194e-01  8.74897382e-01 -7.01851176e-01
  -7.38399482e-01]
 [-1.61078621e-01  9.82787698e-01 -9.29120407e-01 -6.40683666e-01
   1.77946828e-01 -8.22897626e-01 -3.57174919e-01  2.05115657e-01
  -6.34639581e-01  4.83685164e-01 -4.80500356e-01  4.02672560e-01
  -2.82909614e-02 -4.92317181e-01 -4.87372271e-01  7.83695562e-01
  -4.73314111e-01  7.59483905e-01 -5.82320631e-01 -3.93578067e-01
   9.15825411e-01 -3.80564279e-02 -1.15013695e-01 -9.02486075e-01
   3.05136383e-01 -2.90049111e-01 -4.63046646e-01 -9.32711966e-01
  -3.15528254e-01 -8.50058145e-01 -1.01747313e+00 -8.97461049e-01
  -2.80375925e-01 -8.34601534e-01  3.53339391e-02 -5.46697618e-01
   1.00965252e+00 -4.65120732e-01  2.92067966e-01  7.86658677e-02
  -1.34997742e-01  3.22325557e-01 -7.02126939e-01  6.24255396e-01
  -7.21159318e-01]
 [ 2.08950783e-01 -5.45884295e-01 -9.21880577e-01  2.24607546e-01
   2.40130677e-01  2.84171876e-01  7.67453908e-01 -2.85849969e-01
  -8.28738966e-02  1.54896392e-01  8.24527616e-01 -7.44466586e-01
  -5.35349661e-01 -6.41664429e-01  4.17378947e-01  8.50917620e-01
  -1.04560686e-01  1.00422445e-01 -3.22917104e-01 -6.51561197e-01
   3.46700654e-01  4.85844294e-01  8.73686266e-01 -2.12179132e-01
   3.96762470e-01  9.79067071e-01 -7.54161991e-01  4.64175401e-01
  -6.83508849e-01  5.91266452e-01  1.02646366e-01  1.60594747e-01
   9.07884358e-01 -1.31451110e-01 -6.42779022e-02  3.25249803e-01
   2.27371731e-01 -7.33533254e-01 -3.32353875e-01  2.62529492e-01
   8.96793111e-01 -8.05224640e-01 -9.03108059e-01 -1.73099181e-01
  -5.65307637e-01]
 [ 4.43771519e-02  1.28618322e-01  2.06597578e-02 -5.58962474e-01
  -5.59134238e-01 -5.86415287e-01  3.08439116e-01  6.93953448e-01
   7.94244783e-01  7.15366993e-01  4.12285002e-01 -5.32587916e-01
   4.70632600e-01  3.83751244e-01 -2.71734695e-01  7.19242582e-01
   5.47135494e-02  7.74552254e-01  6.71500594e-01 -5.44103275e-01
   6.76387352e-01 -7.58950209e-01  1.79021897e-02 -7.42781146e-01
  -8.74915863e-02  2.78209942e-01  5.74247833e-01  2.75609556e-01
   4.38961005e-01  7.17933615e-01 -6.98455408e-01 -6.68086059e-01
  -4.25231405e-01 -9.38394221e-01  4.17774536e-01  5.50351937e-01
  -3.19988393e-01  2.20307621e-01  8.70154338e-01 -3.88275765e-01
   3.68758188e-01 -9.25099205e-01 -9.06809597e-01  6.79294857e-01
  -7.77499674e-02]
 [-2.49133409e-01 -3.43697738e-01 -4.51745667e-02  6.30083711e-01
  -1.01680024e-01 -1.68221579e-01  1.69335977e-01  5.08528626e-01
  -8.74302398e-01  2.15938538e-01  2.02283483e-01 -1.02037843e+00
   2.18223239e-01 -8.72748485e-01  1.09460970e-01 -1.06044230e-01
  -2.58834365e-01  8.39883119e-01 -4.91282086e-01 -4.18173652e-01
   3.30864891e-02  2.91429552e-01  8.55878904e-01 -8.83461080e-01
  -1.30204017e-01  1.03329896e-01  4.43792113e-01 -7.00449110e-01
   2.80225870e-02 -4.50544371e-02  8.08659948e-01 -2.66668275e-01
   3.61400998e-01 -9.00758404e-01  5.25021303e-01 -2.42217617e-01
   8.62284198e-01 -3.10581659e-01  3.29729456e-01  6.60565363e-01
  -1.41652631e-02  9.66766282e-01  1.89375723e-01  5.54510259e-01
   3.68841018e-01]
 [ 8.83030189e-01  8.76583919e-01  1.02143262e+00 -7.95076973e-01
   1.00012389e+00 -5.32859640e-01 -6.49878816e-01  7.71988512e-03
   3.28477928e-02 -5.51649275e-01 -4.23005443e-01 -4.01686759e-01
  -4.62611916e-01  2.49628237e-01 -5.84450284e-01 -2.00537846e-01
  -3.97652246e-01 -6.81511798e-01 -6.25663709e-01  9.96473998e-01
  -1.13374607e-01  6.64800318e-01  5.50922772e-02  3.48106294e-01
   5.03342966e-01 -3.71254260e-01 -2.27487451e-01  7.80162294e-01
   6.06981022e-01  6.38551758e-01 -6.13840168e-01 -3.35686321e-01
  -8.28851897e-03  9.39151763e-01  1.49555408e-01  6.53019159e-01
  -8.28633068e-01  1.06722845e-01  1.57655728e-01  8.00704550e-01
  -3.02000004e-01  7.96452641e-01 -7.34060426e-01 -8.09956794e-01
   9.00223904e-01]
 [ 8.70034860e-01  1.99290255e-01 -8.55847483e-01 -9.36571958e-01
  -3.95031455e-01 -2.53210033e-01  5.57454937e-01  8.48539186e-01
   1.67406037e-01 -3.00886839e-01 -1.67626815e-01 -7.94678080e-01
  -7.26428112e-01  5.38206194e-01  7.41015690e-01 -4.55670721e-01
   3.86510605e-01 -3.12317774e-01 -9.20684389e-01  5.53019396e-01
  -1.38270835e-01 -3.79104142e-01 -5.00169571e-01  2.43030523e-01
  -3.14809376e-01  8.11527687e-01 -7.76583442e-01  7.14302488e-01
   1.44903976e-01 -9.27536713e-01  7.16214846e-01 -5.81403999e-01
   6.34577100e-01  5.63551102e-01 -9.14797728e-01  2.72775478e-01
   1.59297393e-01 -8.48780075e-01  4.31366934e-01 -7.20840115e-01
  -5.63948190e-02 -7.92718037e-01  9.23540527e-02 -1.92694255e-01
   1.73311466e-01]
 [ 4.49642713e-01  8.25864288e-01 -3.23478405e-01 -3.71870850e-01
  -1.78031868e-02  5.06004769e-02 -7.35746108e-01 -8.06284712e-01
   2.05527276e-01  6.69907155e-01 -8.99971931e-01  6.08359542e-01
  -6.24069697e-01  5.88454631e-01 -4.62699533e-01 -6.55176519e-02
   8.61294530e-01  8.12521291e-01 -8.34378933e-01  1.26374123e-01
   2.40569518e-01  2.67645775e-01  2.57374115e-01 -3.87869034e-01
  -7.39500182e-01  2.97639991e-01 -4.54698377e-01 -6.82414673e-01
   1.39625172e-01  2.68414205e-01 -9.12720018e-01  9.29328368e-01
  -7.45949828e-01 -1.72428693e-01  3.11503814e-01 -5.97406648e-01
  -5.75490065e-01  2.23971571e-01  5.96198921e-01  4.70633857e-02
  -6.09735491e-01  5.61234677e-01  6.65212829e-01  4.47851934e-01
   8.65651224e-01]
 [ 6.88031464e-01  8.55396121e-01  6.52757246e-03 -9.34457575e-02
   1.36838158e-01  8.68472283e-01 -2.61080478e-01  5.66225322e-02
   2.24247909e-01  1.24096735e-01 -8.06554200e-01 -1.64654564e-01
  -4.65755542e-01  5.78897936e-01  5.03004697e-01 -6.44534030e-01
   4.60152996e-01  8.01253974e-01  1.11374819e-02  7.49801292e-01
  -1.19203395e-01 -8.52533993e-01 -2.09973099e-01 -5.84375326e-01
  -7.59295368e-01 -6.62579582e-01  7.62702901e-01  5.93322010e-01
   2.75543922e-01  8.57363680e-01 -7.08282801e-01  2.61156659e-01
  -4.09008103e-01  6.85411853e-01  3.53661245e-01 -1.42430831e-01
   4.16736810e-01 -5.56677478e-01 -9.51024906e-01 -3.56118040e-01
   2.47795013e-01 -8.03001647e-02  4.29970265e-01 -6.17919977e-01
   9.47269916e-01]
 [ 8.60503281e-01  1.04203041e+00 -8.22824944e-01  4.04261776e-01
   1.56342060e-01 -8.26150676e-01  1.01659323e+00  1.29391857e-01
   3.42878262e-01  4.33040337e-01  8.10163601e-02  1.00193300e-01
  -5.84010687e-01 -4.73818605e-01 -2.21815438e-01 -7.88935468e-01
   5.56673534e-01 -3.49046847e-01  9.88732569e-01  8.17616808e-01
   8.19289760e-01  5.00633656e-01 -8.11887295e-01 -2.03342405e-01
  -1.01619564e+00 -8.62609416e-01  3.98959583e-01  9.20736271e-01
   3.41282476e-01 -2.12852268e-01 -9.49988899e-01  8.35174503e-01
   3.95744530e-01 -1.82493977e-02 -6.10304821e-01 -8.20788551e-01
   2.89164465e-01  9.69413219e-01  2.18267064e-01  6.72892201e-01
  -6.65056133e-01  7.63415281e-01  3.40305333e-02  9.66761638e-01
   4.90217799e-01]
 [-8.15356061e-01 -4.57745468e-01 -4.08790652e-01 -8.01155771e-01
   3.22799116e-01 -5.66423136e-01  1.00358786e-01  5.48691186e-01
  -5.41981085e-01 -3.48662330e-01 -2.37518319e-01  8.71794445e-01
   2.89851779e-01  8.94813478e-01 -8.22810145e-01 -5.32381331e-01
  -4.47071592e-01  7.03207433e-01  6.79136696e-01 -4.27237188e-01
   3.32748615e-01 -1.91168380e-01 -9.79071288e-01  4.52185355e-01
   1.87274507e-01 -3.64343616e-01 -4.99681961e-01 -4.64494910e-01
   5.47998676e-01 -2.07828583e-01 -3.77918740e-01 -4.84289605e-01
  -4.69832613e-01  6.58471564e-01 -6.19509148e-01 -4.97625353e-01
   1.88046843e-01  9.65214239e-01 -1.10982731e+00 -4.90593335e-01
   4.78327102e-01 -5.06996827e-01  8.14867764e-01  6.68017421e-02
   3.86739610e-02]
 [ 4.19009910e-01  2.58447735e-01 -3.91872661e-01 -1.02201401e+00
   1.54414590e-01  6.87408348e-01 -2.01316358e-03  5.84874725e-01
  -1.98595315e-01 -2.87674396e-01  7.54838678e-01  7.67530985e-01
   4.53906606e-01 -3.85396354e-01 -3.59791562e-01 -4.35594505e-01
   5.91125345e-01 -1.01807090e+00 -8.66994447e-01 -9.79511254e-02
  -4.74776779e-01  8.12383745e-01  6.75882550e-01  4.77827686e-01
  -4.80358584e-01  7.54017094e-01  9.13965262e-01  1.32306992e-01
  -4.55082381e-01 -4.43799216e-01  2.56481883e-01  5.18432447e-01
  -1.22126110e-01  3.23349849e-01 -1.30466282e-01 -2.76074145e-01
   2.31002871e-01  6.18614903e-01 -7.53085137e-03 -8.82381615e-01
  -3.53708360e-02  6.82519424e-03 -1.52963435e-01 -2.14346933e-01
   5.25009233e-01]
 [-7.90104199e-01 -9.51543494e-01  6.06677109e-01  6.63634961e-01
  -5.14845105e-01  2.52686244e-01 -8.88301105e-01 -4.26138308e-01
  -8.94697100e-03  3.07126097e-01 -5.45129483e-01 -6.96538534e-02
   9.47168428e-01  9.14015017e-02 -5.06818839e-02  3.59265505e-01
   5.10697375e-02 -5.17979294e-01  6.74896030e-01 -7.11915237e-01
  -6.26993950e-01 -6.89281026e-01 -2.96425205e-01 -7.39292484e-01
  -1.83839582e-01  5.00489054e-01 -2.48986541e-01  7.85977464e-01
   9.06612733e-01  6.37155280e-01 -7.99305084e-01  8.00896719e-02
  -7.55237064e-01  7.09154040e-01 -2.72055980e-01  7.91542958e-01
  -7.64220830e-01  2.75357268e-01  6.87252004e-01 -1.02684193e+00
  -4.13662214e-01 -9.32719673e-01  6.35812011e-02 -6.91771269e-01
   1.64809342e-01]
 [-9.73138821e-01 -4.56909303e-01  5.58597265e-01  7.20211190e-01
  -2.59847938e-02 -1.97334244e-02 -9.03951435e-01  5.64030438e-01
   6.27218126e-01  7.09378415e-01  6.16283602e-01 -1.89483147e-02
  -9.72589610e-01 -2.89307265e-01  4.69531675e-01  8.09418159e-01
  -4.14659813e-01 -6.34717856e-01  7.43374579e-01 -2.15214548e-01
   2.56911493e-01  1.85458170e-01 -4.21240167e-01  3.15625915e-01
  -5.42050356e-02  3.00361775e-01 -7.01124698e-01 -6.33379692e-01
  -2.06341198e-02 -4.59622260e-02  5.06422504e-01 -6.55360993e-01
   1.01916252e+00 -3.53449608e-01  7.14505345e-01  6.38850232e-01
   7.97776069e-01  4.74160176e-01 -3.61454901e-01 -9.50054443e-01
   1.23894267e-01  9.14196051e-01 -6.90614549e-01  5.47876558e-01
  -9.42299882e-01]
 [-6.43725058e-01  1.51380975e-02 -1.37027512e-01  5.65133006e-01
  -7.79032502e-01  7.74241088e-01 -6.05228873e-01 -9.96159953e-02
  -6.70609439e-01  3.80596403e-01  5.97986826e-01 -6.42921190e-01
   9.26926412e-02  4.33327526e-01 -1.11572176e-01 -4.90355822e-01
   4.61887649e-01 -3.25329401e-01  3.05744899e-01 -8.96388203e-01
   8.46581387e-01  4.12287455e-02 -5.36000810e-01  7.25834112e-01
  -9.14130769e-02  3.92491143e-01  9.38794981e-01  6.42049407e-01
   8.76725412e-01  7.67062306e-01 -8.42463079e-01 -4.59505560e-01
  -5.22238622e-01 -1.71459732e-01 -1.39130068e-01  9.45068585e-01
   8.14409732e-01  9.62477354e-01 -2.88336818e-01  9.39046793e-01
   1.93982421e-01  2.14684387e-03 -3.79898956e-01 -6.46417364e-01
  -1.09090425e-01]
 [-3.62740887e-01  1.25080419e-02  1.13125261e-01 -9.74840427e-01
  -4.41591094e-01 -7.04392242e-01  9.55512540e-01 -4.83970119e-01
   7.00899086e-01  4.11995079e-01  9.24229118e-02  3.81296018e-01
  -5.46329025e-01  4.13377423e-01  2.06980783e-01  4.87158407e-01
  -6.37130267e-01 -9.17219564e-01  9.23398410e-01 -1.15188033e-01
   2.41974273e-01  9.65400436e-01  6.35787331e-01 -7.80850535e-01
  -7.89141836e-02 -6.09078811e-01 -9.26486620e-01  7.41894057e-01
  -4.58474709e-01 -9.40365180e-01  4.45208205e-02  5.72460096e-01
   6.01504578e-02 -7.03681669e-01 -2.21959580e-01 -4.89278602e-01
  -4.48946284e-02  8.01406960e-01  7.16905826e-01  6.87361334e-01
  -5.02080790e-01 -7.43442410e-01 -7.93489149e-01  7.80866600e-01
  -7.93783203e-01]
 [-2.71565556e-01 -5.55793781e-01 -1.18178199e-01  5.90287937e-01
   9.11934201e-01 -9.95558618e-01  1.57623971e-01  5.35266877e-01
  -2.25967926e-01 -3.99535206e-01  5.39316520e-01  4.90759132e-01
   7.16265314e-01  9.88977889e-01  7.28021765e-01  2.89072699e-01
  -4.12011173e-01  3.11709543e-03  1.47039184e-01  9.44183213e-01
  -1.68906628e-01  9.13483522e-01  2.79792620e-01  8.66610899e-01
  -2.69287925e-01 -8.99153898e-01  7.57197877e-01  4.41879287e-01
   1.12344881e-01  1.91766953e-01  6.43825522e-01  8.46237606e-01
  -1.24206486e-01 -7.70847122e-01  6.14629384e-01  7.46243114e-01
  -5.62686030e-01 -1.21596802e-01  3.18138441e-01 -2.52227842e-01
  -3.55821484e-01  7.98170106e-01  1.51373486e-01  7.54137483e-01
  -8.62593115e-01]
 [ 2.46385057e-01  6.35454352e-01  2.58840320e-01  4.11547204e-01
   3.58724991e-01  8.73071079e-01  7.63136406e-01 -6.51029025e-01
   3.93760958e-01 -8.69436937e-01  6.30559858e-01  5.83177283e-01
  -6.08704850e-01  3.33724495e-02  5.57990352e-01 -4.96157647e-02
   9.91118705e-01 -1.91124086e-02 -3.35575531e-02  7.08023653e-01
   8.36349307e-01  2.73776025e-01  4.81908998e-01 -1.02110623e+00
   2.95470772e-01  5.99152927e-01 -9.34081327e-01  1.34000222e-01
  -6.00869883e-01 -2.44752156e-01 -2.72588297e-01  9.40181441e-01
   4.39820253e-01  9.06872342e-01  1.36977847e-01 -5.96013506e-01
  -6.32733558e-01  4.41584864e-01  5.99494042e-01  3.71121803e-01
  -2.46785633e-01 -7.89926826e-01  2.22209839e-01 -5.78908798e-01
  -5.26144116e-01]
 [-3.60894367e-01  3.91682147e-01  2.75687088e-02  9.01426652e-01
   3.40386957e-01 -5.98785666e-01 -4.87442020e-01 -2.31913368e-01
  -8.42691438e-01 -4.64909411e-01 -1.85551643e-01  1.91959366e-01
   2.45725411e-01  1.04065389e+00  6.95470885e-01 -3.33138718e-01
  -8.76842659e-01  5.17185387e-01  1.42351211e-01  2.91449000e-01
  -8.83056052e-01  4.42483607e-01  7.61413506e-01  4.36928475e-01
  -6.20454300e-01 -6.18002784e-01 -4.11026735e-02  5.63458162e-01
   1.38639463e-01  4.43789438e-01 -8.27566447e-01  7.61335265e-01
  -5.78881458e-01 -3.66671163e-01 -2.95103821e-01 -3.60795240e-01
   7.25683182e-01 -1.88569974e-01 -3.68014503e-01 -7.19805641e-01
   4.56135714e-01 -1.39643778e-01  2.22616149e-01 -8.41189885e-01
   1.55015412e-01]
 [-6.27624559e-01  1.32859111e-01  4.32864588e-01  7.53985213e-01
   3.65611844e-01  8.67489859e-01 -3.23147431e-01  2.03559096e-01
   4.25268933e-01 -5.77777686e-01  5.88732190e-01 -6.90620420e-01
  -4.69563290e-01 -3.14363742e-01  5.94490438e-01  5.00983075e-02
   2.26979016e-01 -8.57426906e-01  9.68615960e-01  2.26223147e-01
   9.44266693e-01 -6.06054818e-01  3.91251052e-02 -4.85029124e-01
  -5.83289268e-01 -8.82653043e-01 -8.03061780e-01 -7.33341037e-01
  -2.86610785e-01 -4.29136709e-01 -2.72915334e-01 -2.85845263e-01
  -7.30462434e-01  7.94738484e-02  9.29948161e-01  9.64920255e-01
  -8.09542709e-01 -5.17733763e-01  6.34979786e-01  8.07464539e-01
  -4.98010154e-01 -5.73654696e-01 -9.49890604e-01  2.35840027e-01
   7.45501445e-01]
 [ 6.55301837e-01  6.78082519e-01  6.14036233e-01 -3.01289418e-01
   8.53149243e-01 -8.27945890e-01  3.28141345e-01 -2.86598078e-01
   4.85514160e-01  3.74828892e-01  8.39574838e-01 -2.41719927e-01
  -2.23359345e-01 -2.16263190e-01 -6.04775026e-01 -2.97477945e-01
  -6.85469120e-01 -4.86147530e-01 -7.71696755e-01 -9.50512594e-01
   8.36314961e-01  7.22367178e-01  3.66464565e-01 -7.37021848e-01
  -3.88645273e-01 -8.12577812e-01 -9.89593149e-01  7.26562276e-01
   6.30562174e-01 -4.32054017e-01 -9.17122849e-01 -3.05605845e-01
  -6.32567082e-01 -4.98777721e-02  8.31713473e-01 -2.37226742e-01
  -7.26265146e-01  2.19810136e-01 -1.39189190e-02 -2.63162825e-01
  -8.09544402e-01  8.07749978e-01  7.82199790e-01 -5.03079466e-01
  -9.32992105e-01]
 [ 7.27132958e-01 -7.83131167e-01  1.76773877e-01  3.01986004e-01
   4.66500007e-03  4.81582231e-01 -1.94025890e-01  4.80904272e-01
  -9.03459579e-01  3.97927234e-01 -6.18860178e-01 -6.61335940e-01
   8.57060925e-01  8.18699996e-03 -7.32280999e-01  4.02501265e-01
  -1.98696648e-01  1.44084626e-01 -1.58118946e-02  1.39769424e-01
  -8.46604393e-01 -7.07799808e-01 -1.69708672e-01  5.68537037e-01
   2.45508628e-01  4.87828131e-01 -5.01695283e-01 -3.66101739e-01
  -1.40652464e-01  9.30526383e-01 -3.48544338e-01  3.83949820e-01
  -8.93914474e-01 -3.17936429e-01  9.57362461e-01  3.59960758e-02
   3.16842736e-01 -4.13828991e-01  5.67926308e-01  9.36537422e-01
  -7.51753720e-02 -4.71121387e-01  1.47484837e-01  6.97968588e-01
  -8.85530156e-01]
 [-7.28354763e-01 -8.97066202e-01 -9.59516539e-01 -2.11205422e-01
   9.18642929e-01 -6.79463825e-01  4.15131465e-01  1.59168314e-01
  -3.39718068e-01 -8.37405160e-01 -1.00664449e+00 -6.76800774e-02
   9.36690045e-01  1.73611304e-01 -4.70698927e-01  1.51947635e-01
   3.84790440e-01  1.77546869e-01 -7.44710084e-02 -8.78828934e-01
  -6.66067111e-01  8.30722989e-01 -2.47486622e-01 -5.04816919e-01
   1.26678043e-01  1.29615415e-01  8.49932090e-01  8.27006093e-01
   1.96151185e-01 -6.98767055e-01 -4.10461844e-01 -9.50225974e-01
  -8.72735282e-02 -7.39780109e-01  2.40589852e-01 -9.97819191e-01
  -4.71640403e-01 -2.33532168e-01 -4.36843727e-01 -3.80208654e-01
  -4.30139366e-01  8.16109397e-01 -2.85862450e-01 -2.23325205e-01
   1.60420778e-01]
 [-7.58434348e-01  1.06822828e+00 -1.50299663e-01  4.65008250e-01
  -7.91838243e-01 -8.17582552e-01 -4.24365515e-01  3.56376118e-01
  -3.57531468e-01 -9.98895484e-01 -6.80393858e-01 -5.65885703e-01
  -3.60480499e-01 -4.39075711e-01  5.87661951e-01  8.40812174e-01
   3.28841692e-01  2.48177197e-01 -6.63860007e-01  1.22987565e-01
  -2.98635199e-01  4.92403501e-01  9.01639242e-01 -5.42740783e-01
  -5.22535107e-01  2.33459058e-01  4.88204726e-03 -3.00818052e-01
  -4.95915940e-01 -4.16171292e-01  7.04085815e-01  6.75083943e-01
  -1.02755997e-01  7.64806567e-01  7.34436948e-01  5.93610911e-01
  -7.88327507e-01  1.40833072e-01 -8.24070019e-01  3.17610020e-01
  -9.23797521e-02 -3.90341186e-01 -1.23467003e-01  9.37732733e-01
   4.23745220e-01]
 [-9.21928209e-01  8.54290772e-01  7.99383002e-01 -6.92239161e-01
  -8.58416719e-02 -9.36409790e-01  7.10396469e-01 -7.23868016e-01
   9.29729241e-02 -4.66040338e-01 -7.78345894e-01 -7.11911571e-01
  -3.28608315e-01  6.77812718e-01  2.06611806e-01  1.11269814e-01
  -3.61430717e-01  8.80279599e-01 -1.28602377e-01 -7.55747877e-01
   6.20709199e-01  7.75487988e-01 -1.21581832e-01 -9.42577962e-01
   6.67689220e-01 -8.95391109e-02 -2.95162997e-01 -6.01492881e-01
  -6.66249781e-02  7.93064407e-01  7.90617058e-01 -1.17646777e-01
   9.50965104e-01  7.12681622e-01  1.03744878e-01  3.34248857e-01
  -9.72313926e-01 -5.62751079e-01 -7.70830971e-01  1.78852629e-01
   6.91671895e-01  5.73554499e-01 -1.48413759e-02  7.34666051e-01
   2.87544639e-01]
 [ 9.01020370e-01 -8.05489667e-01 -9.03276248e-01 -6.11405184e-01
   1.02537774e+00 -8.52724937e-01  1.67297795e-01  6.89612294e-01
  -5.77271454e-01 -1.24321541e-01  1.85215939e-01  1.58697112e-01
   8.67861866e-01 -5.58232235e-01  7.90652317e-01  1.04021076e-01
   2.34743750e-01  9.39393240e-01  6.60197032e-01 -9.62133259e-01
   2.37723074e-01  9.71478538e-01  6.88752145e-01  1.33040195e-01
  -9.50633417e-01  2.82370938e-01  4.68257846e-01 -7.95241436e-01
  -8.07957171e-01 -9.16908960e-01 -2.60075781e-01 -6.07644700e-01
  -2.02253066e-01 -8.40159502e-01 -8.10783091e-01 -3.82276934e-01
  -5.70638901e-01  6.77626924e-01 -9.13406846e-01 -5.10254456e-01
   8.35435987e-01  4.58911796e-01 -8.56637188e-01 -1.54735763e-01
  -2.55148508e-01]
 [ 6.44332488e-01  7.94837688e-01  7.65631193e-01 -7.65765774e-01
  -9.41885885e-01  1.00535763e-02  3.38197917e-01 -7.26131469e-01
  -5.68176351e-01  8.37660873e-02 -5.52515276e-01 -7.22025124e-01
   3.20750966e-01 -4.68444317e-01  6.39340777e-01  6.78713728e-01
   2.16615688e-01 -3.25437511e-01 -7.14319156e-01  2.07081967e-01
  -4.20965053e-01  6.59038429e-01 -7.91957613e-01  2.77269965e-01
  -7.04929351e-01 -7.76281724e-01  9.03812693e-01  6.76022115e-01
  -2.20799716e-01 -8.23785800e-02 -5.36517593e-01  6.38530917e-01
  -6.68934844e-01 -3.81985455e-01 -3.31501438e-02 -5.21102938e-01
   3.26561262e-01 -8.45337475e-02 -6.81737024e-01 -4.47207625e-01
  -9.08506358e-01 -3.89839321e-01 -1.71197705e-01 -8.76334578e-01
   3.80354339e-01]
 [ 4.09345633e-01  1.62545937e-02 -2.95738300e-01  1.11432741e-01
  -3.99627951e-01  7.03382971e-02 -6.57337028e-01 -5.59199468e-01
  -8.93284678e-01 -2.39612366e-01 -6.88355303e-01  5.77178006e-01
  -8.60249045e-02 -4.08670304e-02 -2.97489807e-01  3.09093075e-01
   3.68190860e-01  2.84710180e-01  7.74522551e-01 -8.31380163e-01
  -5.60238203e-01  7.61049494e-01  4.73548061e-01 -8.95761776e-01
  -2.35159491e-01 -3.26501495e-01 -8.47915459e-01 -7.25111205e-01
  -4.24012324e-01 -7.03479525e-01  7.76887239e-01 -2.86851598e-01
  -4.26898498e-01 -7.44931759e-01  4.67844831e-01 -2.24647310e-01
   7.07503564e-01  6.79518057e-01  4.92796903e-01  7.23609287e-01
   2.89407175e-01 -9.30964376e-01  8.71149388e-01  3.98321913e-02
  -2.07135484e-01]
 [-5.84006099e-02 -6.95933437e-02 -4.69804850e-01 -5.96529407e-01
  -7.82659782e-02 -8.97177920e-01 -5.36327804e-02 -7.22267584e-01
   6.82506262e-01 -2.36440504e-01 -4.77326809e-01 -7.71733152e-01
  -8.96020055e-01 -4.87221540e-01 -3.20061120e-01  9.32088036e-01
   4.64681539e-01 -8.98890835e-01 -2.08331842e-01 -9.99430668e-01
   5.15298771e-01  9.17516919e-01 -2.45403695e-01 -7.62850937e-01
  -5.99905761e-01  3.08810373e-01  7.66993089e-01  5.13505093e-02
  -2.35568054e-01  7.16029883e-01  4.18839741e-01 -1.01233687e+00
   2.71867122e-01  5.06385969e-01 -9.51571330e-01 -6.57575040e-01
   4.13509724e-01  7.11197671e-01  7.96540605e-01 -2.41966850e-01
  -6.16909198e-01  7.73331570e-01  6.14960119e-01 -1.95436990e-01
  -8.10236410e-01]
 [-8.66509529e-01  6.62881225e-01  5.67561818e-01  8.99117716e-01
   3.42960575e-01 -5.97534721e-01 -8.84372881e-01 -7.71164578e-01
  -6.05922717e-01  2.22282669e-01  5.31672178e-01  6.91022587e-01
  -9.62459103e-01 -6.57901767e-01  3.54354191e-01 -2.73083541e-01
  -5.34336847e-01 -1.30866621e-01  3.06546560e-01  8.82745698e-01
  -6.02074515e-01 -4.19049619e-01  2.42424491e-01 -8.98215412e-01
   7.00204222e-01  4.08329734e-01 -6.78880840e-02  3.05394817e-01
  -9.12493511e-01 -9.21037888e-01  4.97406778e-01  1.64722188e-01
  -6.82322994e-02 -3.78700072e-02  9.80491071e-01  9.58676211e-01
  -2.82584266e-02  9.92202301e-01  2.79008404e-01 -8.35301353e-01
  -2.89509041e-01  1.26538618e-01 -6.20317936e-02  4.22858206e-01
   2.33628894e-01]
 [ 5.20593267e-01  3.22004587e-01 -5.22863671e-01  3.24836584e-01
  -2.28747892e-01  3.72683287e-01  4.23545673e-01  4.16258786e-02
   9.69753192e-03  3.65789784e-02  8.29003542e-01  5.18079493e-01
  -1.33654826e-01  2.06554683e-01  3.79869095e-02  2.61268044e-01
  -5.03251412e-02 -5.70409624e-02 -2.46215045e-01 -1.55286274e-01
  -8.48945593e-02  1.90208471e-01  1.28986789e-01 -6.17373605e-01
   6.25041290e-01 -3.34636616e-01  4.36413849e-01 -2.20173654e-01
  -3.00747498e-01 -7.52460159e-01  9.38057083e-01 -4.25040370e-01
  -9.23004013e-01 -2.70785810e-01 -9.45529125e-02 -3.24070837e-01
  -7.30208005e-01  2.69516611e-01 -6.94248113e-02  9.10475645e-01
   2.82978188e-01  4.34035554e-01  6.17907747e-01 -5.86628776e-01
  -2.66649407e-01]
 [-5.70389918e-01 -3.84861911e-01  1.67684056e-01  9.89484530e-02
   2.14965268e-01 -3.53744285e-01  9.54918582e-02 -6.68006254e-01
   6.65603501e-01 -8.58301418e-02 -3.92839410e-01  2.32034768e-01
  -7.26986276e-01  2.16821657e-01  4.52704628e-01 -3.56753522e-01
   3.41103093e-01 -3.02209449e-01 -2.54420974e-01  4.88771062e-01
   7.32503240e-01  2.74915325e-01 -5.58833262e-01  9.05643981e-01
  -5.58263111e-01  6.57684809e-01 -1.06291894e-01  8.19407371e-01
  -5.08765027e-01  9.38338096e-01 -2.07262355e-01  3.46438073e-01
  -8.74028230e-01 -9.75952625e-01 -2.09137874e-01 -6.36629155e-01
  -2.94620362e-01  4.22067896e-01  4.28431980e-01 -5.35086060e-01
  -2.29281417e-01 -5.26000421e-01  3.19946452e-01  1.08117342e-01
   5.25025197e-01]
 [-3.86174880e-01  7.70104895e-01 -5.97268031e-01  2.23316051e-01
   2.33245171e-01 -1.54433389e-01 -7.98433290e-01 -1.27334073e-01
   9.81212804e-01 -7.08072782e-01 -7.95388833e-01  3.95360213e-01
  -1.32187856e-01 -2.80075017e-01 -8.29042838e-01 -6.03926500e-01
   4.47253195e-01  6.16369220e-02 -9.11363025e-01 -5.92198398e-02
   6.30279439e-03 -5.51658856e-01 -6.34074326e-01  4.57119580e-01
   1.35116185e-01 -4.77211300e-01  7.25016051e-01 -5.87853237e-04
   8.18302212e-01  7.55671664e-01 -5.30257459e-01  2.31806380e-01
   2.01586311e-01 -4.90341082e-01  6.32899056e-01 -8.08395333e-01
  -7.26481351e-01  8.08824837e-01  1.07877926e-01  2.94639531e-01
   3.71433859e-01 -8.86082876e-01  5.00414144e-01  5.39153572e-01
   8.04771414e-01]
 [-4.82221398e-02 -9.28250909e-01 -1.57971619e-01  1.96323781e-01
   3.14756998e-02 -1.74907074e-01 -7.58099777e-01 -3.89888179e-01
   9.51511249e-01  2.09145163e-01 -6.23525879e-01 -4.27733547e-01
  -6.89564396e-01  8.55248400e-01  8.86928586e-01  4.12496202e-01
   8.50898510e-01  9.62714525e-01  4.03721321e-01  8.13056769e-01
   5.10151860e-01  2.66942222e-01 -4.87347525e-01 -4.21904126e-01
   5.11000121e-01  5.52491443e-01  7.84539498e-02  2.74191041e-01
  -9.80967613e-01  5.25297799e-01  5.71143219e-01  3.71288664e-01
  -6.68890420e-01 -6.69022983e-01  6.56910750e-01  4.78656816e-01
  -2.18712201e-01  9.65726108e-01  2.22194078e-02  2.66197561e-01
  -7.64330541e-01 -1.88292823e-01 -7.34268480e-01 -6.29900363e-01
  -6.27774290e-01]
 [-3.56124613e-01 -1.73866648e-01  8.96668748e-01 -2.64743979e-01
   7.65408630e-01  9.71012329e-01  8.29927130e-02  5.41293046e-01
  -3.03398250e-01 -8.77063647e-01 -2.43596693e-01  3.14124647e-01
   1.01081357e-01  6.49635989e-01  8.70388826e-01  7.99950520e-01
   9.48468305e-01  8.17733487e-01 -7.85449194e-01  9.57468287e-01
  -6.99365377e-01  4.68559339e-01 -9.41626023e-02  3.80155772e-01
  -8.01273843e-01 -9.69176472e-01  8.60605216e-01 -1.96851704e-01
  -9.96199615e-01 -8.64879338e-01 -2.00483620e-01 -2.56107549e-01
  -7.75192897e-01 -9.03001131e-01 -8.27152818e-01  5.95168173e-01
   3.67944229e-01  3.28601936e-01 -3.12145268e-01 -1.66459283e-02
  -4.82960495e-01 -6.75879914e-02 -1.92636988e-01  5.47195763e-01
  -5.24294955e-01]
 [ 3.08326276e-01  3.78140861e-01  5.70520952e-01  4.02436308e-01
   1.17919798e-01 -1.75654543e-01  1.75933437e-01 -5.08493468e-01
  -8.15186225e-01  3.94229550e-01 -4.78697008e-01 -1.04633094e-01
  -5.61295321e-01 -3.70236799e-01 -2.65392764e-01  3.42296883e-01
   4.17889274e-01  9.57519402e-01 -8.10808633e-01  2.08844229e-02
  -1.44030601e-01  9.93564531e-01 -4.25773787e-01  3.27292606e-01
  -1.67021363e-01  4.76310851e-01  3.76963693e-02  5.98573752e-01
  -8.20858448e-01  5.61177066e-01 -7.07295072e-01  5.72453275e-01
   9.66523123e-01  6.44478000e-01  2.54773495e-01  5.61630193e-01
  -1.15044359e-01 -8.57340254e-01  7.71809029e-01 -1.17163769e-01
   8.35131002e-02 -4.55277043e-01 -7.80503743e-01 -5.26208402e-02
  -7.39249675e-01]
 [-9.03984762e-01  2.78877084e-01 -4.71154063e-01  5.56366349e-01
  -1.76042551e-01 -6.48016355e-01  7.65218169e-01  7.28240283e-02
   6.28275657e-02 -9.93962504e-01 -8.46612329e-01  3.32361797e-01
   8.93136451e-01  8.81397820e-01 -3.20158639e-01  8.85121368e-01
  -7.94659997e-01  2.81771630e-01  2.95259511e-02  8.88293688e-02
  -7.83385055e-01 -4.96381470e-01  3.38325643e-01  1.62742981e-02
  -1.02257728e+00  4.82134234e-01 -5.15493203e-01  5.37948685e-01
   6.83708913e-01  2.80383034e-01 -8.22153236e-01  7.13973364e-01
  -1.92284182e-01 -9.90995810e-01  7.97437035e-01  8.16172497e-01
  -2.89161117e-01  9.27363745e-01 -1.01754532e+00  1.58686447e-01
   9.86784604e-01  3.10502412e-01  7.95642127e-01 -1.80453940e-01
   7.07412449e-01]
 [-3.11430489e-01  2.90054652e-01  3.36154769e-01 -8.43905100e-01
   1.96610289e-01 -2.07199683e-03  9.70187452e-01  2.27834511e-01
  -2.82975738e-01  1.09193385e-01  3.35504028e-01 -8.18566343e-01
  -5.27333356e-01 -9.10716439e-01 -3.73295962e-01  7.93093888e-01
  -3.48700540e-01 -2.42748414e-01  8.53369845e-02 -1.27616322e-01
  -3.90671405e-01  7.32267106e-02  1.02367450e+00  1.02971661e+00
  -2.54314597e-01 -4.87417948e-01  9.09843872e-01 -9.25797494e-01
   8.57319176e-01  3.08116469e-01  6.25538548e-01  4.23199530e-01
  -6.95293896e-01  6.34077970e-01 -1.09261509e-01 -2.30759383e-01
   2.73506179e-01  5.38107894e-01  2.51348848e-01  6.55024678e-01
  -4.31630294e-01  8.23532931e-01  2.08100616e-01  3.11598112e-01
   2.93671747e-01]
 [-9.07714730e-01 -7.64013852e-01 -2.25837956e-01 -9.01716108e-01
  -6.13948535e-01 -3.10710000e-01  5.14289714e-01  7.27070750e-01
   4.08943978e-01 -3.05435131e-01  7.42961852e-01 -1.02214990e+00
  -2.24208910e-01 -1.81095119e-01  7.42567938e-01 -6.69852590e-02
   1.62428316e-01  1.36449264e-01  8.97423298e-01  2.21545370e-01
   2.74392591e-02 -2.68618549e-02  4.91870248e-01  9.14050276e-01
  -1.02798942e-01 -5.48546045e-01  4.98277613e-01 -2.42069679e-01
   5.45341113e-01 -3.14550218e-01  6.96089203e-01 -2.39174571e-01
   1.70262650e-01  2.09282691e-01 -2.69521091e-01  7.39009808e-01
   2.61516197e-01 -2.22295479e-01 -4.94495013e-01  2.47410815e-01
  -3.16372407e-01  7.43807917e-01  2.88762037e-01  7.63596241e-01
   1.90668650e-01]
 [-5.37162632e-01  6.28496640e-01  5.79783304e-01  1.28303986e-01
  -3.87112778e-01 -2.88477564e-01 -9.00185567e-01 -3.25243327e-01
   5.61226499e-01  6.05668626e-01  7.69738852e-01  9.89008090e-02
   7.82647174e-02 -7.59114235e-01  8.27122287e-01 -2.14377964e-01
  -7.26373874e-01 -3.86130949e-01 -8.86134715e-01  8.23620591e-01
   2.02498061e-01  6.96041860e-01 -2.50172009e-01 -5.54274281e-01
  -7.71007099e-01  3.55981217e-01  8.83343187e-01  7.16576403e-01
   9.19287725e-02  7.30637499e-02  9.73899771e-01  7.95320233e-01
  -8.05099870e-01  1.35984303e-01 -9.35114785e-01 -7.74788989e-01
  -8.01894934e-01  5.08205031e-01  9.73144283e-02 -8.29147872e-01
  -6.70066459e-02 -6.86807305e-01 -7.21662982e-01 -7.35077483e-01
   4.55754256e-01]
 [-2.45922875e-01 -4.88854620e-02 -1.57535653e-01  3.59132978e-01
   5.71364529e-01  5.97793498e-01 -5.40939489e-01  9.64206534e-01
   5.60156936e-02 -7.51395050e-01  4.55058086e-01  1.38365550e-01
  -2.41532545e-01  1.20950086e-01 -4.22899718e-01 -7.16024235e-01
  -8.72995898e-02  1.75275343e-01  6.44438356e-03  2.92323610e-01
  -8.85269826e-01 -1.57695298e-01 -1.54850542e-01  4.94751948e-01
  -2.44380347e-01  7.43417915e-01 -2.97244271e-01 -2.08116974e-01
  -8.56239611e-01  3.64107547e-01 -2.34024840e-01 -1.93309504e-01
  -6.03452520e-01  2.48239422e-02  5.18086892e-01  1.44862421e-01
   1.16554695e-01  1.31911140e-01 -9.71212987e-01 -3.82384336e-01
   6.18472403e-01 -1.34323057e-01  8.28427463e-01 -4.47872229e-01
   7.30425823e-01]
 [-9.45791236e-01  3.94901524e-01 -7.02393178e-01 -7.91792236e-01
   8.98245227e-01  1.77628637e-01  3.56462041e-01 -4.76657153e-01
   8.67308049e-01 -7.93151286e-02 -6.65833789e-01 -9.01876120e-01
   6.69087817e-01  8.59609160e-01 -9.47406688e-01  8.70695587e-01
   6.06737873e-01 -5.99687311e-01 -2.15437557e-01 -5.50913101e-01
  -8.14985491e-01  1.83365171e-01 -2.40761728e-01 -2.24482866e-01
   2.21520094e-01  3.09102892e-01 -4.94041251e-01 -6.70554023e-01
  -3.08428357e-01 -7.31469794e-01  8.11061087e-01  9.16254304e-01
   8.58467633e-01 -9.58670912e-01  7.57029502e-01 -6.69011493e-01
  -2.84270158e-01  3.07193440e-01 -9.32978196e-01  4.27432810e-01
   5.50472974e-01  2.80119416e-01 -3.77863310e-01 -8.40504173e-01
  -2.40554959e-01]
 [ 8.58620234e-01  5.71339142e-01 -5.59863659e-01  1.91172300e-01
  -3.14312046e-01  6.01754319e-01  3.64600435e-01  1.88422923e-01
   2.22125700e-01 -8.68530082e-01  6.25454681e-01  9.44450145e-01
  -1.02971021e+00  5.19707083e-01  8.48009702e-01 -4.18191271e-01
  -4.99995313e-01  6.32684012e-01 -3.90868072e-01 -7.37624931e-01
  -2.89430783e-02 -7.02600304e-01  3.12775204e-02 -3.20734962e-02
  -1.05780416e-01 -2.88818484e-01  2.97007543e-01  1.00170615e+00
   4.19986516e-01  4.42239337e-01 -6.41447426e-01  2.41835720e-01
  -8.25170451e-01  5.02619261e-01  7.21183185e-02  2.75917597e-01
   2.15304511e-01  5.84814450e-01 -9.46203389e-02 -1.90966433e-01
   6.15630921e-02  7.82356188e-01 -1.78628851e-01 -5.90665160e-01
  -4.56593546e-01]
 [ 4.86858308e-01  9.40583448e-01 -4.82570895e-03  8.33186565e-01
  -6.57089092e-01 -1.56344615e-01  1.68532457e-01  4.69255494e-01
  -9.55520225e-02 -8.11382736e-01 -5.81318502e-01  7.30237428e-01
   3.74435393e-01  6.45372038e-01  9.16015511e-01 -7.39141722e-01
  -4.15016906e-01  4.99097456e-01  7.77896058e-01  3.07068586e-01
  -7.11175640e-01 -5.66726970e-01  6.17774736e-02 -4.19200971e-01
   2.66882431e-01  2.73107146e-02 -1.36147393e-01  1.83869729e-01
   6.35917732e-01  2.47968250e-01 -2.76661310e-02 -9.54704622e-02
  -3.86980187e-01 -7.70070886e-01 -8.93260220e-01 -2.67599013e-01
  -9.23482650e-01  1.23509232e-01 -8.28821900e-01  4.94728591e-01
  -3.18921654e-01  9.52624336e-01  3.08527436e-01 -3.64977696e-03
   6.17146018e-01]
 [-1.00482576e+00 -6.00831068e-01 -5.53508587e-01  5.72981830e-01
   1.23150243e-01  1.67033746e-01 -4.41858416e-01 -6.06974728e-01
   7.33929425e-01  1.69384583e-01 -4.23656323e-01  5.93827886e-01
   1.71214412e-01  6.85855651e-01  4.25983157e-02 -3.41888819e-01
   4.29251309e-01  1.00236694e+00  8.77249053e-01  1.63479856e-01
  -5.15202383e-01  1.62313046e-01 -1.37667087e-01  3.12709276e-01
   3.74172608e-01  3.20480597e-01 -9.16285133e-01  8.49159423e-01
  -8.75008533e-01  2.38534844e-01 -1.49248829e-01  6.49886645e-01
  -1.05948720e-01  7.05879649e-01 -4.55153031e-02 -6.15787089e-01
  -7.55972257e-01  8.69805510e-01 -5.53833669e-01 -6.86093865e-01
   1.69903679e-01 -1.35254618e-01  5.80004742e-01 -8.48278665e-01
  -6.04545953e-04]
 [-3.67588336e-01  4.92345240e-01 -5.38157477e-01 -7.10905257e-01
  -6.65828581e-01  3.70289355e-01  8.40704698e-01 -6.48957250e-01
  -1.56587703e-01 -1.85690979e-01  9.11134935e-01 -5.77103284e-01
  -1.07530128e+00  1.07867041e-01  7.32562263e-01  7.47954131e-01
  -3.72870041e-01 -3.91646039e-01 -9.13006718e-01  4.43353107e-01
   7.36703176e-01  9.43687792e-01 -3.61566545e-01 -1.49895195e-01
   7.50633446e-01 -1.59407141e-01  5.66299373e-01 -9.18376980e-01
  -8.25419600e-01 -8.61231946e-01 -2.38917118e-01  1.94904158e-02
  -8.89141884e-01  3.37829876e-01 -9.12646870e-01 -8.73619624e-01
  -3.30444530e-01 -1.31981916e-01 -5.98863332e-01  5.17989547e-01
   3.18702136e-02 -6.29725376e-01 -7.87817838e-02  3.22244893e-01
   7.95961969e-02]
 [-9.36273430e-01  3.73493018e-01  4.20042842e-01  6.88607200e-01
   8.66774349e-01 -3.85712285e-01 -8.95897613e-01 -1.82967453e-01
   3.67526480e-01  3.78290094e-02 -5.04703581e-01 -2.62370745e-01
   9.11164175e-01 -4.33802711e-01  2.53268463e-01  6.78362875e-02
  -9.07755813e-01  7.52000596e-01  3.48060734e-01  2.99174118e-01
   3.13564683e-01 -2.46203673e-01 -2.76922492e-02 -2.83796148e-01
   5.70306567e-01 -1.05968015e+00 -1.39238027e-01 -7.17264093e-01
   3.24406453e-01  2.35251071e-01  7.54114069e-01 -5.96253629e-01
  -4.33048782e-01  8.61769051e-01  4.69683203e-01 -1.84805559e-01
  -6.99698935e-01  8.66964318e-01  7.30726542e-01 -1.93034481e-01
   9.56052381e-01  9.26167476e-01 -1.31791983e-01 -7.32630328e-01
  -7.48601989e-01]
 [ 6.44661621e-01 -4.66835599e-01  3.88547373e-01  2.98279843e-01
   5.30167678e-01  4.05009701e-01 -6.94412177e-01  2.96482858e-01
  -5.25698351e-01  7.32605712e-01 -6.20003553e-01  2.58485899e-01
   6.95472949e-01 -4.78918749e-01 -5.96094684e-01  9.63012863e-01
  -1.95653405e-01  6.77448352e-02  5.26249244e-01 -8.82520483e-01
  -3.32394604e-01 -3.53428998e-01  7.15835599e-01 -6.13002417e-01
   4.06126918e-01 -8.23340985e-01  1.15028833e-01  6.75642261e-01
   3.71791252e-01  5.01035129e-01  6.32128464e-01 -7.98569171e-01
  -7.76560091e-01 -2.05112384e-01  9.61161306e-01  1.72941720e-01
  -5.84219096e-01 -5.10632993e-01  8.05397845e-01  6.78252229e-01
   2.52877173e-01 -5.90449790e-01 -6.92212497e-01 -8.53586764e-01
   5.49970024e-01]
 [-4.74711450e-01  8.33000290e-01 -6.35912973e-01 -2.30324147e-01
  -5.89567660e-01 -5.51291526e-01  8.72353465e-01  4.64652487e-02
   4.60701851e-01  6.89505478e-01 -6.05442831e-01  3.12693206e-01
   1.61193693e-01  1.36179239e-01  3.52255718e-01 -5.63175593e-01
  -7.90721739e-01 -8.62719663e-01  2.60476459e-01 -3.63126670e-01
   6.95498585e-01  1.83757132e-01  6.98213434e-01  4.56708678e-02
   8.95946476e-01  5.96257060e-01  1.61436088e-01 -5.22085553e-01
  -4.00942678e-01 -1.36060299e-01 -1.12421584e-01  8.51412931e-01
   2.60884416e-01  3.77363769e-01  5.93813725e-01 -6.21758411e-01
  -3.86133176e-02 -3.85817710e-01 -3.30875725e-02  6.58576811e-01
  -6.30770338e-01 -9.55204012e-01  6.61607734e-01  8.88694844e-01
  -3.70341773e-01]
 [-4.78651318e-02  1.79908841e-01 -4.62752169e-01  4.62463350e-01
  -9.02327194e-01  1.78755971e-01 -1.50936356e-01  4.71146465e-01
   3.29789295e-02  5.62505142e-01 -3.95672924e-01  3.76147220e-01
  -3.90978106e-01 -4.13762902e-02 -4.52411989e-01 -9.29385618e-01
   6.93081152e-01  8.72280414e-01 -2.21452117e-01  7.35069557e-01
   9.76152368e-01 -3.22653625e-01  2.54153321e-01 -6.53729364e-01
  -6.96518376e-01  1.18705842e-01 -7.92220953e-02  3.89396861e-01
  -1.22421123e-01 -4.64684539e-01  7.45162084e-01  2.23083821e-01
   3.59205291e-01 -1.93420720e-01 -4.71179283e-01  5.96645395e-01
   1.66703705e-01  1.67820157e-01 -7.34627315e-01 -2.28652034e-01
   3.63559485e-01 -4.02314439e-01 -7.32963798e-03 -2.93357823e-01
  -8.97691729e-01]
 [ 6.96790772e-02 -4.07895099e-01  2.10848638e-01  1.29688325e-01
   3.07520803e-01 -5.56953222e-01 -6.53692762e-01  3.01624348e-01
   2.37498302e-01  6.95261480e-01  6.94673970e-01 -5.27176981e-01
   5.39290432e-01 -5.94726825e-01 -2.34377921e-02 -4.00082507e-01
   6.54641544e-01 -9.23501516e-01 -4.75361499e-01 -3.68298980e-01
   8.10935176e-01 -5.44192398e-01  8.66248442e-01  7.93809502e-01
  -1.76516133e-01 -3.11582402e-01  5.47890138e-01  1.30479945e-01
  -4.04559657e-01 -8.43334036e-01  9.93393910e-01  3.75901436e-01
  -3.48619289e-01 -8.58645507e-01 -2.41030878e-01  7.02085676e-02
   6.55781243e-01 -4.54168886e-01 -6.20481991e-01 -8.36589495e-01
   9.04207734e-01 -9.53690724e-01  1.49221115e-01 -5.25795040e-01
   3.53440843e-01]
 [ 5.49857937e-01  5.75711939e-01 -9.41411403e-01  8.21059135e-01
  -6.00827926e-01  5.91670701e-01 -8.18318053e-01 -4.14423652e-01
  -5.35673093e-01  7.34630825e-01  2.20308708e-01 -6.31678696e-01
  -8.90218913e-01  3.10298296e-03 -1.99899783e-01 -8.70670434e-01
   8.99548658e-01 -6.94731089e-01 -6.88232227e-01  6.11219704e-01
  -7.56844916e-01  4.31033908e-01  2.94834198e-01  1.73726466e-01
  -2.28301714e-01 -3.36938016e-01  1.02522348e+00  6.51824615e-01
   6.77337029e-01 -4.55398815e-01 -1.54118791e-01 -5.07764402e-01
   5.46706979e-01  3.19973914e-01 -6.11414387e-01 -2.83958337e-01
  -8.42618318e-01  6.80199290e-01 -2.81259067e-01 -7.48822473e-01
   8.00802962e-01  3.70836952e-02 -4.13909085e-01 -8.21930835e-01
   1.89165890e-01]
 [ 9.85675577e-01 -1.08567014e-01  4.27701264e-01  6.29987920e-01
   7.82457725e-01  5.65134107e-01 -4.78215630e-02 -9.03250405e-02
  -6.63808154e-01 -3.97034812e-01  7.91541348e-01 -1.42382585e-01
   1.12303172e-01 -6.47599234e-01  9.11165056e-01  1.07068257e-01
   6.84412052e-01  5.29271445e-01 -4.22969989e-01 -2.86491007e-01
   8.08461269e-01  8.53818444e-01 -3.29549013e-01  1.78015741e-01
  -3.19051972e-01 -3.20974831e-01  6.05954822e-01  5.70273135e-01
  -5.61601233e-01  7.89942205e-01  1.18256328e-01 -4.75808950e-01
   1.50438002e-01 -2.73810433e-01  9.36008311e-01 -5.55591705e-01
   8.09915610e-01 -3.00508439e-01  8.97345726e-01  1.98114712e-01
   4.78721260e-02 -7.17692989e-01 -4.85424470e-01  8.41917500e-02
  -9.19628535e-01]
 [ 9.17947870e-01  3.81356250e-02  5.41337374e-01  7.78740672e-01
  -5.97865320e-01 -7.21924532e-01  3.17333751e-02 -9.87179808e-01
   5.58091465e-01 -8.42673900e-02  9.63938770e-01 -8.71443643e-01
  -3.64421773e-01  1.50189652e-01  5.07284190e-02 -3.19014667e-01
  -6.00340989e-01  2.31364437e-01 -9.36370057e-01  4.63096415e-01
  -8.52519137e-01 -3.77101624e-01  4.56781394e-01  7.69304003e-01
   4.07087195e-01  5.78786757e-01 -3.57409706e-01  4.73873717e-01
  -5.56184680e-01 -6.94327227e-01  2.99842444e-01 -4.75544949e-01
  -1.47473208e-02 -2.58065848e-01  5.79289831e-01 -1.64186905e-01
   9.57716946e-01 -6.76635244e-01 -5.82663890e-01  7.12729487e-01
   6.87740220e-01  9.16690407e-01 -2.96814498e-01  1.63377814e-01
  -5.20015009e-01]
 [ 7.49060307e-01  8.37516342e-01 -4.85226713e-01  9.55158382e-01
  -1.01128577e+00 -7.42190798e-01  5.43927247e-01 -1.84977532e-01
   6.32910665e-01  3.59193750e-01  2.01981101e-01 -7.43976619e-01
  -3.32888570e-02 -9.81321311e-01 -7.36363748e-01  5.80478847e-01
  -8.76313514e-01 -2.51517874e-01 -4.78722930e-01 -8.19268022e-01
   1.97916549e-02 -4.64856785e-01 -2.83191891e-01 -9.43248661e-01
   7.72743673e-01 -3.14253160e-01  2.12553780e-02  5.19384854e-01
  -1.75589383e-01 -7.93351968e-01 -2.33158471e-01  6.50253010e-01
  -3.80275956e-01  3.21140317e-01 -5.26883578e-01  5.16636204e-01
  -7.84090394e-01  4.53193929e-01 -3.80064607e-01  9.75200180e-01
  -3.47419528e-01  2.68280220e-02  9.98824294e-01  5.89285416e-01
   8.05763812e-01]
 [-1.89473299e-01 -3.06941951e-01  5.27266187e-01 -6.03933045e-01
   1.41239422e-02  4.48284549e-01  2.43559408e-01  1.95716445e-02
   5.98770037e-01  4.04251942e-01  6.46390818e-01  6.09428217e-01
  -6.80668679e-01 -9.56116759e-01 -2.43103480e-01 -7.09584780e-01
   2.75972198e-01 -6.32797281e-01 -5.69043553e-01 -4.70300153e-01
   8.28733851e-01  8.15456272e-02  3.93370697e-01  6.63570259e-01
   7.00049194e-01 -5.99292463e-01  3.03303994e-01  9.98204956e-02
   5.88094723e-01  3.31119960e-01  5.33081887e-01  2.05708380e-01
   6.53069473e-01 -3.47114210e-01  6.85923422e-01  9.85500368e-01
  -4.16614749e-01  5.09137627e-01 -4.50557571e-01  4.44411332e-01
   4.42891975e-01 -6.87890594e-01 -3.30615360e-01  5.96813021e-01
  -1.24460463e-02]
 [-6.07213244e-01  2.26265449e-01 -7.59160126e-01 -2.77113078e-01
   8.19743212e-01 -7.15910463e-02  7.45992760e-01  6.56848936e-02
  -6.05317725e-01  6.59795956e-01  1.30416984e-01  9.49533559e-01
  -7.34752588e-01  3.83594550e-01 -4.36143476e-02 -1.77448665e-02
   2.53604653e-02  4.69163395e-01 -1.14393910e-01  1.85026084e-01
  -3.85390924e-01  3.49332316e-01  9.77574127e-01  7.07669890e-01
  -9.87310176e-01 -8.84470471e-01  3.63300163e-01  3.19469810e-01
  -6.73519935e-01 -4.00604374e-01 -5.28472041e-01 -7.01609274e-02
   4.57716846e-01 -8.80717537e-02  6.13718847e-01 -8.15177422e-01
  -4.19990528e-02  1.04389819e-01  5.55674096e-01  8.81327884e-01
   2.26692513e-01  1.83463672e-01 -3.21453833e-01 -1.76572341e-01
  -7.05023451e-01]
 [ 6.86249910e-01 -1.52936254e-02 -7.60405731e-01 -3.85846762e-01
  -6.67363118e-01  7.29349769e-01  6.28811205e-01  6.62196040e-01
  -8.54938509e-01  7.32978715e-01  4.27659693e-02 -9.73639853e-01
  -3.81878191e-01  5.38174433e-01  9.74820432e-01  5.04794580e-01
  -2.41809901e-01 -2.39578040e-01 -2.32895482e-01 -7.88938284e-01
  -6.43894840e-01 -2.58897620e-01 -7.85656886e-01 -2.05064289e-01
  -7.04325628e-01  7.55583721e-01 -6.69924028e-01 -7.91381203e-01
  -9.78129995e-01  4.57142149e-01  3.47678641e-01  6.55994426e-01
   4.67414426e-01  5.53380448e-01 -2.09925218e-01  4.92322775e-01
   4.84961753e-01 -8.51038554e-01 -7.17104207e-01 -9.16733886e-01
   2.98338123e-01 -1.19496258e-01 -8.21107381e-01 -5.59741578e-01
  -4.73912141e-01]]
[[-7.36726322e-01 -3.90277004e-01  7.05120073e-01  1.03059130e+00
   1.29354351e-01 -7.34359620e-01  8.09923468e-02 -1.94108159e-01
   4.38614513e-01  9.90204290e-01 -6.02321248e-01 -3.66885133e-01
  -4.50204460e-01 -2.77843011e-01  1.01499642e+00  4.95632682e-01
   1.11277040e-01  6.10823861e-01  6.30965350e-01 -2.63702802e-01
   6.82672699e-01 -3.78478857e-01  8.23894342e-01  4.51491090e-01
   6.58239224e-01  9.00085661e-01  7.35767935e-01  4.73858177e-01
   1.15220615e-01 -8.17388758e-01]
 [ 4.19273380e-01 -3.94567353e-01  8.02219836e-01 -4.86430663e-01
   9.38427438e-01  8.68234039e-01 -9.58652424e-01  9.61771563e-02
  -2.67404691e-01 -7.99961622e-02 -3.95509291e-01 -6.81390464e-01
   6.37596695e-01 -6.51836801e-02 -2.87018467e-01 -1.14271204e-02
   6.94174874e-01 -2.55228218e-01 -7.43505295e-01 -3.46967108e-01
   2.89976748e-01 -5.62547656e-02 -2.87400659e-01  4.18490721e-01
  -2.29337330e-01 -7.05449800e-01 -6.32768144e-02  2.27504749e-01
   1.03189965e+00  3.23116948e-02]
 [ 6.15185164e-01 -6.93532697e-01 -9.60738769e-01  7.50392855e-01
   5.09218609e-02  6.31640563e-01 -2.10397023e-01  2.81035009e-01
  -1.01313441e+00 -8.66698324e-01  9.59757990e-01  7.01904813e-01
  -7.32938491e-01  8.51897911e-01  3.32546481e-01 -5.69429119e-01
   1.14860948e-02 -7.20023724e-01  3.31134441e-01  1.45758429e-01
   2.24039306e-01 -5.76130513e-01 -2.48899287e-02 -7.59109666e-01
   6.55671380e-01  8.12022814e-01 -2.40555190e-01  2.32059360e-01
  -9.57893502e-01 -1.73672620e-01]
 [ 8.34984701e-01  8.93449546e-01  1.25498559e-01 -2.37803787e-01
  -8.46951370e-01 -3.52315082e-01 -4.54910887e-01  1.02038446e-01
   3.36259466e-01  4.60140011e-01 -4.17836241e-01 -1.14852540e+00
   5.34305523e-01  5.21574146e-01 -6.79204326e-01  6.15457697e-01
  -5.37458099e-01  4.07150564e-01  5.95047500e-01  9.74351120e-01
  -7.00473333e-01  5.79097498e-01 -1.36855436e-01  2.57203126e-01
   6.15859086e-01 -6.61246153e-01 -4.55047985e-01 -6.62913762e-01
   1.56367991e-01 -5.45247622e-01]
 [ 1.03687971e-01 -2.68002599e-01 -6.82752576e-01  9.99808024e-01
  -4.01357376e-01  3.62852306e-01  7.44727172e-01  6.16203001e-01
  -8.27143969e-01  3.23069614e-01  3.59508378e-01  2.46417990e-01
   1.08511933e-02 -8.04246514e-01  4.15156914e-01  2.16844499e-01
  -3.56456362e-01  2.55027185e-01  7.07859257e-01  4.97883513e-01
   5.68948395e-01 -8.88032507e-01  5.20174422e-01 -1.00031997e-01
  -9.65163942e-01  5.79545696e-01  4.70938104e-01 -3.09633452e-01
  -3.40001160e-01 -2.42871731e-01]
 [-4.30356447e-01 -9.50215718e-01  9.60103008e-01 -5.65082934e-01
  -1.03554740e-01  6.33373801e-01  5.83829154e-01 -3.98690609e-01
   7.12946677e-01 -4.70021270e-01  8.20189172e-01 -9.45207394e-01
   3.14186800e-01 -5.33294567e-02 -4.05381691e-01  8.92045332e-01
  -2.44618149e-01 -7.29411211e-01 -4.06221428e-01  3.38050188e-01
  -3.51778972e-01  3.79984680e-01 -6.58993686e-01 -6.30500209e-01
  -5.87637940e-01  2.83567046e-01 -2.32256921e-01 -8.60104497e-02
  -7.78588161e-01 -8.71630224e-01]
 [ 5.60480650e-01  5.62471411e-01 -7.77975123e-01  1.87816044e-01
   4.49408275e-01  7.94747121e-01  1.71037502e-02  4.15155191e-01
   1.02823619e+00  9.91148213e-01  3.24220635e-01 -8.98870906e-01
  -6.56166203e-01 -9.98387547e-02 -3.96585231e-03  8.69036284e-01
  -1.61543579e-01  6.01510359e-01  6.15825038e-01 -4.92848336e-01
  -9.52378137e-01 -2.34578561e-01 -6.94266721e-01 -8.32423853e-01
   2.01526338e-02 -5.51705589e-01 -5.74913157e-01 -6.27329955e-01
  -1.88705538e-01  7.11610798e-01]
 [-7.58289423e-01  3.19548211e-02 -8.69201905e-01 -5.85696386e-02
   7.46913905e-01 -9.92265468e-01  2.55414915e-02  3.15457072e-01
  -8.66221913e-01  6.79330796e-01  2.31013862e-01  9.47013475e-01
   6.90009208e-02  3.80869416e-01 -4.12431087e-01 -5.06383888e-01
   8.28327593e-01  2.11491059e-01  1.16590341e-01 -8.58304913e-01
  -4.83418505e-01 -6.21381723e-01  1.72663404e-01 -3.26000890e-01
   2.01559658e-01 -2.27486648e-01  5.16522790e-01  9.79789424e-01
  -3.28508120e-01  2.04761424e-01]
 [-3.40020520e-01  7.13784498e-01 -1.04018417e+00 -4.94806420e-02
  -1.30083709e-01  2.93730503e-02 -6.62116344e-01 -9.57201978e-01
   3.58297536e-02  7.93381224e-01  5.93883561e-01  8.80151553e-01
   9.98044574e-01 -3.94226116e-01 -5.91351313e-01 -7.41797824e-01
  -8.57914429e-01  8.66583280e-01 -4.57862762e-01  7.19817713e-01
  -1.90606433e-01 -4.90997126e-01 -9.12016511e-01  5.00045805e-01
   9.66340919e-01  9.02298533e-01  5.81331103e-01  9.58342143e-01
  -8.04364752e-01 -9.72888854e-01]
 [ 1.39725196e-01  7.46300296e-01 -5.00050745e-01 -9.00520763e-01
  -2.31720672e-01 -6.27835255e-02 -8.06126922e-01 -6.58880371e-01
  -1.44193319e-02  7.61471792e-01  6.26069303e-02  5.22997023e-01
  -1.00841827e-02 -3.52293564e-01 -2.52844035e-01 -4.29243534e-01
  -5.30644650e-01  3.28748739e-01  7.02893127e-01  4.52505381e-01
  -8.31421187e-01 -2.65077127e-01  2.26522383e-01 -8.59174257e-01
  -8.43363397e-01 -1.86323396e-01  2.62328644e-01  7.90184596e-01
   2.19260626e-01 -3.89351300e-01]
 [ 2.15654828e-01  8.44062314e-01 -2.77937949e-01 -3.82798332e-01
  -2.43114107e-01 -7.50226942e-01 -6.84973463e-01 -3.52627023e-01
  -8.76012280e-01  3.35623235e-01 -1.23126132e-01 -4.73155921e-01
   1.19149776e-01 -3.22781464e-01  5.55845128e-01 -2.35908246e-01
   1.17241514e-01 -6.20777377e-01 -8.95145743e-01  6.23888220e-01
   7.73958171e-01 -8.56118884e-01  5.47811615e-01  9.75796930e-01
  -3.66807364e-01 -2.83628401e-01 -1.07722345e+00 -2.80929211e-01
   1.71923908e-01  9.72795512e-02]
 [ 8.03137889e-01  5.59729381e-01 -7.57233650e-01 -2.97733041e-02
  -6.98341085e-01  2.91105217e-01 -5.65019485e-02 -4.48777637e-01
  -6.02025781e-01  5.50507483e-01  3.79304741e-01 -1.34268682e-03
   2.54413516e-01  3.07749215e-01 -6.90009141e-01  8.34211917e-01
   5.94554888e-01  2.53376986e-01 -3.42930972e-01 -3.20425821e-01
  -4.36002123e-01  4.17073302e-01 -4.37458613e-01  1.36678697e-01
   9.42785618e-01 -1.36905829e-01  1.10048703e-01 -8.94846647e-01
  -7.28738831e-01  6.58244696e-01]
 [ 9.52406721e-01 -5.72744934e-01  6.48431810e-01 -6.79339628e-01
   6.07937270e-01  9.09350887e-01 -7.43871981e-01  1.01902531e+00
  -5.00947387e-01  4.74980932e-01  7.43997629e-01  5.17403481e-01
  -7.20814264e-01 -6.21287677e-01 -7.41049201e-01  1.93817665e-01
  -4.92899776e-01  3.11848683e-01 -4.09139764e-01 -3.34165270e-01
   4.29925985e-01  7.87554511e-01  3.11899521e-01  4.58492348e-01
   7.96729504e-01 -2.31594233e-01  2.78538970e-01  6.37519935e-01
   6.07090545e-01 -1.04311564e+00]
 [-5.53850259e-01 -6.51768271e-01 -7.05852755e-01 -9.92930520e-01
   8.70810666e-01  2.60303949e-01  8.24287243e-01 -6.34203092e-01
   1.74165981e-01 -5.93370402e-01 -2.16288071e-01 -7.15228825e-01
   3.52885369e-01  2.12498822e-01 -7.20959920e-01 -2.04633126e-01
  -5.69774506e-01  9.85404399e-01  8.71619581e-02 -4.20590502e-01
   1.06950405e-01 -8.54844829e-01  1.25069433e-01  2.40268362e-01
   5.22783199e-01 -6.20167906e-01 -3.10041210e-01  6.22151835e-01
   8.93003809e-01  5.51012128e-01]
 [ 8.86490834e-02 -1.31256859e-01 -7.75154544e-01  2.09063598e-01
   4.65783780e-01  4.10274062e-01 -8.65985386e-01  5.62004728e-02
  -7.98826453e-01  2.49828165e-01  7.49196844e-01 -7.12318319e-01
   9.20996906e-01  5.39176020e-01 -2.69559164e-01 -3.70828959e-01
  -6.61181196e-01  8.27067379e-01  5.77608978e-02 -2.23721194e-01
  -7.20443685e-01 -5.26197450e-01 -1.72330849e-01 -8.66277593e-01
  -2.29025893e-01  5.16915102e-01  4.04762259e-01  8.20712771e-01
  -7.07406879e-01 -4.79075751e-01]
 [ 6.59970803e-01  3.20016010e-01 -1.08326265e-01  4.17343597e-01
   8.32586075e-01 -2.48043624e-01 -1.38997091e-01 -7.44861530e-01
   6.13720982e-01  3.85770143e-01 -5.21722668e-01 -4.30490591e-01
  -2.61942790e-02  5.12756064e-01 -8.51853745e-01  5.28554625e-01
  -7.73110461e-01  7.52528813e-01  1.28071536e-01 -6.75100989e-01
  -9.85879408e-01 -9.32143770e-01 -4.23136548e-01  4.77005315e-01
  -5.93068675e-01 -1.72206141e-01 -3.00410698e-01  1.03118984e+00
  -7.82199142e-01 -9.66418712e-01]
 [-9.64791923e-01  3.84708100e-01 -2.18142799e-01 -7.49089912e-01
   3.82001718e-01  5.65108028e-01 -1.47178332e-01  3.66589566e-02
  -8.48573882e-01  1.63893652e-01 -9.04525940e-02 -6.24069455e-01
  -7.51633927e-01  8.01312485e-02  6.30215799e-01 -1.94046811e-02
  -6.45806230e-01 -7.10742880e-01 -4.10254702e-01  8.00641157e-01
   1.45092032e-01  2.99356815e-01  8.06618920e-01 -2.14942302e-01
   6.07615678e-02 -1.21037316e-01 -4.03957396e-01  9.33269595e-01
  -4.79723944e-01 -9.28367906e-02]
 [-5.43386114e-01 -1.52681512e-02  3.94424893e-01 -9.29458341e-01
  -7.68985529e-02 -5.31076875e-01  8.21279582e-01  1.47008620e-01
  -6.62580912e-01 -7.24114056e-01 -2.09329646e-01  6.09729417e-01
   1.43573238e-01  5.88805693e-01 -6.98212800e-01  6.12051599e-01
   8.40282166e-01 -3.30394665e-01 -6.27206663e-01 -1.65174191e-01
  -2.86885512e-01  6.94484402e-01  7.74433030e-01  9.99651663e-01
  -4.66566355e-01  7.36613337e-01  5.23343440e-01 -2.80931046e-01
  -1.69789996e-01  7.09096477e-01]
 [ 1.36835596e-02 -2.61104679e-01  6.42577343e-01 -9.08383732e-02
   6.06582836e-01  3.96375712e-01  3.64954441e-01 -9.30689441e-02
  -1.95981980e-01 -8.99064102e-01  7.41200988e-01  3.78782666e-01
  -4.93487116e-01 -8.22355853e-01 -7.39348599e-01 -7.95462098e-01
  -3.05117386e-01 -4.73367524e-01  9.89506860e-01 -3.03622270e-02
   2.65899758e-01 -9.99045652e-01  1.91083831e-01 -8.18297399e-02
  -3.63984338e-01 -5.92215657e-01 -1.26936183e-01  3.16151292e-02
   6.86982659e-01  1.68982604e-01]
 [ 5.51722843e-01  9.45939062e-01  3.38670546e-01  2.53594209e-02
   5.20897885e-01 -6.05851264e-01  4.78505952e-01 -9.28809892e-01
  -7.20393906e-01  5.16136048e-01  8.33741113e-01  8.68487529e-01
   4.89623416e-01 -2.62188613e-01 -8.49342455e-01 -8.32769020e-01
  -7.62016314e-01 -7.80185852e-02 -4.79194442e-01 -9.16371683e-01
   2.18149750e-02  2.76134453e-01  3.50191919e-01 -1.52677547e-01
  -1.64743121e-01 -4.27958203e-01  7.95983492e-01  1.01681594e+00
  -1.44749176e-01  6.19301175e-01]
 [ 2.12958333e-01  1.08764613e-01  7.41650820e-01 -5.47704334e-01
   8.14672834e-01 -2.31443030e-01 -1.48681985e-01  6.87382428e-01
   2.95763492e-01 -6.97017431e-03  5.90961659e-01  3.98553121e-03
  -9.57545373e-01 -2.48954179e-01  3.67940160e-01 -1.07988410e+00
   6.63716262e-01  6.59100874e-01 -7.85440201e-01  2.77529577e-01
   4.61387283e-01  9.54404373e-01  4.96818210e-01 -2.59347597e-01
  -2.94411511e-02 -5.22626634e-01  9.22907602e-01 -7.94433175e-01
   7.59605646e-01 -6.54018846e-01]
 [ 4.90712949e-02 -8.31754949e-01 -8.45447039e-01  5.82176763e-01
   2.62221389e-01  3.52891313e-01 -1.11557980e+00 -3.18856948e-01
   2.00875562e-01 -3.13251743e-01  9.06573905e-01  5.39053162e-01
  -9.26818782e-01 -5.49347940e-02 -8.98196618e-02  5.72469971e-02
  -8.08600957e-01 -8.88915581e-01 -3.03911510e-01 -7.00807137e-01
   8.90700269e-01  9.75000906e-01 -4.19257280e-01  5.21644105e-02
  -4.52795016e-01  2.86864139e-01 -8.50389778e-01  5.63658246e-01
  -2.93849848e-01 -4.37820080e-01]
 [-8.10809844e-01 -8.48176853e-01 -4.54888286e-02 -3.47711956e-01
   6.87671147e-01 -5.09686815e-01  1.05569710e+00  6.15847041e-01
   2.82063202e-01  6.86527630e-01 -2.66405198e-01  1.23799818e-01
   3.76393708e-01 -8.62368148e-01 -9.73311665e-01  5.03742764e-01
   5.28124383e-01 -1.25577665e-01  6.75107467e-01  6.87383740e-01
   3.16329773e-01 -5.24237287e-02 -1.04836865e+00  1.77844319e-01
  -8.34959027e-01  6.57529911e-01  5.18667953e-02  2.26498934e-01
  -1.40317355e-01  2.25256117e-01]
 [-3.79114023e-01  1.35032657e-01 -9.05581933e-01 -8.59542683e-01
  -9.62371532e-01 -7.18200110e-01 -4.36281092e-01 -3.50524001e-01
  -9.88967622e-01 -8.28329676e-01  9.10848359e-01 -4.23584227e-01
  -4.08806543e-02  9.86060484e-01  7.31125847e-01 -1.00463146e+00
  -5.31148838e-01  8.17806926e-01  5.65396012e-01 -7.55995402e-01
   5.89180325e-01  3.29593067e-01 -7.89480710e-01 -7.64111542e-01
   4.07850438e-01  8.37134813e-02 -3.56981568e-01  3.21967999e-01
   4.58399637e-01  2.96384476e-01]
 [-6.12916575e-01  4.84360366e-01  6.19862522e-01  9.29897204e-01
   6.30435278e-02 -3.73524489e-01 -1.90452634e-01 -1.31183599e-02
  -6.40430582e-01 -8.95236023e-01  5.96047266e-01  3.81238134e-01
   1.72136558e-01  6.26796757e-01 -6.90623802e-01 -9.50972277e-02
  -8.53631072e-01  6.23765811e-01 -4.20552405e-01 -3.55231333e-01
   3.97852880e-01  4.67916369e-01  3.75560537e-01  7.54086353e-01
  -8.13038211e-01 -6.71976039e-01  1.75658197e-01  1.13024760e-01
  -7.24365408e-01  6.40331095e-01]
 [ 9.00292786e-01  5.33547698e-01 -1.10642536e-02  1.10408277e+00
   7.96241750e-01  2.37489731e-01  7.01932647e-01 -4.38982116e-04
   6.82482112e-01  4.01116979e-02  8.02755387e-01 -3.48757411e-01
  -3.45175724e-01 -5.28565347e-01  5.28031942e-01  1.57086143e-01
  -6.42076280e-01  4.25871245e-02 -5.57391285e-01 -7.81835396e-01
   7.18639373e-01 -7.08797039e-01 -2.71429568e-01  8.33016030e-01
   4.91712268e-02 -2.22072854e-01  8.09925196e-01 -1.03523312e+00
   1.83611339e-01 -4.46227015e-01]
 [ 1.94735755e-01  4.66155588e-01 -5.57288936e-01 -2.59534792e-01
  -9.70311696e-01  9.77435575e-01  2.04994181e-02 -4.05275406e-01
  -1.41920764e-02  2.78999555e-02  5.94243124e-01  9.48954255e-01
   7.73439216e-02 -1.09221547e+00  1.82966830e-01 -1.95717619e-01
  -1.99413263e-01 -6.78765384e-01 -9.94486589e-01  8.65931172e-01
   6.98517077e-01 -7.87770152e-01 -1.36947270e-01  8.00020097e-01
  -5.74823274e-01 -1.63212496e-01  2.53103291e-01 -7.55957978e-02
  -7.03634647e-01 -2.08961822e-01]
 [ 6.07613909e-01  7.13278820e-01  3.94056139e-03  5.56670821e-01
   1.35907645e-01  5.15218625e-01  4.74864047e-01 -4.19621029e-01
  -8.18685577e-01 -8.83322351e-01 -9.87450327e-01 -7.45955387e-01
   3.27025299e-01  3.72269684e-03  4.88644893e-01  3.62744442e-01
  -6.11872156e-01  1.53580047e-01 -2.49474293e-01 -3.28278973e-01
   5.06390990e-01 -1.83627651e-01  6.76450954e-01 -9.43517215e-01
  -5.34438288e-01 -3.50969609e-01 -2.65531864e-01  4.52849455e-01
   9.88612535e-01  2.84771788e-01]
 [ 8.59680972e-01  3.38907298e-01  3.82893916e-01 -7.39792863e-01
  -9.12436277e-01 -6.22537791e-01  1.07817206e+00  4.38660709e-01
  -6.67918202e-02  2.24419000e-01  2.31299057e-01 -4.33954429e-01
  -7.24020878e-01  9.49723228e-01  8.11166247e-01 -4.21055314e-02
   5.40423731e-01 -7.53085430e-01  7.24654386e-02 -8.91482400e-01
  -1.43414816e-01 -9.11306011e-02  5.69683521e-01  8.31025766e-01
  -5.81253772e-01 -4.39315510e-01 -1.47619663e-01  7.20485766e-01
   6.04590289e-01 -1.19091007e-01]
 [-7.01116550e-01 -7.71982272e-01  2.68458084e-01 -9.47888282e-01
   6.62472015e-01 -7.02243906e-01 -7.93490776e-01 -4.93273246e-01
  -6.68829910e-01  6.65231704e-01 -3.02937525e-01 -8.59888930e-01
   4.31095710e-01  6.51316439e-01 -3.93757403e-01 -7.47952620e-01
   1.74205263e-01  1.13972802e-01 -6.21297163e-01 -9.24269118e-01
  -5.63568112e-02 -9.78245777e-01 -5.78344189e-02  1.92772876e-01
  -1.42617509e-01  6.42867718e-01  1.99197463e-01 -4.07292565e-01
   1.18458141e-01  5.60867307e-01]
 [-4.27445365e-01 -2.02034598e-01 -9.05291205e-01  6.96668255e-01
   7.11502154e-01  8.29283811e-01  3.61575457e-01  6.39227210e-01
  -4.30350529e-01 -5.82030107e-01  7.43418528e-01  2.84186345e-01
   9.09831075e-02 -8.14798871e-01  6.71678616e-02  7.30226561e-01
  -8.30559489e-01 -6.39991752e-01 -5.94448840e-01  3.87389281e-01
   5.37320343e-01 -1.21691279e-01 -2.03932141e-01  1.32729289e-02
  -2.58487412e-01 -7.07045911e-01  9.11215449e-01  4.52032483e-01
   7.48552626e-01 -1.04532576e+00]
 [ 1.03855893e+00  6.27920933e-02  8.72809177e-01 -5.12075817e-01
  -5.31650111e-01  4.39121423e-01 -6.03439490e-01  1.02728040e+00
   2.57728570e-01 -1.98431557e-01 -6.41879429e-01  5.71176293e-01
  -7.11872140e-01  7.83458200e-01 -4.74288888e-01  6.98633903e-01
  -7.55189311e-01 -5.70552705e-01  4.49784863e-01  7.48855319e-01
  -3.04033379e-01  3.51836023e-01  5.75648658e-02 -8.29129168e-01
  -6.71127362e-01 -1.56222298e-01 -8.46989428e-01 -7.31183271e-01
   9.65654522e-01 -3.75287996e-01]
 [-5.26401805e-02  4.82017608e-01  7.84826507e-01 -3.97824491e-01
  -9.23618906e-03  3.07514158e-01 -8.06428031e-01  2.95212588e-01
  -4.27699218e-01 -5.35832886e-01 -5.65913320e-01  3.30198624e-01
   3.84740440e-01 -2.22340944e-01  9.66772326e-01  7.44734941e-01
   1.23021053e-01  3.15882085e-01  3.86766505e-01 -4.73287429e-01
  -6.75648923e-01 -1.61174968e-01  3.44710404e-01 -8.48871920e-01
   4.13952197e-01 -3.51510341e-01 -7.06328205e-01  4.63588849e-01
  -1.39585063e-02 -3.91308141e-01]
 [-3.18692011e-02 -8.42746216e-01  7.26600309e-01 -3.15255990e-01
   5.59600727e-01  3.95578923e-01 -1.72946976e-01  1.02229209e+00
   4.33396122e-01  5.31395662e-01  4.14748927e-01  1.18351892e-01
  -7.89200252e-01 -6.49942427e-01 -6.46528299e-01  7.84823973e-01
  -9.63376385e-01 -8.49893832e-01 -7.21045879e-01 -8.73416203e-01
   5.98974216e-01  5.66407865e-02  4.76307331e-01  3.72151189e-01
  -8.40528297e-01  8.65423576e-01 -4.24514177e-01 -5.23450860e-01
  -5.71322414e-01  4.75202365e-01]
 [-5.38365372e-01  5.42970951e-01  6.82924029e-01  4.56470167e-01
   2.85279455e-01 -5.76688830e-01  7.82484952e-01  4.07666183e-01
   2.60838689e-01  7.61492607e-01 -8.88539817e-02  3.18971855e-01
  -9.72300912e-01 -3.61799265e-01  5.38540222e-01 -3.52895442e-01
   1.03827997e+00 -8.12619136e-02  2.26845917e-01 -7.22627232e-01
  -5.35037728e-01  4.59794423e-01 -1.00500612e+00 -4.62608635e-01
  -1.35886655e-01  1.10561466e-01  4.10159065e-01 -6.20686443e-01
   2.16419577e-01  5.40118351e-01]
 [-5.10769012e-01  7.43684398e-01  5.84404251e-01  2.87551241e-01
   5.67689149e-02 -8.15080649e-01 -9.47382632e-01  3.13073616e-01
   6.52404346e-01  7.47435322e-01  1.32535570e-01  2.48491100e-01
  -8.12292764e-01  7.76793779e-01  2.41373620e-01 -1.22593038e-01
  -1.00513024e+00  3.77935443e-01 -7.40146855e-01 -8.72725227e-01
  -5.68739760e-01  9.18127624e-01 -7.63395479e-01 -2.05578823e-01
  -5.27011827e-01 -2.57307732e-01 -8.21858070e-01  6.16207736e-01
  -8.45243436e-01  9.93535096e-01]
 [ 5.09177389e-01  4.10924742e-01 -8.84411489e-01 -4.57507292e-01
   8.61824047e-01  7.02014583e-01  6.92021751e-01 -7.84193027e-01
   1.54677280e-01  7.53510551e-01  4.22932287e-01  7.63459203e-01
   2.59285579e-01  3.22302412e-01 -6.91767127e-01  2.49728979e-02
  -2.39555060e-01 -1.60719943e-01 -8.25708822e-02 -9.53264172e-01
  -3.04351230e-01 -7.77683923e-01 -8.47710483e-05  6.83092275e-01
   2.70015541e-01 -5.96265398e-01 -2.71141499e-01 -7.69029091e-01
   4.38051732e-01  7.88797356e-01]
 [ 8.78087474e-01  7.15086107e-01  4.33936639e-01  7.65863773e-01
  -2.33234573e-01 -3.74648010e-01  9.38567201e-02 -6.57340527e-02
   7.49957218e-01 -1.85674411e-01  3.23455489e-02  1.11468667e-01
  -6.25669617e-01 -3.60450248e-01 -2.53782999e-01 -8.03718564e-02
   4.30430552e-01 -9.86961668e-01  7.48211634e-01  3.05812749e-01
  -7.73202165e-01  2.36503617e-01 -7.20635237e-01  4.61954384e-01
   7.32940011e-01 -2.25816750e-02 -7.42010833e-01  8.38774903e-01
   5.18703820e-01  8.78236498e-01]
 [-2.72625788e-01 -2.00311403e-01 -7.80895184e-02  8.31707886e-01
   8.14907614e-01 -9.83805673e-01  8.46793826e-01 -1.50295984e-01
  -5.32431433e-01  3.44381613e-01  8.71094164e-01  7.16483805e-01
  -4.19593047e-01  4.00440325e-01 -7.55261601e-01  1.48412727e-01
   1.66312313e-01  6.51183451e-01  1.13625727e-01  3.72758428e-01
   4.34169649e-01  3.49577145e-01  1.42864179e-01  2.66958200e-01
  -5.66476984e-01  8.08703551e-01  1.09072832e+00 -2.59993720e-01
   5.54423703e-01 -1.05829313e+00]
 [-5.83713572e-01  9.20526379e-01  3.72693297e-01  1.32320022e-01
  -1.64883756e-01  8.59969595e-02  7.53318158e-01 -4.96042258e-01
   7.82879783e-01 -2.77999881e-01  1.27534711e-01 -3.27903506e-01
  -7.52540621e-01  1.61559966e-01 -1.43688556e-02 -3.72401769e-01
   6.76995471e-01  6.80402063e-01 -5.12470377e-01 -2.22384762e-01
   8.88917805e-01  4.28565157e-01 -1.04597415e+00  3.62597037e-01
   3.56548157e-01 -1.01596427e-01  8.07776411e-01  1.29554917e-01
   7.63748554e-01 -1.04530052e+00]
 [-5.97523174e-01  6.50355033e-01  7.18381571e-01  4.29032995e-01
   2.97597994e-01  8.33261022e-01 -5.97494347e-01 -7.03046770e-01
   6.61240975e-01 -4.68570119e-01 -8.36180119e-01 -7.18759400e-01
   8.96025929e-01  3.89310334e-01  7.88337150e-01  4.65848828e-01
  -2.30476123e-02 -4.34387801e-02  7.40549507e-01 -5.52383927e-01
   8.12401456e-01  9.83672340e-01 -9.12380729e-01  8.08369976e-01
   8.90607054e-01  2.52851728e-01 -2.22730355e-01 -3.62202612e-01
  -8.88777601e-01  3.43564325e-01]
 [-7.07962989e-01  9.00765019e-01 -9.09786766e-01  3.30953268e-01
   1.61815654e-01  5.68181799e-01 -5.58125354e-01  3.00982407e-01
  -7.08256456e-01 -6.11230419e-01 -3.05046327e-01  5.44664477e-01
  -2.54509698e-01 -1.12090154e-01 -5.63683261e-01  7.79648166e-02
   5.03862226e-01  5.99975680e-01  8.46519151e-01  2.08041983e-02
   8.47048750e-01  3.40662997e-01 -1.59092113e-01  9.59692161e-01
  -2.73529305e-01 -3.84806378e-01  9.30649555e-01  7.34419889e-01
   1.62115819e-01 -7.16687223e-01]
 [ 5.87701170e-02 -5.51024403e-01  8.64908365e-01  2.15408278e-01
  -6.29887013e-01 -3.59938339e-01  3.46854446e-01 -4.13443195e-01
  -4.81948431e-02  1.67682035e-01  1.48276556e-01  8.49564010e-01
   9.96684320e-01  6.61889183e-01  1.01152690e+00  4.12056889e-01
   8.31203266e-01  7.99568928e-01 -7.86425162e-01 -7.20608692e-01
  -8.12073846e-01 -1.00326181e+00  9.61654475e-02 -8.69222878e-01
  -2.39658137e-01 -6.05101992e-01  8.45984502e-01 -7.68595804e-02
  -3.12982229e-01 -6.80708099e-01]
 [ 4.30671982e-01  8.66803492e-01  3.32963552e-01  9.31347483e-01
  -3.08446051e-01 -4.12703623e-01 -6.06701143e-01 -4.94384871e-01
   5.86217283e-01  7.07440361e-01 -6.01117286e-01  9.96290297e-01
  -9.15256267e-01 -5.56065088e-01 -1.27732491e-01 -1.91082069e-01
   4.97617134e-01 -9.09095095e-01  6.47363464e-01 -1.65931341e-01
  -1.07075144e-01  9.59351081e-01  4.33232466e-01 -9.67863561e-02
  -7.83971671e-01 -8.99133944e-01 -5.27990770e-01 -7.58441779e-01
   1.02432858e+00  5.57023891e-01]
 [ 8.15263146e-01  4.91444869e-01  5.82641836e-01 -1.16931978e-01
  -6.63614427e-01  9.06449952e-01 -3.57147117e-01 -1.83195668e-01
   2.45071874e-01 -6.98691647e-01  4.24029348e-01  4.64850252e-02
  -3.66143129e-01 -9.71840721e-01 -4.37533314e-01 -3.52017269e-01
  -3.21200213e-02  2.59170502e-01  1.03250241e+00  3.40442973e-01
  -1.98548341e-01 -1.84304304e-01  8.67692808e-01  5.64067806e-02
   5.89241585e-01  5.80379012e-01 -9.96159365e-02 -9.57335735e-01
   9.97644852e-01  5.90347753e-01]
 [ 2.27105738e-02 -3.68727535e-02 -9.49929809e-01 -4.36539784e-01
  -3.87257550e-02  9.41465122e-01 -8.13475587e-01  1.75035819e-01
   6.51015346e-01  8.39261713e-01 -8.00664580e-01  6.97586546e-01
  -6.12500755e-01  4.16451744e-01  8.41900734e-01  2.67441165e-02
  -7.73565542e-01 -2.36972286e-01  8.13536360e-01  1.12202310e-01
  -6.72979310e-01 -3.33766054e-01  9.88232462e-01  5.04748017e-02
   9.68782377e-01 -3.21344495e-01 -7.54315815e-01  7.20305045e-01
   5.15286332e-01 -2.54456363e-01]]
[[ 8.89517426e-01  9.23423774e-01  3.11465392e-01 -5.46557841e-01
   7.06716958e-01  9.65790260e-02  6.77253115e-01  5.24341890e-01
   8.73340852e-01 -7.64672803e-01 -5.58406897e-01 -8.69836005e-01
   9.91755192e-01  5.15594171e-01 -7.28542102e-01 -9.40947220e-01
   8.91043938e-01 -1.93134884e-01  1.77688073e-02 -9.44981460e-01
  -6.60124116e-01]
 [ 2.13409368e-01  3.49257349e-01 -5.17823467e-01 -3.75173285e-01
  -4.44640281e-01  4.23875167e-01 -3.84330992e-01 -7.97423045e-01
   2.16829356e-01  7.44706547e-01 -1.93002040e-01 -3.68797283e-01
  -3.60344627e-01  5.56522810e-01  7.17813595e-01  9.26011913e-01
   2.41214139e-01 -1.28486159e-01 -2.66570478e-01 -4.85209813e-02
  -9.69709713e-01]
 [ 1.29649087e-01  8.06747702e-01 -1.01975262e+00 -5.45282180e-01
  -7.44675378e-01 -9.54570898e-01 -5.61310499e-01 -8.88263722e-01
  -3.64485185e-01  1.75041003e-01 -6.90864975e-01 -1.65719087e-01
  -3.38286895e-02 -3.13517707e-01 -7.18693265e-01 -6.32512010e-01
   1.96556709e-01 -2.16426834e-01  4.63772367e-01  9.83049352e-02
   4.20094543e-01]
 [-7.72102272e-01 -1.06915971e+00  4.69679583e-01  1.26372424e-01
  -1.49580634e-01 -3.63313917e-01 -1.16055544e+00 -5.52141460e-01
   4.82595690e-01 -7.73028688e-01  4.13049785e-01 -5.99825559e-01
   6.99055507e-01  6.70233523e-01  7.13036805e-01 -2.57603484e-01
  -6.07238740e-01 -9.21642720e-01  4.56070117e-01  6.53472979e-01
   5.88336363e-01]
 [ 2.27605043e-01  3.44181651e-01  1.10584026e+00 -2.76709212e-01
  -2.29963355e-01 -1.96252945e-01 -6.32391068e-01 -2.90739812e-01
   6.02347002e-01 -3.66860160e-01  9.25932021e-01 -4.87978684e-01
  -6.66267828e-01 -5.00630914e-01 -1.74245950e-01 -3.79309657e-02
   1.01051679e+00  1.08294890e+00 -1.49281675e-01  4.99562827e-02
  -3.32369876e-01]
 [ 6.30302528e-01 -6.73953790e-01  1.17380561e-01 -2.81675248e-01
  -1.53274427e-01 -3.44420935e-01  1.53645247e-01  9.65418624e-01
  -8.49188429e-01 -7.42276013e-01 -9.28044007e-03  1.42747289e-01
   2.71523823e-01  2.01894116e-01  1.88863457e-01 -6.25605510e-01
   2.41896485e-01 -1.35425794e-01 -5.83677616e-01 -3.88652576e-01
   7.34660509e-01]
 [-1.30343671e-01  5.14323142e-02 -6.52696735e-01  2.14591593e-01
  -3.04747652e-02 -6.06253758e-01  2.37954946e-03  2.33291550e-01
   5.71903133e-01 -1.48938956e-01  8.11511458e-01 -2.13595705e-01
   3.41073048e-01  6.71818589e-01  8.05854808e-01  4.39689743e-01
   5.18867391e-01 -9.36815711e-01 -3.65808712e-01 -1.70169766e-01
   6.40747769e-01]
 [-4.45320829e-01 -9.63353363e-01  1.07230820e+00 -3.33187011e-01
  -9.67592563e-01 -4.26862017e-01  7.24873576e-01  9.87843039e-01
  -5.96801725e-01  5.14693906e-01 -8.45807059e-01 -4.54498028e-02
   2.20118304e-01  3.65450094e-01 -5.05186318e-01  6.82695715e-01
  -7.36010484e-01 -4.00815430e-01 -8.57757713e-01  7.20361714e-01
  -8.66461529e-01]
 [-8.87815647e-01  6.83795802e-01 -9.98440555e-02 -6.45247757e-01
   8.67628064e-01  5.23357568e-01 -4.77284519e-01  5.80143085e-02
  -1.31052927e-01  8.53179482e-01 -2.52249521e-01  1.74098439e-02
  -9.25787713e-01  4.15190647e-02 -6.64235071e-01  1.91159827e-01
   3.69924121e-01 -4.76814133e-01 -1.05679679e+00  3.67138705e-01
  -1.06531764e+00]
 [-2.08237517e-01 -2.45066605e-01  4.88828750e-01 -7.31223795e-01
  -5.85871491e-01 -2.52609404e-02  7.72774814e-01  6.50302744e-01
   7.34483823e-01  2.74269897e-01  6.06109846e-03 -1.04603174e+00
  -5.10411178e-01  6.68007496e-01  6.23446254e-01  6.63896343e-01
   2.95018375e-01  8.71501631e-01  2.93747761e-01  6.13606143e-01
   5.85576460e-01]
 [-3.80535165e-01 -6.17579718e-01 -6.14307800e-01 -8.80983494e-01
   2.31872153e-01  2.00040069e-01  4.36119493e-01  8.37163705e-01
  -6.83131269e-02 -4.76514333e-01  7.85775166e-01  3.92771754e-01
  -8.59993908e-01  1.26435746e-01  3.79903501e-01 -2.30474652e-01
  -9.17845321e-01  4.07874737e-02  3.62480942e-01 -7.37236501e-01
   1.57597081e-02]
 [-8.66471668e-01 -1.83602014e-01  5.90323668e-01  1.93634979e-01
   8.15701524e-01 -7.50523652e-01 -1.05628934e+00  3.13722742e-01
   5.01687951e-01 -1.67448939e-01  6.70977820e-02 -5.03486017e-01
  -3.25483735e-01  7.84410679e-01 -1.05012778e+00  3.21537961e-01
  -6.17564439e-01  8.04014049e-01 -7.55336754e-01  6.01689517e-01
  -1.08021806e+00]
 [-8.01757606e-01  6.58340608e-01 -8.15248424e-01  3.73493185e-01
   2.87943107e-01  4.96630752e-01 -1.00956541e+00 -9.81093907e-01
   3.98913402e-01  7.57795109e-01 -3.57510320e-01  1.05451632e+00
  -4.62813115e-01 -1.56662848e-01 -3.71190749e-01  8.53109626e-01
  -8.02571894e-01  9.04426111e-01  6.22002639e-01  1.16277052e-01
   4.87190635e-01]
 [ 1.54992788e-01  5.67207093e-01 -3.34167078e-01  7.27981300e-01
   7.17117387e-01  2.96598941e-01  8.60070185e-01  1.51187536e-01
  -5.38295387e-01 -7.96152082e-01  4.69475581e-01 -4.17500852e-01
  -1.07870484e-02  4.83786001e-01  5.23315585e-01  6.25466336e-01
  -5.27584461e-01 -5.04719104e-01  2.46723158e-01  3.81091581e-02
   5.26026972e-01]
 [ 6.36584969e-01  7.65018776e-01  1.06485899e+00  8.54850507e-01
  -3.98036311e-01 -1.38776403e-01  7.52590840e-01 -2.66445463e-01
   7.98117128e-01 -3.46151624e-01 -1.03859258e+00  7.71712192e-01
  -8.66133873e-01 -7.12188530e-01 -5.77927921e-02  9.51573409e-01
  -2.70357449e-02 -4.23627676e-01  6.66256026e-02  3.12103175e-01
   8.23220681e-01]
 [ 8.77866449e-01 -1.18134217e-01  7.97119874e-01  4.07826784e-01
   7.32855883e-01 -8.72956449e-01 -1.51610655e-01 -1.15742142e-01
   7.41442519e-01  4.24668276e-01  2.36536408e-01 -2.74606960e-01
  -4.75198430e-02  8.74751464e-01 -1.78226866e-01 -9.64863440e-01
   8.70192107e-01  8.64392051e-01  3.88243197e-01  1.95214981e-01
   2.99921683e-01]
 [-8.32157381e-01 -4.87419449e-01  9.16752134e-01  5.09933120e-01
  -6.92947578e-01  1.38839164e-01 -3.90281823e-02 -8.06200630e-02
  -7.83942651e-01 -2.35645056e-01  1.05191285e+00  1.05739924e-01
  -6.67439473e-01  7.46463622e-01  8.39166422e-01  8.71501064e-01
  -7.06193888e-01  3.07826640e-01  6.40779566e-01  4.36082949e-02
   8.66666243e-02]
 [-7.16451037e-01  1.22175724e-01  4.29572052e-01  6.72099433e-01
  -6.82557277e-02 -4.59181433e-02 -1.08426931e-01 -4.06075697e-01
   2.97006507e-02 -6.93337728e-01  1.97605317e-01  9.47485844e-03
  -1.36288966e-01 -2.98092026e-01  8.29231339e-01  9.09668912e-01
   5.55826481e-01  2.37044274e-02 -9.26819273e-01  8.49163106e-02
   6.16048133e-01]
 [ 6.03225580e-01  6.47059757e-01 -7.25157833e-01  1.67304752e-01
   1.30957095e-01 -1.02803480e+00  5.90685808e-01 -4.03482206e-01
   1.13835919e-01 -3.43949597e-01 -7.09075384e-02  7.27645248e-01
   9.65426535e-01 -1.00193661e+00 -9.82382580e-01  6.84905138e-01
   2.42671500e-01 -1.86831170e-01  6.24350663e-02 -1.67022433e-01
   1.74986039e-01]
 [-1.04595650e+00  4.09889785e-01  1.05642966e+00  3.94838333e-01
  -2.98201008e-01  4.72290800e-01  9.93412324e-01 -7.25934093e-01
   9.08299426e-01 -6.61148915e-01 -1.18381172e+00 -7.02842020e-01
  -7.20735253e-01 -7.21909252e-01  5.71957137e-04  6.16362637e-01
   1.32423443e-01 -8.64654772e-01  3.13312436e-01  5.39581155e-01
  -9.17725482e-01]
 [-8.02918202e-01 -9.61479875e-01  8.34116293e-01  7.96819208e-01
   2.82204296e-01  9.67086892e-02  3.04980123e-02 -5.75838551e-01
  -3.46615301e-01  1.58740666e-01 -3.94005774e-01  6.09068988e-01
  -1.91303688e-01  4.27392720e-01 -5.95489154e-01  6.61976377e-01
   1.85451174e-01 -2.04760799e-02  1.15081063e-01  6.61548058e-01
  -7.03666186e-01]
 [ 1.48510262e-01  3.09892932e-01 -8.84170854e-01 -8.75827003e-01
   5.34437036e-01  9.39730304e-01  3.76170427e-01 -8.44669337e-01
   2.71964427e-01 -5.61325875e-01  9.27137816e-01  6.81112585e-01
  -4.73339233e-01 -7.03191870e-01  9.53515826e-01  7.07501905e-01
   6.04544266e-01 -4.55051529e-01 -2.55297277e-01 -7.40183599e-01
   1.94559892e-01]
 [ 7.93176642e-01 -4.06974291e-03  4.45076785e-01 -7.70647130e-02
   6.22823220e-01  3.92969449e-01  7.17387932e-01  1.11350267e+00
   1.01029679e+00  5.72241588e-01 -1.19856628e+00  2.80165793e-01
   7.33973150e-01  4.95730311e-02  8.71362500e-01  1.93604326e-01
   7.83396452e-01 -1.08151958e+00  7.07754672e-01 -4.04628062e-01
   8.14205389e-01]
 [-6.10227116e-01  9.46999806e-01 -1.30007696e-02  7.87005371e-01
  -1.10086023e+00  7.01226994e-01  7.00044461e-01  6.95734217e-01
  -3.00973554e-01  3.35072224e-02  6.77751056e-01  1.07021717e+00
  -6.14446311e-01  9.64269469e-01  8.16586320e-02 -3.12611179e-01
  -9.34289630e-01  8.07645094e-01  8.06128395e-01  3.38512629e-01
  -1.06480189e+00]
 [ 8.75955387e-01 -3.84429221e-01  6.70198250e-01  3.21754166e-01
  -1.21625409e-01  1.81645684e-01 -5.52604502e-01  8.49299074e-02
   7.98415359e-01 -4.65222895e-01  2.64495411e-01 -4.53627809e-01
  -8.68539140e-01  2.76155866e-01 -6.83755924e-01  8.37330974e-01
   4.90857633e-01  4.31866102e-01  2.55735710e-02  9.56552763e-01
   7.20138344e-03]
 [ 1.84128054e-02  1.66557973e-02 -6.11153513e-01  5.38147609e-01
   6.96674269e-01 -5.37290162e-01 -2.07228382e-01  4.33393846e-02
  -7.74782685e-01 -1.91636875e-01 -9.87850174e-02  1.15522501e+00
  -8.58224298e-01  8.29952688e-01 -7.15099692e-01 -8.76985176e-02
   9.52989657e-03  6.30058261e-01 -1.33773040e-01 -6.71793963e-01
  -6.55988361e-01]
 [-2.47133540e-01 -7.81285629e-01  5.81051275e-01  2.51932009e-01
  -5.82684953e-01 -6.90619547e-02  9.13749890e-01 -9.21642318e-01
   7.42469326e-01  8.64804132e-01  5.95550650e-01 -1.79501675e-01
  -2.61441492e-01  6.06079472e-01 -7.22600252e-01  4.44923408e-01
   5.55166010e-01 -3.87028097e-01  5.30938761e-01 -6.31023291e-01
   8.69337267e-02]
 [-3.00243174e-01  8.56513573e-01 -4.66255437e-01 -1.04770776e+00
  -3.85489457e-01  7.92196750e-01  9.16836044e-01  3.94173013e-01
  -4.83865300e-02  6.52592735e-01 -5.50264590e-01 -6.29214614e-01
   5.39370292e-01 -2.12478325e-01  5.83045629e-01  7.89731170e-01
  -6.47693974e-01  6.79480778e-02  3.24581155e-01  1.98134857e-01
   8.64909749e-01]
 [ 9.20913424e-01  3.68953803e-01  6.67405374e-01  5.18131067e-01
  -7.10916484e-01 -1.25691920e+00  5.95467309e-01 -4.83170512e-01
   1.93252418e-01  9.46875321e-01 -7.28611391e-01  4.90577369e-01
  -7.56266990e-01 -1.25212564e+00  7.05673186e-01 -8.06319142e-01
  -9.43426954e-01 -7.98169541e-01  7.20680589e-01  1.01803072e+00
   9.55598695e-01]
 [ 6.75559113e-01  5.82144569e-01  7.73261610e-01 -1.21119576e-01
   1.59319246e-01  6.17361081e-01  4.56134762e-01 -8.85561908e-01
  -1.56976608e-01 -5.24298947e-01 -9.06130301e-01 -5.51989795e-01
   1.97328132e-02 -9.09788744e-02 -1.28613331e-01  5.35570907e-01
   4.33701692e-01  3.27526622e-01 -1.07309781e+00 -5.70872370e-01
  -8.72672410e-01]
 [ 1.33838859e-01  9.25924373e-01 -6.75393666e-01  3.54207042e-01
   7.41117180e-01  4.89505540e-01  4.67608843e-01 -5.73731483e-01
   1.11110623e-01  4.54010060e-02  1.55041128e-01 -7.37997532e-01
  -7.97913722e-01 -1.85946325e-01 -3.72570535e-01 -5.52824015e-02
   1.03967459e+00  6.75102194e-01  4.90905575e-01 -3.49963958e-01
   4.87360691e-01]]
[[ 0.25145193 -0.6549928  -0.8235596   0.17384116  0.81864197 -0.44141174
   0.95542772  0.69272886  0.25154693  0.63899969 -0.78783004  0.20144363
   0.81867155 -0.36942585  0.79979779 -0.48375091  0.31989807 -0.45747072
  -0.61813879 -0.53047736]
 [-0.00395593 -0.31957019  0.63034574 -0.29412512 -0.48718823 -0.97731014
   0.12254106  1.0257186   0.31356676 -1.04779818  0.65136818  0.70132745
  -0.40501392 -0.54659564 -0.52188468 -0.36019941 -0.01938928  0.70851283
   0.29164706 -0.70236244]
 [ 0.30227882  0.39040074 -0.10861741 -0.49314109  0.85555328 -0.95482663
  -0.75357729 -0.24721542 -0.7146425  -0.16895467  0.67568681 -0.9896806
  -0.38216956 -0.69551139 -0.92740005 -0.29727369  0.73857952  0.44034497
   0.15624287  0.3479222 ]
 [-0.90789958  0.52689582 -0.21697941 -0.69550935  0.98668152  0.47767913
  -0.40867828 -0.3376064   1.16357445  0.90119802 -0.16483581 -0.40702536
  -0.8958131   0.26081646 -0.62891186 -0.23078753 -1.09790885 -0.92577489
  -0.77717245  0.11848083]
 [ 0.10716886  0.48038688 -0.16687236  0.29710627  0.48430423 -0.35363474
   0.85036522  0.55363275  0.00579096 -0.26606835 -0.15603564 -0.55181497
   0.49569935  0.07760638  0.81850802 -0.98455967 -0.41946569 -0.62290834
  -0.75756299  0.09565682]
 [-0.80313509  0.1852291  -0.08795211 -0.41496091 -0.49255316  0.38539209
   0.9350652   0.45171958  0.77203098  0.33628914  0.92262807  0.61795701
  -0.49526002  0.76133888  0.42228477  0.89833123 -0.84433378  0.4387006
  -0.2368763   0.63431827]
 [-0.502505    0.37935897  0.44682295  0.53111537 -1.18549714  0.46569859
  -0.84590128 -0.73432591  0.00622693  0.70287692  0.75079384 -0.33641095
  -0.84270414 -0.87635236  0.2685928   0.67580813  1.02021251 -0.64264691
   0.23001407  0.44037075]
 [ 0.17794926 -0.24219584  0.19948648 -0.12106012  0.67080188 -0.08970746
   0.58478767  0.59793124  0.17268414  1.0799945   0.67935419  0.06642212
   0.10515943 -0.51106147  0.65306335 -0.82164357 -1.00736899 -1.02796529
   0.41527137  0.45593857]
 [-0.40961885  0.16013137  0.08413282 -0.84249802 -0.82454348 -0.26165573
  -0.91345889  0.39379025  0.84458342  0.28260543 -0.89511709  0.33809751
   0.15823224  0.46233053  0.21167236 -0.90678908 -0.56149123  0.5487259
   0.26085921 -0.8436869 ]
 [-0.5614508  -0.0693127   0.49068265  0.67183527 -0.83002687 -0.426015
   0.59585884  0.60619839 -0.65305402 -0.47089267 -0.74132761 -0.28357997
  -0.55049108 -0.1837596  -0.58517762  0.30478766  0.11618359 -0.01590307
   0.2193245  -0.5369314 ]
 [ 0.89954538 -1.01352185 -0.36037406  0.0280431   0.70309932 -0.78203343
  -0.4393004   0.5401833  -0.76141754  0.82747054 -0.39218229  0.10208165
  -0.45527074 -0.6232157  -0.22491943 -0.83913995  0.7710296   0.87689346
   0.03091128 -0.04000688]
 [ 0.45518298 -1.0235212  -1.215351    0.07623108  0.13975687 -0.73356803
  -0.38173203 -1.05319128  0.65807578  0.17649298  0.49110857  0.25483822
  -0.34869929 -0.61280436  0.20859481  0.84650048  0.99656452 -0.06322605
  -0.83173733  0.87155266]
 [-0.48657474  0.78602122  0.58031077  0.80794511 -1.13662553 -0.06341045
   0.80232671  0.69314324  0.06183331  0.78073905  0.8658502   0.19429953
  -0.50806053 -0.78487837  0.92648004 -0.42035326 -0.2067521   0.89460592
  -0.2609336  -0.63638419]
 [-0.59582731 -0.3079423   0.39015582 -0.4951608  -0.43681668 -0.40660003
  -0.10124364  0.36161757 -0.5188757  -0.74009683  0.41163296  0.88546246
  -0.52033079  0.50016136  0.37235671  0.31445628  0.60250547  0.22468829
   0.70740756  0.10398649]
 [-0.29821042  0.8434412   0.36922484  0.67352152 -0.79148769 -0.1881865
  -0.09850307 -0.75364965 -0.70551888 -0.7600549  -0.44565866 -0.50838017
   0.4735905  -0.15028074 -0.36927624  1.14375209 -0.80292785  0.64654746
   0.40228684 -0.9991162 ]
 [ 0.11784534 -1.02352134 -0.015291   -0.87794612 -1.24355542  0.61549362
  -0.18600794 -0.06981738  1.13291826 -0.71217503  0.15982212  0.72457119
  -0.89654154  0.69609523 -0.10777311 -0.46393363  0.57466263  0.8274634
  -0.66455791 -1.03048627]
 [-0.02645927 -0.47321346  0.84894475 -0.40076606  0.6423474  -0.88705533
  -0.58168664  0.07855568 -0.82067785 -0.20068622 -0.96455384  0.66539486
   0.49842049 -0.92359313 -0.6894652   0.91833263 -0.42179818 -0.97794116
  -0.06942732  0.24999335]
 [-0.26795552  0.61555671  0.02331998 -0.63728445 -0.17263886 -0.59130499
  -0.39047838 -1.13731104 -0.45248561 -0.31447994  0.66406273  0.64982986
   0.97176975 -0.43512313  0.94240463  0.93832847 -0.59469321 -0.69057137
  -0.11305176  0.10041861]
 [-0.56590214  0.4224925  -0.86228511  0.3517059   0.64135346  0.44184154
   0.1482593  -0.19570584  1.01620936  0.05458224  0.62859329 -0.49040085
   0.24543404  0.82166799  0.86638784  0.79349603  1.13164107 -0.27052393
   0.07878797  0.62870638]
 [-0.87970279  0.71777925 -0.99843437  0.77902536  0.57608354 -0.02723432
   0.54859317  0.40752895 -0.81450658 -0.15493889  0.67240098 -0.24406808
  -0.40038018 -0.70806067  0.82612213 -0.55700453 -0.12523797 -0.8367382
   0.68072216  0.49569651]
 [ 0.99225273 -0.1613454   0.43063289 -0.52821485  0.95844647  0.23862931
  -0.69049739  0.18359356 -0.31994958  0.3757158   0.43864441  0.24680123
   0.63791986 -0.86684477  0.12585258  0.61753641  0.84842502  0.4378305
   0.93767999 -0.01030636]
 [ 0.24317037  0.49968512 -0.63640706  0.51545243 -1.01824834  0.19945577
   0.07925319 -0.05810739  1.06118099  0.76594459 -0.57027529  0.96113745
  -0.55136362 -0.42878006  0.36088757 -0.74953672 -0.55035668 -0.18884785
  -1.05949821  0.41835634]]
[[ 1.22229934e+00 -3.99888502e-01  1.59765307e-01  2.12794137e-01
   5.02377681e-01  5.61818916e-01 -8.05468418e-01  5.13489657e-02
   2.32978529e-01 -4.10781882e-02]
 [ 3.60808609e-01 -3.21731022e-01  1.27827570e-01 -1.55908186e-01
   2.84968038e-01  4.14724777e-01 -8.91151071e-01 -7.91024843e-01
  -7.63121159e-01 -5.73305836e-01]
 [ 1.32852145e-01  1.94534395e-01  1.00809462e+00  5.07115230e-01
  -3.14169795e-01  1.04384970e-01  5.61356332e-01  9.00879983e-01
   1.21872137e+00  1.17609051e+00]
 [-2.73934989e-01 -5.61205226e-01 -5.32832961e-01  7.20441344e-01
  -5.61585458e-01  7.20029663e-01 -2.62112977e-01  4.63820833e-01
   4.53849038e-01  1.05744783e+00]
 [-4.75205445e-01 -3.09326067e-01 -3.89965260e-01 -5.45431138e-01
   2.66956280e-02  4.92769662e-01  7.71210686e-01  7.48117309e-01
  -6.64224338e-02 -8.07036669e-01]
 [-9.91291381e-02  2.39156106e-01  6.61921213e-01  1.27830903e+00
  -4.63293665e-01 -4.21430556e-01  9.70433638e-01 -1.11403435e+00
  -6.87403418e-01 -1.85241941e-01]
 [ 5.53735448e-01 -4.02498695e-01  7.48507104e-01 -8.69940950e-03
  -5.75721953e-01  6.36459174e-01  5.21044086e-01 -1.47464191e-01
   1.60225743e-01  4.64635473e-01]
 [-4.43071006e-01  7.65421130e-01 -7.76631379e-02 -1.21706978e+00
  -3.40030694e-01  5.22866949e-02  5.76612665e-01  2.22434504e-02
   1.03857080e-01  8.24180556e-01]
 [ 4.40320358e-01  1.12022905e+00  1.03480171e+00 -5.41510756e-01
  -9.81249121e-02  6.82507524e-01  8.29533763e-01 -9.08864211e-01
  -1.21572846e+00  1.45190571e+00]
 [ 1.73859754e-01 -4.06238421e-01  1.98147907e-01  2.95461099e-01
   8.98221749e-01 -5.72560301e-01  6.05848060e-01 -3.14989814e-01
   1.07731395e+00 -1.66620186e-01]
 [-6.45106360e-01 -9.83525983e-01  5.84881993e-01  1.64444255e-01
   5.12681485e-01  4.11094409e-01  3.55745538e-01  4.35693840e-01
  -5.01666072e-01  4.04837851e-02]
 [-5.76379490e-01  4.38045731e-01  3.81912693e-01 -4.73427887e-01
  -1.33909356e-01 -6.98510220e-01 -5.56845579e-01  3.21757739e-02
  -5.95273636e-01 -6.76407179e-01]
 [ 8.54601792e-01 -8.39835404e-02  6.10869236e-01 -4.47305986e-01
   8.63118409e-01 -1.43868288e-01  5.33195402e-01 -1.07678130e+00
  -5.09292126e-01 -5.74076343e-01]
 [-7.42286653e-01 -1.97427428e-01 -6.55047070e-01 -6.39273581e-01
  -2.05954983e-01 -8.23257752e-01 -9.46281961e-01  5.39805650e-01
  -4.40979053e-01 -5.65815945e-01]
 [ 2.50919706e-01 -6.53062627e-01  3.60933362e-02 -1.94311054e-01
   4.50202002e-01 -7.05587928e-01 -1.71446484e-01  8.14332157e-01
   2.69315495e-03 -1.83759000e-01]
 [-7.30879212e-01  2.77215455e-01 -2.34196303e-01 -7.53509519e-01
  -2.88185655e-01 -9.40041686e-01  2.36991581e-01  7.11754463e-01
   5.98766864e-02  2.42870227e-01]
 [ 7.22341241e-01  5.36635178e-01 -5.46142006e-01  5.48628792e-01
  -1.14298704e+00  5.65635492e-01 -6.87174649e-01  3.50022101e-01
   5.15874177e-01 -5.58737865e-01]
 [-8.43786722e-01 -6.03414605e-01 -2.34216743e-01 -1.31492016e+00
   6.03062433e-01 -2.72478606e-02  5.51227389e-01 -3.94394496e-01
  -8.23441969e-01 -1.31044303e+00]
 [ 1.10960886e+00  8.67522476e-01  5.07170515e-01  1.34886065e-01
  -2.54464086e-01  9.58086133e-01 -4.36894544e-01 -5.72946232e-01
   5.26048624e-02 -7.04514912e-01]
 [ 6.35775015e-02 -8.93983848e-01  3.19921372e-01  3.67046126e-01
   5.82262089e-01  1.04340101e+00 -9.80753450e-01  3.71902726e-01
  -1.20624219e-01 -8.57849361e-01]
 [-9.98307747e-01  1.56759398e-02  1.54588651e-01  7.49853908e-01
   4.55827273e-01 -7.61971228e-01  6.82656367e-01 -2.14222120e-01
   1.50405493e-04 -5.72679760e-01]]
[[ 0.59324589 -0.22008952  0.65615848 -0.71531969  0.54822184  1.1556297
   0.85912675]
 [ 0.79761277 -1.02390469  0.18507727 -1.22174111 -0.87845813 -0.4111403
  -0.32730673]
 [ 0.2680025   0.15101846  1.06823326 -0.29611228  0.27594984 -0.40948895
   1.23224018]
 [-0.72888233 -0.35619842 -0.02168166  0.18771753  0.51624029  0.07953062
   0.45151208]
 [ 1.44813004  0.59394071 -1.0676921   0.16454027  1.67641606 -0.29803
  -0.49775137]
 [ 0.29519664  1.11669081 -1.20675224 -0.264251   -0.55663717  0.93171097
   0.70057567]
 [ 0.93047876 -0.60382291  0.54472516  1.41451728 -0.74028029 -0.40795787
   0.88542319]
 [-0.90611627  0.01639686 -0.39872531 -0.85285399  0.00721911  0.06538237
  -0.24846054]
 [-0.90204133 -0.00423306  0.07177349  1.04296882  0.01788622  0.17428905
  -1.25491529]
 [ 0.21730408 -0.77174166  1.0051357   0.02984862 -0.18323465  1.49854445
  -0.76508238]
 [ 0.25307435  1.68250855  0.4613228  -0.44311689 -0.32244926 -0.93620636
  -1.23221524]]
