[[ 7.01651533e-01 -8.37730714e-01  8.92464061e-01  1.39259238e-01
   5.74510038e-03  5.88858793e-01  8.61204088e-01 -1.55498779e-01
  -9.13244215e-01 -7.90133740e-02 -7.71220882e-01 -7.09088568e-02
   6.08358330e-01 -9.15873770e-01 -9.73627189e-01  8.93964150e-01
   1.05280517e+00 -1.41063309e-01 -7.15239756e-01  7.81252520e-01
   8.12830633e-01 -2.94554173e-01 -4.93359041e-02 -1.57800103e-01
   6.22848435e-01 -8.74552004e-01 -1.67531105e-01  6.50299095e-01
   4.98320541e-01 -8.35606327e-01]
 [-4.82358573e-01  1.13815415e+00 -7.87826086e-01 -8.67893601e-01
  -1.25971534e-01 -7.23770260e-01  8.88679307e-01  4.39731943e-01
   5.33801263e-02 -2.52939139e-01  1.62485668e-01 -9.00145173e-02
   6.72122656e-01 -4.50500459e-01  1.77876153e-01 -5.60137549e-01
  -2.54691185e-01 -2.40889976e-01 -8.01922646e-01 -1.94100596e-01
  -2.08422187e-01 -2.44763026e-01  6.02712558e-01  1.14043976e+00
  -7.76492308e-01 -6.14881086e-01  5.18163266e-01  1.48491838e-01
   7.06969705e-01  3.53958934e-01]
 [-9.52718945e-01 -1.30653681e-01  6.65284804e-01 -8.10743259e-01
  -1.25863996e-01  2.00047507e-01  5.88930669e-01  2.90318606e-01
   5.59619537e-01  3.77172704e-01  4.38938566e-01  5.65175476e-01
   5.02317324e-01  7.13918763e-02  2.29396543e-01 -8.54034264e-02
  -2.33593593e-01  3.27269412e-01 -2.42555483e-01 -6.18135861e-01
   5.46836555e-01  4.05576343e-01 -8.97149392e-01 -2.07468531e-01
   9.11251663e-01 -4.03801059e-01  7.47837834e-01 -6.95675201e-01
   3.74772763e-01 -5.59400004e-01]
 [ 9.35730785e-01  8.29948599e-01  6.81246877e-01 -2.72138044e-02
  -6.90108602e-02 -3.82760459e-01  3.23859105e-02 -7.00987655e-01
   2.13051790e-01 -3.19469763e-01 -3.45953533e-01 -1.08040063e+00
  -4.48698423e-01 -6.68390268e-01  1.43633956e-01  1.39544869e-01
  -8.85086720e-01 -5.18232220e-01 -7.16931152e-01 -3.13463653e-01
  -5.28773162e-01  5.09469067e-01 -4.74077059e-01 -4.36317872e-01
   7.51072192e-02  7.49016761e-01  3.89396943e-01  4.58566504e-02
  -7.25690847e-02 -8.15004503e-01]
 [ 2.60419831e-02  8.88191782e-01  7.37299671e-01  4.55274266e-01
  -4.60658916e-01  8.55424677e-01  2.70016024e-01 -8.46443185e-02
  -1.67544016e-01 -1.76828489e-01 -1.59191936e-01 -3.25121536e-01
  -7.07037110e-01  3.95036341e-01  2.83619454e-01 -5.40002101e-01
  -2.34629348e-01  9.68482176e-01 -3.39777218e-01 -8.05914371e-01
   3.56759688e-02 -3.43554207e-01  3.41276117e-01 -3.55787093e-01
   1.13952951e+00  6.68340385e-02  4.90297931e-02  1.02465618e+00
   9.62977779e-01 -2.89940108e-01]
 [ 9.11807808e-01  8.47647294e-02  1.51688183e-01  6.53585243e-01
  -4.10808850e-01 -6.36749963e-02 -2.13025587e-01  2.85713454e-01
  -9.60010563e-01  3.74958436e-01 -6.27926875e-01  2.05417254e-01
  -3.21423089e-02  7.93974203e-02 -4.86187304e-01 -3.64039822e-01
  -9.39468647e-02  1.00397249e+00 -9.30375453e-01  5.53013353e-01
  -6.23236167e-01 -8.95958358e-01 -5.13810162e-01 -7.46410368e-01
   2.08820908e-01  5.20852666e-01  8.01591691e-02  2.62972481e-01
   1.63370569e-01  2.97915713e-01]
 [ 6.29462782e-01  3.51924494e-01 -6.61943872e-02 -1.24710050e-01
  -7.67243424e-01  5.75950922e-01  4.13095781e-01 -7.69749129e-01
   2.98886526e-01 -6.10440488e-01  9.34298031e-01  1.05053511e+00
  -6.17924539e-01 -3.49383204e-01  2.90677791e-01  4.50705925e-01
  -7.74747120e-01  1.06397425e+00  4.41012389e-01 -1.48659442e-01
  -3.21772287e-02  8.51059869e-01  7.22399732e-01  2.24345440e-01
  -9.04085914e-01  1.78853180e-01  1.11683808e-01  1.91251766e-01
  -8.40714080e-01  3.02021822e-01]
 [ 5.95197011e-01 -9.46187700e-01 -5.30185753e-01 -9.34260940e-01
  -2.75971904e-01 -9.08072764e-02  5.91279025e-01 -7.28061969e-02
   8.65052469e-02  3.86718510e-01  5.34617633e-01  2.11771595e-01
   2.55514234e-01 -4.62190859e-01  6.71196934e-01 -7.23441629e-01
  -9.05481553e-01 -3.95506645e-02  8.91046851e-01 -4.81954843e-01
  -3.71016512e-01 -2.51849830e-01 -9.40080367e-01 -5.63676865e-01
  -5.01459652e-01  7.77377205e-02 -1.84359839e-01 -5.39756343e-01
   3.49885712e-02 -5.37722233e-01]
 [-7.51804363e-01  3.59987038e-02 -3.16854485e-01  7.86756143e-01
   5.16185927e-01 -5.09877880e-01  8.81572939e-01  3.59615143e-01
  -2.21585651e-01 -9.33855489e-01  8.58545065e-01 -9.15800909e-01
   2.61372762e-01  1.44387224e-01  7.73003459e-01 -8.21746157e-01
  -1.26897026e-01  3.95605544e-01  3.09760148e-01 -6.82746554e-01
   3.10675292e-01  4.08969988e-01  4.11035827e-01  7.57719573e-01
   2.56265690e-01 -4.69389651e-01  4.19314220e-02  3.50084148e-01
  -9.58857541e-03 -9.11438446e-01]
 [ 1.96937625e-01  2.12809252e-01  6.89547819e-01 -2.36609024e-02
  -9.13426555e-01  4.67791992e-01  7.87449020e-01  1.15802106e-01
  -2.96229198e-01 -8.67465465e-01 -2.39125435e-01  9.43139080e-01
  -8.92919968e-01 -1.57253040e-01  7.23273518e-03  8.51940870e-01
   7.56033345e-01  3.73507629e-01  3.22986756e-01  8.86848731e-01
  -5.15690390e-02  7.03527333e-03  3.03602844e-01 -4.39478579e-01
   5.51055922e-01 -2.34282043e-01  8.22992205e-01 -2.88167307e-01
  -8.30265016e-01 -1.03273698e+00]
 [ 1.45151783e-01 -1.08032569e-01 -4.88071991e-01 -1.75043350e-01
   2.73882152e-01  9.26311227e-01 -5.87699491e-02 -3.97344296e-01
  -4.68397250e-01 -7.36378367e-01 -7.69877506e-01  5.59606046e-01
  -4.23654225e-01  1.25886044e-02 -1.76685949e-02  2.35237875e-01
  -1.34952442e-01  2.16085082e-01 -2.28770694e-01 -1.35907114e-01
  -2.52947208e-01  8.21194557e-01 -1.02596871e+00  7.63386360e-01
  -2.50908845e-01  4.15993867e-01  7.83014127e-01  2.58548621e-01
  -2.64455905e-01 -2.06131966e-01]
 [ 5.98384575e-01 -1.00550830e+00 -3.09111578e-01  5.78774045e-02
  -9.64848291e-01  1.29393398e-01 -1.21317219e-01 -8.43712322e-01
  -1.07274661e+00  5.58122823e-01  6.10467394e-01 -2.04483807e-01
  -8.44509698e-01 -8.73981086e-01  4.26033913e-01  6.38349605e-01
   3.90777369e-01 -7.45786207e-01  8.81339316e-01  5.78874617e-01
   1.37384534e-01 -8.06290111e-01  5.85435564e-01 -1.00042137e+00
  -2.72211989e-02 -1.00231919e+00  3.69468494e-01  6.95550044e-01
  -4.88982963e-01  9.07022145e-01]
 [-1.01205390e+00  7.25111668e-01  9.05588236e-01 -1.15635358e+00
  -1.09516384e+00 -1.44074159e-01  2.30709295e-01  4.86734422e-01
  -9.30843626e-01 -4.33396078e-01  2.07866683e-01  8.26647366e-01
   8.59935073e-01 -7.23348167e-01  1.91679976e-01  4.23881514e-01
   1.75859291e-01 -6.01641671e-01 -4.12688243e-01 -6.53246578e-01
  -3.87799368e-01 -8.35922636e-01  4.11575617e-04 -1.83666758e-01
  -5.95490048e-01 -3.61917566e-02 -8.40323788e-01  8.13172728e-01
   6.66409602e-02 -3.83037948e-04]
 [ 3.06119014e-01 -2.28038758e-01  9.42361816e-01 -5.40950459e-01
  -9.29841873e-01  4.07982816e-02  5.29498155e-01  1.83158332e-01
  -9.81321206e-01  2.55753685e-01 -8.51782693e-01  2.98667421e-01
   4.03399118e-01  1.75204789e-01  4.51167186e-01 -1.43081220e-02
  -9.00894191e-01 -6.92408791e-02 -1.44093104e-03  3.85701289e-01
  -8.60689740e-01  1.08632632e-01 -7.23593239e-02 -6.78370325e-01
   5.26514406e-01 -5.25888304e-01 -8.24677627e-01 -3.88954402e-01
  -4.51395711e-02 -7.71210125e-01]
 [-6.62552054e-01  3.14409031e-01 -2.89173973e-01  3.27487564e-01
   1.54972936e-01  4.28006834e-01 -5.76767867e-02  6.62874924e-01
   3.58518830e-01  7.17108627e-01 -9.98089887e-01 -9.37045596e-01
  -9.10845148e-01 -4.22442722e-01 -9.00142462e-01  1.05380499e+00
   3.85646663e-01  4.00517201e-01 -2.78346860e-01 -4.96496538e-02
   5.01924250e-01 -4.57041213e-01 -8.01425490e-01 -7.91231303e-01
  -9.72810817e-01  6.57448880e-01  2.57036498e-01  1.00823362e+00
   5.70357795e-01  6.43977001e-01]
 [-7.08174879e-01  4.67563865e-01 -3.76878597e-01 -1.40479555e-01
  -8.01490342e-01  5.53798996e-01  5.82951643e-01 -5.09139231e-01
  -2.49616252e-01  8.30796543e-01  7.16742048e-02 -5.56769580e-01
  -5.84040732e-02  3.43888451e-01  8.41224029e-02  3.01975293e-01
  -9.75616922e-01  6.67682086e-01 -5.09878589e-01  5.46904069e-01
  -2.98075804e-01 -4.04595060e-01 -8.23577653e-01  1.85104034e-01
   6.82618667e-01 -6.01847200e-02 -7.15182341e-01 -6.83353551e-01
  -6.86522631e-01  9.33646098e-01]
 [ 9.04500667e-01 -6.12647202e-01 -8.76176976e-01 -1.17949536e-01
  -5.24120634e-01 -9.09345408e-01 -4.45748961e-01 -1.42045693e-01
   2.20418614e-01  3.74850051e-01  8.70093400e-01 -6.75333206e-01
   5.15234412e-01 -8.94964953e-01  5.27888553e-01  2.85892463e-01
  -5.37378246e-01 -6.49312174e-01  6.56579018e-01 -2.61889183e-01
   1.29503068e-01 -6.10216835e-01  1.00254156e+00  1.47464732e-01
   2.38877829e-01 -4.23979624e-01  5.97213537e-01 -6.68043022e-02
  -3.45490887e-01  2.08608334e-01]
 [ 8.34594040e-01 -8.46936126e-01  7.18480709e-01  3.64816148e-01
   4.80859794e-01  5.81353450e-01 -4.16460869e-01 -6.51461360e-01
  -4.57414901e-01  4.46458646e-01 -3.94157948e-01 -5.12573925e-02
  -7.65400388e-01 -2.37930162e-01  8.44240093e-01  5.75603642e-01
   1.76064626e-01  1.04787173e+00 -7.54586664e-01  6.37968053e-01
  -3.97441289e-01  5.04162396e-01 -1.34294553e-01 -6.31639105e-02
   9.95416193e-01 -8.79075314e-01 -3.80252463e-01  9.26562302e-01
  -7.91696911e-01  8.06434586e-02]
 [ 6.78346850e-01 -9.19504768e-01  1.07269313e+00  4.92242667e-02
   1.09940043e-01  4.44667376e-01 -6.94054645e-01  8.16359206e-01
   4.21260560e-01 -8.81409807e-01 -4.36221754e-02  8.04105713e-01
   9.60010341e-01 -1.50128531e-01  1.89105131e-01 -8.14731079e-01
   3.61238395e-02  2.41235809e-01  8.49805159e-01 -5.36050431e-01
  -7.52173912e-01  3.55844941e-01 -2.19482052e-01 -9.22973575e-01
   2.35350882e-01  4.33478988e-01 -9.45133511e-01  5.45973857e-01
   2.80666482e-01  4.55439481e-01]
 [ 5.52186520e-01  5.37300473e-01  3.20798361e-01 -8.68404967e-01
  -1.52891585e-01  7.71188918e-01 -4.83973713e-01  6.17309896e-01
   2.50036860e-02 -2.21927015e-02  9.79103655e-01  7.61422445e-01
   5.98390888e-01 -2.20832873e-01 -3.45600371e-01 -8.36925836e-01
   2.72737732e-01  8.46582721e-01 -5.86689471e-01  6.39027381e-01
  -5.12665806e-01  8.12032445e-01 -2.90420724e-01 -8.89206569e-01
  -5.66816792e-01 -4.96435087e-01  8.76370143e-01 -8.31320901e-01
  -5.79381883e-01 -6.20700067e-01]
 [-2.74518939e-01  4.53817411e-01  1.05844790e+00 -5.81410812e-01
  -1.21212001e-01  1.57320813e-01  5.84807616e-01  4.05436655e-01
  -3.54975006e-01 -1.78403289e-01  8.35364651e-01  7.41213119e-01
   4.18269205e-01 -3.46761165e-01  3.68331382e-02 -5.86635351e-01
   5.92735424e-01 -9.29310876e-01  4.12025010e-01 -9.39947725e-02
  -4.04381392e-01  7.03611173e-01 -1.11903329e+00 -8.82967026e-01
  -6.11697418e-01 -3.76129048e-01  1.23161111e-01 -4.81760910e-01
   8.69108646e-01 -5.55586050e-01]
 [-9.05187689e-01  9.83723241e-01  2.88120720e-01 -8.61738743e-01
   5.38959739e-01 -9.98156637e-01  1.25821841e+00  3.26583642e-01
  -6.62220418e-01  9.21764032e-01  3.62397483e-01 -8.07943485e-02
   6.58971468e-01 -5.54088058e-01 -1.25809885e-01  5.16053624e-01
   2.45088079e-01 -3.31672060e-01 -5.91856631e-01  6.11647418e-02
   4.73670574e-01  8.95272194e-02  4.78045325e-01 -8.31912814e-01
   2.38704392e-01  7.47766451e-01 -4.70579756e-01  4.48058872e-02
  -1.35224764e-01 -4.74603432e-02]
 [-6.68680670e-01  7.98288677e-01 -3.08709566e-02  5.51528627e-01
   8.18807507e-01  6.59327221e-01 -3.08014733e-01 -9.79447342e-01
   4.26443840e-01  3.39435453e-01  1.40714726e-01  5.80035926e-01
   1.59435950e-02  1.35838002e-01  1.07494273e-01 -2.12020634e-01
   1.39893118e-02 -7.36265231e-01 -7.12283487e-02  6.12937770e-01
  -1.47576576e-01  5.45406779e-01  8.76124432e-02 -2.38021842e-01
  -7.84960260e-01  9.17163838e-01  7.72904920e-01  1.79102319e-01
   2.29155153e-01 -1.10566290e-01]
 [ 1.44584649e-01  2.79587723e-01  1.65333318e-01  3.93430948e-01
  -4.43075456e-02  4.94219344e-01 -6.73785373e-01  2.15005492e-01
  -8.55887268e-01  5.66473457e-01  7.23561751e-01  1.02539544e+00
  -8.00463228e-02 -2.69853516e-02  1.19926349e-01  8.81391948e-01
  -3.75827556e-01  2.05289904e-01  8.63887136e-01 -1.99834490e-01
   7.05836621e-01 -5.59838861e-01  8.95747336e-01  1.04964245e+00
  -9.96775918e-01  8.24152294e-01  8.10001903e-01  1.69245962e-01
  -4.80889545e-01 -1.08031069e+00]
 [-7.05726854e-02  4.49280180e-01 -8.53554601e-01  4.16193069e-01
  -8.59787937e-01  8.98251650e-01  5.22311481e-01 -3.72236440e-01
  -8.62928950e-01 -3.38897849e-01  2.33553971e-01  2.98680994e-03
   5.30727743e-01  1.89328898e-02 -3.13461563e-01 -3.42295715e-03
   3.34819785e-01 -5.54889401e-01  9.20829267e-01 -7.94800163e-01
  -8.48147462e-01 -8.41659968e-01  9.12191892e-01  5.63840114e-02
  -4.06110262e-01 -9.82606661e-01 -5.44675519e-01  4.85510090e-01
   6.06613847e-01 -4.65648964e-01]
 [ 5.96820879e-01 -1.86264455e-02  6.35688244e-02  6.87842520e-02
   4.04786040e-01 -4.60592383e-01  4.58381396e-01 -6.17505418e-01
  -7.44489646e-01 -8.49731564e-01  4.46204490e-01  9.77991889e-01
   6.82368914e-01 -5.15336278e-01 -2.66824540e-01 -8.78705602e-02
   1.53716498e-02 -6.01821414e-01 -7.81447830e-01 -8.92977365e-01
   2.51232227e-01  6.15732405e-01  9.62804211e-01  7.05457585e-01
  -1.65156665e-01  4.79415023e-01  5.99600861e-01 -9.61267788e-01
  -1.03195042e+00 -6.20556559e-01]
 [ 3.00095212e-01 -1.56895155e-01 -3.99316534e-01 -6.17535898e-01
   2.02304386e-01 -6.39546779e-02  8.05984038e-01  5.27726667e-01
  -4.67314671e-01  1.85746867e-01 -2.90041662e-02 -7.48635120e-01
  -9.42756864e-01 -5.39126067e-01 -3.77204541e-01  2.06786860e-01
  -4.97037364e-01  1.09527059e-01  4.74714804e-01  7.87764490e-01
   8.34915797e-01  7.23415352e-01  7.46824979e-01 -9.30682749e-01
  -7.77554012e-03 -8.54935738e-01 -6.33337025e-01  4.02397693e-01
  -3.14911561e-01  6.18666398e-01]
 [-5.28922375e-03 -9.45253268e-02  1.90572383e-01 -9.34475185e-01
  -5.72337433e-01 -9.51587209e-01  6.76114536e-01  2.95522026e-01
  -9.87392463e-01 -7.94796809e-01 -3.57624661e-01  2.40009257e-01
   8.66591514e-01  7.07538195e-01  7.46484774e-01 -5.98745573e-01
  -9.19658430e-02 -6.41431291e-01  5.10630862e-01  1.28087851e-02
   7.55958220e-01 -2.46487672e-01 -5.54793145e-01  3.42841349e-01
   7.21115260e-02 -3.10908665e-01 -3.68296817e-03 -7.57553664e-01
   6.47669726e-01  5.36075454e-01]
 [-8.94012303e-01  2.86556343e-02  5.63271956e-02 -7.82051073e-01
  -8.60882741e-01 -3.66757727e-02 -3.55954005e-01  3.62078608e-01
  -3.71111173e-01  8.10073710e-01 -4.70215050e-01  9.70057945e-01
  -8.26842190e-01 -1.70230382e-01 -7.17640965e-01  1.04774664e+00
  -2.60777938e-01  5.28911166e-01 -8.43166549e-01 -5.84236135e-01
  -8.09339202e-02  4.58135126e-01  6.37128988e-01  3.99268812e-01
   3.20824201e-01 -6.27096792e-01  2.85484455e-01  2.07236621e-01
   5.68915307e-01 -6.20691819e-01]
 [ 6.71103062e-01 -4.80190582e-01 -7.61737881e-01 -2.07735619e-01
  -7.41156601e-01  1.02803353e+00  2.47200361e-01 -2.76972042e-01
   5.09915371e-03  6.19527336e-02 -5.33044109e-01  6.20763075e-01
  -6.64833204e-01  4.39811217e-01 -2.25544835e-01  1.43975308e-01
   2.76460597e-01 -7.28653224e-01  5.15638863e-01 -7.66289795e-01
   4.45636333e-01 -2.65910288e-01  5.41107327e-01  4.15251137e-01
  -4.17098490e-01 -1.49689558e-01 -2.91197106e-01  4.44601408e-01
   2.75734595e-01  8.62812204e-01]
 [ 9.13508459e-01 -6.20794886e-01  1.77993769e-01  6.57591116e-01
   8.30312593e-01 -2.46210347e-01 -7.88923989e-02  6.59572469e-01
  -5.34862361e-01 -6.05542097e-01 -9.55478668e-01 -4.34472629e-01
  -1.03418380e-01 -5.29387476e-01  2.61008540e-01  8.64563172e-01
   9.74960742e-01 -2.14723829e-01 -1.11206467e-01 -1.03112044e-03
   1.65092919e-01  1.02583574e-01  4.29880586e-01  3.72868129e-01
   9.38909023e-01 -4.73593822e-01  4.22874256e-01  3.59142885e-01
   9.62799454e-01 -7.96940607e-01]
 [ 1.11668040e-01  2.63311467e-01  7.91943106e-01  2.05953299e-01
  -8.63268554e-01 -3.87373900e-01  4.18503451e-01 -5.62611883e-01
  -2.53492870e-01 -9.41824891e-01 -8.39382364e-01  7.50326841e-01
   3.48730041e-01 -7.91376789e-01  8.38255230e-01  3.51716401e-01
   6.87736711e-02 -7.92988207e-01  3.49681770e-01  2.25488375e-01
  -5.45444466e-01  6.45807833e-01 -3.90028621e-01 -3.38258180e-01
   1.16021791e-01  8.05829907e-01 -8.61632706e-01 -7.35289986e-01
  -2.68676032e-01 -3.87778147e-01]
 [ 2.31978402e-02  8.19942417e-01 -4.25069497e-01  6.78726945e-03
  -6.13623740e-01 -1.04755161e-01 -8.02204682e-01 -6.93782567e-01
   8.68529688e-01  1.37498930e-01  4.26319192e-02 -7.16582405e-01
  -3.07089353e-01 -1.86054412e-01  5.87908789e-02  6.24397131e-01
   3.37010606e-01  2.53148504e-01 -6.25335846e-01  4.02783035e-01
   3.64513156e-01  6.72657138e-01  6.93377248e-01 -2.05608987e-01
   1.05252317e-01  1.40288125e-01 -5.86555427e-01 -3.90866894e-01
  -7.13059123e-03  6.65531039e-01]
 [-8.14921693e-01 -8.33074588e-01 -8.06460237e-01 -4.09899154e-01
  -5.20731673e-01  9.44858588e-01  1.05833595e-01 -6.55987317e-01
   5.64972606e-02 -4.22732250e-01  6.45142395e-01  2.92653701e-01
  -1.18353511e-02  2.95735405e-01 -1.72787500e-01  2.84902278e-01
  -5.45958250e-01  2.90664032e-01 -4.18555452e-01  6.25323261e-01
  -2.79055156e-01 -1.00646678e+00 -4.81912625e-01  4.43536863e-01
   5.37271465e-01 -1.88162018e-01  5.46975437e-01  4.07052925e-01
   2.46182801e-01 -7.88708094e-01]
 [-6.88603052e-01 -3.65370745e-01  7.15575112e-01 -8.26345324e-01
  -6.33569838e-01 -1.11890272e+00  8.88265765e-01  1.06238705e+00
   7.42391685e-02  7.79717783e-01 -7.86107572e-01  1.04806444e+00
   3.01140464e-01 -1.78228743e-01 -4.47177733e-01  6.04303361e-01
   3.27034832e-01  6.13418733e-01 -3.46316772e-01  8.14889258e-01
  -8.75086789e-01 -7.72671255e-01  4.58659497e-03 -1.27610499e-02
  -7.53140790e-01 -5.44932068e-01 -3.83583058e-01  6.04241181e-03
  -3.49951625e-01  9.59686230e-01]
 [-6.79533839e-01 -7.09656597e-01 -2.50198348e-01 -5.67949573e-01
  -9.83700103e-01  2.08661541e-01  5.90088089e-01 -1.26629660e-01
   7.40992541e-01  6.92464143e-01 -1.59803961e-01  3.79479389e-01
   3.03975254e-01 -3.27849652e-01  7.33944851e-01 -5.35951986e-01
   4.92775448e-01  9.80611875e-01 -1.04823137e+00 -9.34929666e-01
  -5.82563775e-01 -1.11067399e-01 -6.23987724e-01 -9.09254400e-01
   3.27838876e-01 -1.08684389e+00 -8.36113894e-01 -2.91394875e-01
   1.01898680e+00 -2.82993510e-01]
 [-5.73991812e-01  7.14418003e-01 -7.75765403e-01  1.08286176e+00
  -3.21388559e-01 -5.83232817e-01  2.03247848e-01  8.41551543e-03
  -2.94923399e-01 -9.24218018e-01 -1.71359811e-02 -9.46206568e-01
  -3.37316338e-01  9.29817079e-01 -1.73711851e-01 -3.51267386e-01
   1.77822530e-01  6.34135355e-01 -2.75523302e-02 -1.00253652e+00
   8.26113622e-01  7.83454413e-02  9.59352267e-02 -4.98438073e-01
  -3.15921355e-01  8.68970239e-01 -1.58739271e-02 -9.60176704e-01
   3.80066112e-01  3.87824310e-01]
 [ 3.40752221e-02  6.30494311e-01  4.20402462e-02 -3.61280810e-01
   4.84962683e-01  2.80563643e-01 -4.41738089e-01  3.39983798e-01
  -1.12150707e-01 -8.75953472e-01 -9.56387507e-01 -5.76924111e-01
  -4.40828600e-01  2.52000013e-01 -9.37174479e-01  9.11922639e-02
  -8.88356224e-01  5.81554059e-01 -1.38980959e-01  4.35437292e-01
   5.82481315e-01  5.92713580e-01 -4.73835820e-01 -8.80739388e-03
   1.25812376e-01  8.77998394e-01  3.01203624e-01 -3.96927968e-01
   2.76914241e-01  3.02416919e-01]
 [ 5.08433915e-01 -2.46888889e-01 -7.41628828e-01  2.76317499e-01
  -6.78069395e-01  1.68313735e-01  6.05569928e-01 -6.72424093e-01
  -4.12864730e-01 -8.21413820e-02  6.41216023e-01  9.21767715e-01
  -1.01378978e-01 -1.16194804e-01  8.38493856e-01  2.99262290e-01
  -9.01287384e-02 -2.61851996e-01  2.93185790e-01 -3.10572441e-01
   6.90821339e-01 -2.02940535e-01  1.00581316e+00 -9.80921932e-02
   1.38241341e-01 -4.05295045e-01 -8.76202507e-01  8.99286456e-01
  -3.24719858e-01 -1.63106326e-01]
 [-2.98884466e-01 -6.71306646e-01  9.30708148e-01  3.73661999e-01
  -2.38987982e-01  7.75939841e-01  1.03176956e-01 -3.74269586e-01
  -3.25144420e-01 -5.17999992e-01 -9.32648319e-01 -8.67785735e-01
   6.70215211e-01 -2.21963730e-01 -1.97109241e-01 -9.29404267e-01
   9.52739936e-01  9.91606219e-01 -3.84693068e-01 -1.68609128e-02
  -8.12823572e-02 -7.17186697e-01  1.57823312e-01 -7.40474862e-01
  -5.26940832e-01 -9.65866771e-01 -1.80584059e-01 -6.98323555e-01
   9.25735197e-01 -4.06679539e-02]
 [-1.01343663e+00 -2.68178989e-01  7.27905626e-01  6.53152693e-01
  -8.12159410e-01 -4.06314849e-01  3.36654577e-01  4.28856480e-01
   9.05915405e-01  6.29763872e-01 -8.92169286e-02 -6.04006536e-01
  -6.83313920e-01 -8.16529981e-01 -6.06514184e-01 -4.24187928e-01
  -3.66439653e-01  3.87993315e-01  2.36319438e-01  7.07994720e-01
   7.12167591e-01  3.99094939e-01 -2.34480728e-01  8.52895908e-01
  -3.37970534e-01 -3.52625576e-01 -2.83382038e-01  1.48114393e-02
   7.12153879e-01 -3.10265041e-01]
 [ 3.05222219e-01 -3.76872767e-01 -3.03140731e-01 -1.09714658e+00
   5.53863486e-01 -7.13197733e-01  1.87493194e-01 -4.90718850e-01
   5.90596325e-01 -6.17927366e-01 -5.80029981e-01  8.72675554e-04
   2.28817434e-01  3.28413051e-01 -8.29016969e-01  4.02888621e-01
  -5.79173873e-01  7.74629252e-01 -7.18141697e-01  5.10404182e-01
  -6.15637967e-01  6.99863019e-01  5.07640777e-01  6.36086677e-01
  -2.16761585e-01 -7.24432208e-01  5.86323902e-01  3.02330633e-02
   1.25760238e-01 -1.94440887e-01]
 [-8.28807169e-01  7.70558689e-01 -2.47783614e-01  2.22187654e-01
   9.38100018e-01 -1.03647870e+00 -6.07523735e-01  1.79914866e-01
  -5.70610047e-01 -3.24569066e-01  1.01653983e-01  1.00188355e+00
  -2.67656042e-01 -5.87039109e-01 -9.79318516e-01 -1.24861705e-01
   7.80765585e-02 -4.10676208e-01  5.32239225e-01 -6.34834412e-02
  -6.72619256e-01  2.78751770e-01  4.71717924e-01  8.30011399e-01
   4.39611059e-01  6.17618848e-01 -1.72336828e-02 -3.26784086e-01
   7.24906010e-02  4.46361717e-01]
 [-7.17430916e-01 -5.15657402e-01 -2.43221560e-01  2.51470824e-01
  -3.01991008e-01 -6.97177276e-01  1.52722885e-01 -6.95506444e-01
  -5.95678098e-01  4.89524763e-01  2.56550220e-01 -7.29159354e-01
   3.52595018e-01  8.27554204e-01 -6.04368366e-01 -5.51587878e-01
  -1.40738923e-01  3.58597633e-01  5.50065742e-01 -5.33056188e-01
   3.67973991e-01  4.37642343e-01  1.64788691e-01 -5.95748040e-01
   4.39990716e-02  7.45786432e-01 -8.32284812e-01  2.79298364e-01
  -3.15420924e-02 -6.40846918e-01]
 [-1.00114656e+00 -8.59824079e-01 -4.21584847e-01  2.44077875e-02
  -3.84153207e-01 -5.34749736e-01 -1.11027346e-01  7.72650282e-02
  -9.38908660e-01 -5.13777430e-01 -5.48915695e-01  3.56849194e-01
  -3.59477750e-01 -4.37599442e-01 -3.91545803e-01 -2.74163348e-01
   2.38888983e-01  2.61731634e-01 -8.86460378e-01  8.81156261e-01
  -9.49204354e-01  1.83870941e-01  5.05984208e-01 -8.59717495e-01
  -3.42490427e-01 -5.08248466e-01 -1.93433406e-01 -8.65838496e-01
   3.22362456e-01  6.15285584e-01]
 [ 9.37960895e-01 -4.37896766e-01  1.02805164e+00 -6.72121727e-01
  -8.52416752e-01 -1.39954723e-01  2.49887160e-01 -1.64816001e-01
   2.55945004e-01 -5.77255708e-01  5.07906793e-01  7.33754927e-01
   5.01996326e-01 -6.13548517e-01 -1.28199938e-01 -4.28863148e-01
  -3.78099778e-01  1.02113224e-01  1.87543235e-01  3.13421547e-01
   6.82762652e-01  9.94903774e-02  7.56586453e-01 -1.16907343e-01
   7.17999237e-01  2.59349119e-01  5.15200774e-01 -8.51453659e-01
  -6.48653164e-01 -3.85523173e-01]
 [-1.02975641e+00  4.23522211e-01  6.76359390e-01 -8.29844139e-01
   4.08316983e-01 -1.71283355e-02 -2.32817462e-01  3.71171752e-01
  -8.81536141e-01 -8.25969887e-02 -7.89790529e-01 -7.10421513e-01
  -1.68808079e-01 -8.86301594e-01 -1.59036602e-01  6.54565791e-01
  -1.14120216e-01  7.41644551e-02 -5.30868740e-01 -2.03878405e-01
  -2.65697514e-01  1.74258405e-01  6.97144207e-01 -7.78553706e-01
  -5.44090158e-01  4.69864010e-02 -4.49327039e-01  5.55170610e-01
   8.97192431e-01 -3.88071620e-01]
 [-2.66600520e-01 -5.36864236e-01 -9.07258435e-01  4.41233806e-01
  -5.85749520e-01 -6.78490484e-01  6.58280717e-01 -2.95225286e-01
  -8.71564734e-01 -2.47825686e-01  9.67316561e-01  2.88623353e-01
   5.58246289e-01  2.72760931e-01  4.01622145e-01 -5.08941694e-01
  -2.70676830e-01  1.02627151e+00  5.17706903e-01 -6.06308173e-01
  -7.67520929e-01  3.76765889e-01  7.75228647e-01  4.48370730e-01
   2.51268865e-01  1.07822864e-01 -2.16276963e-01  4.44928324e-01
  -7.81709898e-01 -6.61710528e-01]
 [-6.57576165e-01  4.90576531e-01  7.54571772e-01  9.11209503e-01
  -2.60304684e-01 -5.99987625e-01 -9.12333629e-01  4.46374728e-01
  -8.87121280e-01  7.24731391e-01 -1.83629890e-01 -7.99751755e-01
  -3.94195192e-01 -4.89907538e-02 -6.39583704e-01  9.03340545e-01
   4.14085371e-01 -1.16828559e+00 -7.82805092e-01 -7.95297097e-01
  -4.04441494e-02 -5.84492203e-01 -2.02721183e-01  6.00486841e-01
   1.04355751e+00 -1.31014728e-01 -9.05977751e-01  3.84783751e-01
  -8.92374291e-01 -5.86729567e-01]
 [ 3.45015560e-01  3.69556604e-01  7.30665646e-01 -6.04577774e-01
   4.63667892e-01 -9.64184440e-01  6.53943066e-01  5.77420227e-01
   3.62037281e-01 -8.37858043e-01 -5.23609108e-01  1.01226929e-01
  -7.17988851e-01 -4.77879166e-01  4.05074657e-01  3.88543108e-01
   9.43534029e-01 -8.41781487e-01 -6.85191285e-01 -9.61852353e-01
  -4.31164062e-01  3.72381018e-01  5.34572657e-01 -6.20796383e-01
  -4.00644837e-01 -7.13389994e-01  4.99015129e-01  5.11929331e-01
   6.73566891e-01  1.56344507e-01]
 [-6.74955041e-01 -8.59545781e-02 -1.29225820e-01 -2.86268174e-01
  -3.71246459e-01 -1.09701544e-02 -2.11546136e-01 -8.16936879e-01
   3.42027362e-01 -2.58747779e-02  6.23313358e-01 -6.44849176e-02
  -5.03765638e-01  3.83932862e-01  4.09615840e-01 -9.28788054e-01
  -8.68387560e-01  7.09433117e-01 -4.17968247e-01  9.32938135e-01
  -9.87877744e-02  6.60378946e-01  3.62866175e-01  7.74208373e-01
   8.57227948e-01 -5.74058928e-01  5.25772966e-01 -5.24809633e-01
   8.83306590e-01 -2.38675820e-01]
 [ 8.89537477e-01 -4.87633055e-01  7.02776078e-01  8.52648049e-01
   1.33511959e-01  6.71090696e-01  7.62834427e-01  1.62702704e-01
  -4.00207027e-01  7.15438848e-01 -7.35861761e-01  3.04337567e-01
   7.24016828e-01  1.48781621e-01 -4.96617373e-01  7.10996046e-01
   3.85130723e-01 -2.35426293e-01 -5.38805061e-01  8.77448226e-01
   1.51823462e-01 -4.34028622e-01  3.99870963e-01 -8.38998214e-01
  -1.44488841e-01  6.84028732e-01  7.05500352e-01  3.76926818e-01
  -1.00498080e+00 -8.14612238e-01]
 [ 1.33362723e-01 -7.16923532e-03 -2.16578911e-01  5.08107185e-01
   9.39823999e-01 -7.12652555e-01 -2.10413453e-01  4.46753004e-01
  -7.96692829e-01  6.96685276e-01  4.48609363e-01 -2.43515717e-01
   7.67049344e-01  8.04010677e-01  9.84793399e-01  3.21239265e-01
  -5.34918095e-01 -6.68965811e-01  3.24609261e-01 -1.71586540e-01
   1.47745380e-01 -1.17735016e-01 -1.48389335e-01  6.83621998e-01
   1.76275957e-01 -1.02722041e+00  5.05731136e-01 -4.39090497e-01
  -7.50158145e-01 -9.11732356e-02]
 [ 8.34002322e-01 -1.72892271e-01 -2.58086739e-01  1.35419208e-01
  -2.45069693e-01 -1.39997935e-01  7.69052301e-01  1.97711327e-01
   4.35251941e-01  1.11210346e-01 -6.04665466e-02 -6.67390238e-01
  -7.25718599e-01  9.23166385e-01 -7.16991222e-01 -3.27967401e-01
  -6.33157372e-01 -2.58069629e-02  7.99326775e-01  6.97639775e-01
   7.14905050e-01 -9.88058155e-01 -9.86691226e-01 -6.21867500e-01
   3.16134567e-01  5.40480815e-01  4.36907762e-01 -4.87943197e-01
  -7.03322506e-01  2.59302161e-01]
 [-3.01409036e-01 -6.71393559e-01 -1.02216073e-01  6.93766274e-01
   7.51072937e-01 -7.52353331e-01  5.73612549e-01  9.63919083e-01
  -6.39139546e-01  1.78806180e-01  6.65849248e-01 -1.35592471e-01
  -4.68955668e-01 -9.45256140e-01 -2.68611772e-01  8.10312548e-01
   6.17227509e-01  9.77459598e-01 -1.73657216e-01 -2.06677942e-01
  -1.06036340e-01 -1.03722688e+00 -6.99208344e-01  5.50233221e-01
   7.90870607e-01 -1.34733353e-01 -1.77716127e-01  3.92845804e-01
  -1.09818888e-01  6.78942109e-01]
 [-1.41357142e-01  3.66017160e-01 -2.14592496e-01  1.12773101e-01
  -4.56555024e-01 -4.94433557e-01  3.79036106e-01  2.13457086e-01
   1.59723671e-02  5.23243355e-01 -7.38158569e-01  4.01565512e-01
  -4.30658426e-01  2.78470046e-01 -3.94309146e-01 -8.97518647e-01
  -2.11356781e-01  2.33166964e-01  1.04723850e+00 -1.01173753e-01
  -9.45382751e-01  2.00810210e-01  8.37645065e-01  2.95135302e-02
   5.33770741e-01 -9.81481769e-01  7.01525413e-02  6.05183673e-01
   2.77624353e-02  9.02675122e-01]
 [-5.04270876e-01  6.94013261e-01 -6.96674970e-01  9.54781483e-01
   6.80856410e-01 -4.30769032e-01 -6.55610429e-03  4.33779047e-01
  -3.35917381e-01 -6.25854981e-01 -7.39896130e-01  9.89486331e-01
   5.57553876e-01  2.56270213e-02 -1.00100761e+00 -7.73716353e-01
  -7.51632772e-01 -5.63955441e-01 -2.09952870e-02  5.39889198e-02
   1.09951642e+00  6.85385470e-01  4.67018389e-01 -6.32431028e-02
   1.18872088e-01 -4.88164652e-02  7.90105954e-01  9.84183883e-01
   3.89305706e-01 -7.81054542e-01]
 [ 1.17950108e-01  1.05586826e+00  7.93723993e-01 -2.67622135e-01
  -2.18408503e-01  3.10368514e-02 -2.14550918e-01  3.64590401e-01
   9.71611756e-01 -9.75499516e-01 -8.95040384e-01 -5.15799938e-02
  -8.05732620e-01 -5.85183355e-02  6.38730218e-01  3.56278352e-01
   9.26892677e-01  1.22045593e+00 -8.08964122e-01  2.40747924e-01
   4.56515290e-01 -7.42927216e-01  9.46496217e-01  3.65852811e-01
   2.58939026e-01 -8.33358633e-01  5.94414094e-02  7.98321639e-01
  -3.50530640e-01 -7.51340875e-02]
 [-2.97661387e-01  1.28613685e-01 -1.07526544e+00  5.80265618e-01
  -3.75747321e-01  5.61332841e-01 -1.19342188e-01 -9.18763159e-01
  -3.04857953e-01  9.58980185e-02 -2.95152782e-01  1.26722276e-01
  -3.32931350e-01 -6.83138109e-01 -2.52588312e-01  1.03067635e+00
  -3.50596416e-01 -5.70523702e-01  7.02181710e-01 -7.25941208e-01
   6.91204896e-01  9.47423215e-01 -6.22870213e-01 -5.60548877e-01
  -5.53322049e-01  7.36412558e-01 -3.16899801e-01 -8.07922372e-01
   2.86265600e-01  5.13600753e-02]
 [-8.95428608e-01 -9.15829473e-01  1.47210516e-01  4.47855381e-01
  -6.38831719e-01 -9.75798493e-01  2.56645283e-01  4.22189861e-01
   1.01948914e+00  4.35282582e-01 -5.37661247e-01  8.66240086e-01
  -7.04772983e-01 -4.42165784e-01 -2.73268035e-01  1.71313310e-01
   3.45109857e-01 -7.93387697e-01  6.61634714e-01  3.16464234e-01
  -9.56960768e-01  2.43118418e-01  6.86240418e-01 -4.74178299e-01
  -2.00361339e-01  1.48494859e-01 -4.10653238e-01  6.81464336e-01
  -8.38593183e-01  2.49753651e-01]
 [-8.77800000e-01 -1.19754353e-01  6.89772541e-01 -4.83339633e-01
   1.01258722e+00 -7.55650702e-01  3.82372303e-02  4.41359484e-01
   8.42455739e-01 -6.77363797e-01  7.63845720e-02  8.26015725e-01
  -8.11930410e-01  4.54916198e-01  5.18843883e-01  4.26722453e-01
  -4.65460292e-02  7.55307669e-01  8.98628019e-01 -7.34065946e-01
   1.14291214e-01 -1.42195953e-01  5.14098818e-01 -8.85413868e-01
  -4.11389649e-01 -8.45614946e-01 -3.53943373e-01 -6.64402721e-01
  -4.25196115e-01  7.40186476e-01]
 [-1.53293530e-01  4.43392187e-01  8.50915738e-01  5.92148962e-01
  -6.49151675e-01 -3.66615549e-01  8.68195375e-01  4.65208055e-01
   8.68656391e-01 -2.99923574e-01  2.53968039e-01  7.37632685e-01
  -5.27393975e-01  6.54896409e-01 -2.18488990e-01 -6.86949867e-01
   8.06736621e-02  2.89677717e-01 -8.95457445e-01  8.16010822e-01
  -1.84274953e-01 -9.09480373e-01  4.34284602e-01 -1.84902818e-01
  -5.84135355e-01  6.52378105e-01  6.24622908e-01 -1.96208385e-01
   5.21526113e-01 -8.23978715e-02]
 [-5.88943285e-01 -6.92232810e-01 -4.48257480e-01 -8.95857971e-01
  -8.29310992e-02 -3.58077084e-01 -8.49719178e-02 -4.52216182e-01
  -5.22725973e-01 -4.13184502e-01  2.49614779e-01 -6.07001223e-01
   4.36220462e-01  1.54253226e-01 -2.84707828e-01 -5.45443602e-01
   1.95446050e-01  1.84603989e-01 -8.95873596e-01 -3.05896101e-01
   1.73024490e-01 -1.08757576e+00  1.09649092e+00  6.31660423e-01
   6.12410297e-02 -6.39613872e-01 -6.68754983e-01 -5.47754832e-01
   7.61064417e-01  7.25488815e-01]
 [ 9.25746812e-01 -3.81995297e-03  1.04657706e+00 -8.16865869e-01
   5.27087358e-01 -3.38172046e-01 -9.39662658e-02 -7.34254342e-02
  -4.88699220e-01  7.44800986e-01  3.05998789e-01 -3.02216916e-01
  -9.43961414e-01 -1.09217228e+00 -4.17655035e-01 -5.30591303e-01
   4.70459262e-02  8.24494056e-01 -1.04495421e+00 -7.05090920e-01
  -3.88382196e-01  5.57148874e-01  7.67042071e-02 -4.46659183e-01
   1.08110457e+00 -1.06174057e+00 -1.10412791e+00 -4.29735285e-01
   6.26059415e-02  7.38288512e-01]]
[[-0.90701971 -0.36193178  0.86089548 -0.66179239  0.34271159 -1.08318242
   0.08429994]
 [ 0.2012012  -0.98951613  0.10500284  0.42637578  0.04216876 -0.78334285
  -1.00063226]
 [-0.69785667 -0.00507859  1.03902663  0.26090605  0.65758752 -0.64436373
   0.25743013]
 [-0.8705694  -0.84270628  0.02213905 -0.44285551 -0.18275176 -0.48863281
  -0.82422801]
 [ 0.19055767  0.24275931 -0.42994818  0.13419149  0.37718728 -0.62560231
  -0.98921343]
 [-0.05648545  0.26789259  0.43425983  0.41384841 -0.38258642  0.20234919
  -1.13780666]
 [ 0.08209655 -1.92778733  0.72094816 -0.99864237  0.81515619 -1.502337
   0.51267554]
 [-0.0752382   0.73296138  0.75253986  0.70019661 -0.86738659  0.02509484
  -0.83395947]
 [-0.4909811   0.44336222 -0.81688597 -0.24541744  0.01440732  0.64152652
  -0.29312519]
 [-0.69205602  0.21225235 -0.34261357 -0.07559402  0.57310276 -0.00427692
   0.49261589]
 [ 0.01361636 -1.11893304  0.60922356  1.26819111 -0.99288179  0.33326937
  -0.68857736]
 [ 0.46458975 -0.62084967 -0.08766681 -0.30653357  0.40548981  0.7435518
   0.63114006]
 [-0.81755646 -0.36915585 -1.15988512 -0.58376255 -0.45728045  0.9714307
  -0.22296193]
 [ 0.49018015  0.10267921 -0.66657427 -0.08877795 -1.0491416   0.72564932
   1.32933399]
 [-0.72993382 -0.64486856  0.04613545 -0.6433008  -1.22565576 -0.25463044
  -0.14709158]
 [-1.44104563 -1.29621942 -0.64832491 -0.56027355 -0.41678642 -0.55818421
   0.95594323]
 [-0.38572513  0.94550278 -0.62407275 -0.61331096  0.63620627 -0.22659493
  -0.67421152]
 [-0.03684714  0.22680205 -0.50288219 -0.59484958 -1.23909849 -0.43020658
   0.29386396]
 [-0.67580259  0.08327578 -0.86998402 -0.17244194  1.22384653 -1.10035364
  -0.50907375]
 [-0.89884976 -0.57515664 -0.05699983 -1.16952666 -1.06463053  0.85466155
   0.53325983]
 [ 1.34908575 -0.64306264 -0.58639683 -0.45576908  0.12310573  0.26891146
  -0.19036899]
 [-0.85188605  0.64956574 -0.63810349 -0.92643832  0.71492479 -0.22826095
   0.01376223]
 [-0.26795567 -0.11558871 -1.06450604  0.21315763 -0.58610446 -0.13861232
  -0.38323619]
 [ 1.08347398 -0.39641541 -1.05063654 -0.42293564 -0.51985738 -1.39971291
   0.95775219]
 [ 0.32159554  0.45220466 -0.94656574  0.26256659  0.08328251  0.13503628
   1.07394834]
 [ 0.73661331 -0.7206001  -0.46144548  0.66302121  0.60313751 -0.32037889
  -1.23600328]
 [-1.16967006 -0.76126216 -0.0179576   0.20351548  0.42553942  0.03756025
   0.3743946 ]
 [-0.80234682  0.56303888  0.97230418  0.3433396  -0.57009906  0.30938681
  -0.30548718]
 [ 0.9714939   0.41049939 -0.21587495 -0.30199805 -1.8774612  -0.43327875
  -0.5522652 ]
 [-0.16386591  0.42638274 -1.04221484  0.57597492 -0.7279252  -1.24410133
  -1.16842922]
 [ 0.82034376  0.2177519   0.78848359 -0.35419901 -0.24648751  0.66445415
  -1.20277106]]
