[[ 8.59232186e-01 -3.67248891e-01 -6.32162377e-01 -5.90879443e-01
   1.35450058e-01  1.91089406e-01  9.29029039e-01  3.06354194e-01
   4.97813275e-01  3.07139742e-01  4.95429619e-01  9.22613472e-01
  -9.83223404e-01 -7.87111247e-01 -4.02592572e-01  3.12822366e-01
   6.19625105e-01  7.44351827e-01  9.29295195e-01  4.47370694e-01
   2.84950656e-01  4.34907242e-01 -6.48019856e-02 -3.48830645e-01
  -1.20710788e-01  4.59378165e-01  9.88029172e-01  3.53747424e-01
   5.81645036e-01 -6.58171484e-01 -9.46301448e-01  6.00740488e-01
   8.07445076e-01 -9.50647579e-01 -1.65053631e-02  5.25103347e-02
   1.92732021e-01 -8.96084910e-01  7.90179056e-01  4.56532361e-01
   6.36700023e-01  4.45505669e-04  6.20378818e-01 -8.08062949e-01
  -5.62099913e-01]
 [-4.82561877e-01 -6.37884921e-02 -8.12535948e-02  4.19019560e-01
  -6.43893988e-01  6.28997687e-02 -6.64515542e-01  5.37627837e-01
   8.56341098e-01  2.18987316e-01 -6.99633011e-01 -2.07465926e-02
  -2.45310092e-01  6.97202824e-01  8.22194457e-01 -2.32302558e-01
  -3.69008193e-01  1.36788306e-01 -6.24363930e-01 -7.48316912e-01
   3.75191610e-01  5.99213436e-01  1.47073130e-01  9.46459963e-01
   2.68108754e-01  7.76843450e-01 -9.17048249e-03 -2.96766940e-01
   4.28460737e-01  7.85823290e-03 -5.48724787e-01 -5.10051120e-01
   5.85601400e-01 -9.65517098e-03  8.30187347e-01  8.90743668e-01
   6.64644593e-02 -4.95014811e-01  4.41724116e-01 -2.65122472e-01
  -2.70311418e-03 -5.46849905e-01 -2.92868707e-01  3.01703573e-01
  -3.74134209e-01]
 [ 5.37470894e-01  5.63674207e-01  7.04818966e-01  8.99811480e-01
  -7.85354176e-01  8.21450712e-01 -3.27889676e-01  6.52760854e-01
   7.96201270e-01 -9.14569391e-01 -6.08410002e-01 -4.10997356e-01
   2.53999761e-01 -8.27553790e-01 -7.14109960e-01  3.16530385e-02
   3.78682659e-01  7.13251622e-01  2.94723367e-01  1.63237351e-01
   4.22231910e-01 -4.95166286e-01  8.00319367e-01 -1.15412614e-01
  -9.58958351e-01  9.19322028e-01  3.04450845e-01  2.64125002e-02
   3.64712766e-01 -2.09192187e-02  8.52980343e-01  3.17595443e-02
  -8.55680237e-01  1.35016596e-01  2.30486367e-01  8.83092589e-01
  -1.69273291e-01 -4.71120051e-01 -8.05213669e-01 -2.83115562e-02
  -7.06742743e-02 -9.40481366e-01  3.88554924e-01  4.33894225e-01
   4.59622847e-01]
 [-1.71297966e-01 -9.69802310e-01  8.17950315e-01  5.78757436e-01
  -6.69601662e-01 -3.74428077e-01  2.21890612e-01 -2.71019427e-01
  -6.87922822e-01 -6.45392373e-01  7.35779342e-01 -4.19810663e-01
   1.70359243e-01 -9.20102482e-02 -1.77643736e-01  7.65268890e-01
   3.85416030e-01 -4.41453290e-01 -8.71119538e-01 -6.02752772e-01
   8.63365489e-01  7.08827136e-01  9.09469469e-01 -8.95493304e-01
   1.58943361e-01 -3.90074667e-02 -9.56582042e-01 -2.52759073e-01
  -1.71816398e-01  2.07814468e-01  3.43497455e-01  6.77731401e-01
   5.59052417e-01 -1.98597912e-01  5.89058463e-01  7.86248621e-01
  -4.75020618e-01  9.78394015e-01  7.06614198e-01  4.62954312e-01
  -2.88868751e-01  7.66578981e-01  7.35918182e-01  9.11532892e-01
  -9.99785487e-01]
 [-9.66917916e-01 -3.71859885e-01  9.90632349e-01 -7.02311554e-01
  -6.65245763e-01  5.17144074e-01 -8.60940668e-01  4.10946877e-01
  -6.16694364e-02 -9.79623568e-01  5.49647726e-01  5.88402017e-01
  -7.00861097e-01 -9.52592736e-01  5.24127542e-01 -5.52659640e-01
  -4.75651204e-01 -8.62609944e-02 -5.00146163e-01  1.36567123e-01
   6.93885994e-01 -2.43800926e-01 -1.35069767e-01  6.65238353e-01
  -2.57736129e-01 -9.18893456e-01  1.09342972e-01 -9.75075144e-02
   4.50601953e-01 -2.43098955e-01  6.81324991e-01 -6.13706128e-02
   1.25286858e-01  3.22398678e-01 -7.55162650e-02  2.47273891e-01
  -5.56238738e-01  4.65726234e-01 -2.36635823e-01 -6.10330916e-01
  -4.57674450e-01 -5.01549896e-01 -6.95721875e-01  5.42747408e-01
  -4.89176535e-01]
 [-7.44913190e-01  3.30334307e-01 -1.74390103e-01  3.35535533e-01
   3.19627034e-01 -3.89244656e-01 -5.97551518e-01 -5.55945747e-01
  -7.60058273e-01 -9.25709118e-01 -9.31736833e-01 -5.39006904e-01
  -5.43292587e-01  2.49821244e-01  7.85122371e-01  5.59456032e-01
   4.42902537e-01 -3.79115682e-01 -2.73833167e-01 -6.07836432e-01
   8.70983596e-01  1.23468000e-01  6.34583074e-01 -3.02172038e-01
   5.99428526e-01 -7.91791075e-01  4.24240330e-01  8.34896992e-01
   6.07170737e-01 -3.45773707e-01 -4.89785641e-01 -9.99565129e-03
  -1.72778091e-01 -1.50125809e-01 -8.51243390e-01  2.06781303e-01
   4.94399467e-01  5.95152453e-01 -2.36998955e-01  5.94316306e-01
  -5.64052608e-02  4.42798342e-01 -6.21574621e-01 -1.30808581e-01
   6.46936218e-01]
 [ 6.52545256e-01 -6.20949033e-01 -9.59795660e-01  4.06982772e-01
  -3.05459761e-01 -1.60992368e-01  5.36177806e-01  9.25756133e-01
   7.85130614e-01 -7.30115467e-01  5.95609430e-01  3.64181215e-01
   6.01057742e-02  7.31963310e-01  5.06496191e-01 -8.13594826e-01
  -3.41121136e-01 -1.75274609e-01 -9.98070784e-01  1.95127126e-01
   3.65123084e-01 -2.67438477e-01 -2.07002285e-01 -4.92817090e-02
   1.62159801e-01 -7.25725744e-01  9.98828347e-01  1.46544176e-02
  -1.38665909e-02 -6.26250490e-01 -4.07823970e-01  5.97030118e-01
  -4.10443414e-01  3.94243187e-01 -4.54081542e-01  8.25056903e-01
  -4.02921532e-01  7.79719544e-01  8.93444588e-01 -6.62174354e-01
  -2.81417189e-01  3.64354606e-01  8.42783940e-01 -7.10151312e-01
  -8.00251230e-01]
 [-1.76794447e-01  9.50250742e-01 -9.16986918e-01 -6.26171411e-01
   2.17535976e-01 -8.25562570e-01 -3.67423692e-01  2.20271553e-01
  -5.97610574e-01  3.83795433e-01 -5.10746058e-01  3.60743392e-01
  -2.81245422e-02 -4.79010377e-01 -4.34519362e-01  8.10903240e-01
  -4.48314625e-01  6.82296085e-01 -6.07151251e-01 -3.38833141e-01
   8.93259770e-01  1.21436991e-02 -1.93168283e-01 -9.45876923e-01
   2.43547379e-01 -3.05302986e-01 -4.46401544e-01 -8.71890452e-01
  -3.31218962e-01 -8.64580115e-01 -9.92351503e-01 -9.18064393e-01
  -3.02090269e-01 -8.16091378e-01  4.06314529e-02 -5.68500373e-01
   9.83333090e-01 -4.65625678e-01  3.60336105e-01  5.24922383e-02
  -1.20153861e-01  3.23110491e-01 -7.30429651e-01  5.75698010e-01
  -7.24044598e-01]
 [ 2.65846595e-01 -5.72669285e-01 -9.53249371e-01  2.53867947e-01
   2.84327453e-01  2.84206674e-01  7.29241799e-01 -3.25597193e-01
  -1.78083227e-01  2.20637368e-01  8.81686381e-01 -6.95845460e-01
  -6.31883988e-01 -6.91123424e-01  4.25648652e-01  8.55966323e-01
  -1.54625640e-01  9.03545273e-02 -3.55222069e-01 -6.78590634e-01
   4.06304049e-01  4.60496813e-01  9.20809075e-01 -2.59018858e-01
   4.33396784e-01  9.72122436e-01 -7.78464883e-01  5.16457098e-01
  -6.84891757e-01  6.32870511e-01  1.08213092e-01  1.63420442e-01
   8.72291166e-01 -1.31304490e-01 -2.17456273e-02  3.32260934e-01
   2.60308002e-01 -7.39590499e-01 -2.92312058e-01  2.70246769e-01
   8.37911722e-01 -8.17466559e-01 -8.57835750e-01 -1.72576728e-01
  -5.68717661e-01]
 [ 3.93972631e-02  1.17028044e-01 -5.25996722e-02 -5.68255757e-01
  -5.21122229e-01 -5.66523495e-01  3.11380756e-01  6.92786901e-01
   8.60928787e-01  6.00611034e-01  3.61451690e-01 -5.85486084e-01
   4.83319450e-01  3.93809171e-01 -2.36481051e-01  7.00238249e-01
   5.62223622e-02  7.86018138e-01  6.41118750e-01 -5.42842761e-01
   6.41247939e-01 -7.22877150e-01 -3.50650097e-02 -7.02378887e-01
  -1.03411890e-01  3.31912945e-01  5.78064850e-01  3.24041516e-01
   4.23024858e-01  7.75847324e-01 -7.16649418e-01 -7.04859753e-01
  -3.48138314e-01 -9.36252341e-01  3.75525789e-01  5.29460090e-01
  -2.99981163e-01  2.32015221e-01  9.16999718e-01 -4.17894767e-01
   3.73356925e-01 -9.15543539e-01 -8.74992737e-01  6.28797391e-01
  -1.26763275e-01]
 [-2.15863136e-01 -3.38704641e-01 -8.46823432e-02  6.70704305e-01
  -6.64622476e-02 -1.57428024e-01  1.41703106e-01  4.78111913e-01
  -8.89833183e-01  2.48361298e-01  2.42120655e-01 -9.97778936e-01
   2.05787013e-01 -9.19629176e-01  1.71500734e-01 -1.03241151e-01
  -2.92539465e-01  8.67050469e-01 -4.65488136e-01 -4.37401239e-01
   9.81192729e-03  2.93612237e-01  9.41146858e-01 -9.28249041e-01
  -1.53600268e-01  1.76624177e-01  4.63404565e-01 -6.48977854e-01
   2.10775692e-02  5.69191679e-04  7.85535264e-01 -2.34634585e-01
   3.25727674e-01 -9.06376881e-01  5.02446568e-01 -2.62429415e-01
   8.96057273e-01 -3.05549564e-01  3.67786398e-01  6.49269763e-01
  -2.74940115e-02  9.68351743e-01  2.07628076e-01  5.19249664e-01
   3.69033391e-01]
 [ 8.64832454e-01  8.99570943e-01  9.80222256e-01 -7.47689234e-01
   9.53201235e-01 -5.41788688e-01 -6.27887154e-01  1.84228440e-02
   6.09953653e-02 -4.34721517e-01 -3.79676929e-01 -3.80231248e-01
  -4.67222228e-01  1.86862302e-01 -5.65731255e-01 -1.95234165e-01
  -4.22877521e-01 -6.52318370e-01 -5.48572953e-01  9.77282835e-01
  -1.31897294e-01  6.56378552e-01  1.45025664e-01  3.03800557e-01
   4.59476312e-01 -2.17432698e-01 -2.14275087e-01  7.19102461e-01
   6.20039222e-01  6.73087769e-01 -6.24024151e-01 -2.80806505e-01
  -3.60320339e-02  9.32145292e-01  1.26626368e-01  6.55009725e-01
  -8.47784780e-01  1.06275889e-01  9.58809195e-02  8.10887196e-01
  -2.61022651e-01  8.02325284e-01 -7.18737950e-01 -8.01652549e-01
   9.46366520e-01]
 [ 8.84090041e-01  1.81893920e-01 -8.96084271e-01 -8.99696605e-01
  -3.50795646e-01 -2.48500476e-01  5.28298639e-01  7.18531687e-01
   9.14165483e-02 -3.52290034e-01 -1.88370265e-01 -7.80664454e-01
  -7.25417366e-01  4.90777938e-01  7.52831081e-01 -4.82021313e-01
   3.71203322e-01 -2.81777049e-01 -9.87965749e-01  5.22361714e-01
  -1.71955213e-01 -3.32216051e-01 -4.43913834e-01  1.85028318e-01
  -3.49798716e-01  8.73610682e-01 -8.08034049e-01  7.66591492e-01
   1.36035466e-01 -8.76153051e-01  7.49977330e-01 -5.50294466e-01
   5.98766563e-01  6.03749966e-01 -9.42090961e-01  2.54198007e-01
   2.09278522e-01 -8.43584950e-01  5.45907125e-01 -7.13366751e-01
  -7.26307843e-02 -8.05778648e-01  1.39708432e-01 -1.92466084e-01
   1.73157409e-01]
 [ 4.97412749e-01  7.79227666e-01 -2.41219689e-01 -4.15127476e-01
   1.85804799e-02  6.56272008e-02 -7.89156759e-01 -9.08117993e-01
   2.43986298e-01  6.44889845e-01 -8.89872860e-01  5.95946891e-01
  -5.11510156e-01  6.07075484e-01 -4.03649869e-01 -6.54580737e-02
   8.65639316e-01  8.19513569e-01 -7.40144553e-01  5.89954019e-02
   2.38331556e-01  2.49230436e-01  2.93617672e-01 -3.35847054e-01
  -7.71555326e-01  1.42208982e-01 -3.96017041e-01 -6.12988788e-01
   1.29411384e-01  2.20965304e-01 -9.09340439e-01  9.70751281e-01
  -7.92545926e-01 -1.88205315e-01  3.31118167e-01 -6.05975908e-01
  -5.16439080e-01  2.46344907e-01  5.97476702e-01  8.92727341e-02
  -6.04825262e-01  5.68243482e-01  6.28667644e-01  4.21778034e-01
   8.88085481e-01]
 [ 7.09895181e-01  9.27152612e-01 -7.07216041e-02 -3.00095099e-02
   1.72937492e-01  8.83977754e-01 -2.55433515e-01  1.96484503e-01
   2.27224602e-01  1.20128230e-01 -7.62964306e-01 -1.94175910e-01
  -5.57002291e-01  5.76557390e-01  5.27975285e-01 -6.51243984e-01
   4.47707583e-01  8.49124276e-01 -4.81300980e-02  8.25877781e-01
  -1.25156068e-01 -8.68278946e-01 -2.72588684e-01 -6.21102248e-01
  -7.03334800e-01 -5.77838757e-01  7.59119128e-01  6.35492212e-01
   2.63127361e-01  9.10564979e-01 -7.61899405e-01  2.04544383e-01
  -3.37150715e-01  6.43061321e-01  3.19577476e-01 -1.54857885e-01
   4.32165829e-01 -5.69422237e-01 -9.66334245e-01 -4.38538738e-01
   2.03442172e-01 -7.88881739e-02  4.21333618e-01 -6.70648278e-01
   8.80472124e-01]
 [ 9.10896744e-01  9.61461639e-01 -8.82340153e-01  4.80740296e-01
   2.01304176e-01 -8.22093347e-01  9.78682103e-01  9.76846046e-02
   3.48935817e-01  4.49785943e-01  1.36988912e-01  5.49757225e-02
  -6.98494108e-01 -5.19431004e-01 -1.94837418e-01 -8.64325394e-01
   5.16769799e-01 -3.14615795e-01  9.79477680e-01  7.77122386e-01
   8.77082477e-01  4.78201578e-01 -9.46106323e-01 -2.35208227e-01
  -9.78947208e-01 -8.69535860e-01  3.62785391e-01  9.73318952e-01
   3.32501260e-01 -1.69793966e-01 -9.17678594e-01  7.88573716e-01
   4.13573947e-01 -4.22013528e-02 -5.68775015e-01 -8.36467872e-01
   3.46404408e-01  9.89558378e-01  1.87064633e-01  6.80364898e-01
  -6.94043883e-01  7.52283147e-01  8.96711938e-02  9.67284551e-01
   4.71404282e-01]
 [-8.13833601e-01 -4.15551966e-01 -4.53903666e-01 -8.57667173e-01
   3.60045785e-01 -5.50553874e-01  1.02999449e-01  5.39484667e-01
  -5.76563967e-01 -4.14422920e-01 -2.87165417e-01  9.12734981e-01
   3.20487724e-01  9.01024809e-01 -8.06264818e-01 -4.70947034e-01
  -4.55723998e-01  6.70174347e-01  6.25704775e-01 -4.12511687e-01
   2.99419879e-01 -1.58010723e-01 -8.50696651e-01  4.77613710e-01
   1.70740085e-01 -3.10658805e-01 -4.83993643e-01 -4.16363933e-01
   5.39460836e-01 -1.51369117e-01 -4.22856328e-01 -4.71636816e-01
  -4.46162130e-01  6.84712020e-01 -6.60755426e-01 -4.95826747e-01
   1.83750401e-01  9.50719436e-01 -9.91737683e-01 -5.19967758e-01
   4.53032200e-01 -4.98550946e-01  8.36316272e-01  1.63038163e-02
   5.06414606e-03]
 [ 4.24607736e-01  2.79536062e-01 -4.31394716e-01 -9.80433359e-01
   1.89479131e-01  6.82029965e-01 -2.68194860e-02  5.61590273e-01
  -1.74930275e-01 -2.40388875e-01  7.96891018e-01  7.93452252e-01
   4.40893498e-01 -4.30296521e-01 -3.20201668e-01 -4.29657949e-01
   5.59221582e-01 -9.90854251e-01 -8.30624849e-01 -1.17285470e-01
  -4.97865358e-01  8.11745193e-01  7.61765356e-01  4.33040759e-01
  -5.22647377e-01  8.50581857e-01  9.39236888e-01  1.56478019e-01
  -4.61944746e-01 -3.98181108e-01  2.50664533e-01  5.59688140e-01
  -1.57793246e-01  3.13959435e-01 -1.52760161e-01 -2.96548262e-01
   2.49256674e-01  6.22996682e-01 -1.25637661e-02 -8.93698662e-01
  -3.37313618e-02  9.26821056e-03 -1.26164384e-01 -2.47968556e-01
   5.55756076e-01]
 [-7.99844578e-01 -9.67041132e-01  5.64752008e-01  7.06317404e-01
  -5.52596491e-01  2.53845136e-01 -8.70659419e-01 -5.22158396e-01
  -8.04539278e-02  3.25365139e-01 -5.64596759e-01 -6.01059819e-02
   9.56581969e-01  2.61074776e-02 -5.97373570e-02  3.32282037e-01
   4.24409422e-02 -4.85461784e-01  6.48335827e-01 -7.42429737e-01
  -6.56112437e-01 -6.50176150e-01 -2.36118888e-01 -7.96813500e-01
  -2.20406783e-01  6.19828850e-01 -2.92496410e-01  7.53035606e-01
   9.17664788e-01  6.77456845e-01 -7.69909234e-01  1.24823329e-01
  -7.83123980e-01  7.51736846e-01 -2.99984374e-01  7.95430171e-01
  -7.51645216e-01  2.75723657e-01  7.45050301e-01 -9.97868871e-01
  -3.90560300e-01 -9.42350658e-01  9.94590061e-02 -6.49617230e-01
   1.80051058e-01]
 [-9.89758774e-01 -4.35954453e-01  5.19595839e-01  7.43890028e-01
   1.08424596e-02 -3.25106613e-02 -9.04483569e-01  5.01609836e-01
   6.62668630e-01  7.32067692e-01  6.53563959e-01 -8.39531279e-04
  -9.82467943e-01 -3.17611844e-01  4.80245711e-01  8.21576280e-01
  -4.12083915e-01 -6.26585420e-01  7.68433920e-01 -2.31864415e-01
   2.33812362e-01  1.93951234e-01 -3.53398774e-01  2.80073152e-01
  -1.02818769e-01  3.96919923e-01 -6.76124563e-01 -6.09283782e-01
  -3.44159940e-02  1.25317092e-04  5.36188667e-01 -6.14279727e-01
   9.84338712e-01 -3.49400819e-01  6.92000937e-01  6.36284226e-01
   8.13143955e-01  4.78891874e-01 -3.66678828e-01 -9.44883784e-01
   1.26077287e-01  9.13347395e-01 -6.87982955e-01  5.15469370e-01
  -9.17314176e-01]
 [-6.10902701e-01  4.05125347e-02 -7.02044736e-02  5.79019335e-01
  -7.43883080e-01  7.84830655e-01 -6.47215809e-01 -1.30238609e-01
  -7.01293254e-01  3.77529148e-01  6.28007202e-01 -6.14900676e-01
   1.56277977e-01  4.41733146e-01 -4.97350263e-02 -4.76097716e-01
   4.68258865e-01 -3.01586095e-01  3.42928852e-01 -8.89883292e-01
   7.94090970e-01  4.32903054e-02 -4.49553899e-01  6.87001394e-01
  -1.15052936e-01  3.38499776e-01  9.85293396e-01  7.05338095e-01
   8.67096231e-01  7.24255785e-01 -8.65901180e-01 -4.16369997e-01
  -6.07341654e-01 -1.77978715e-01 -1.61634026e-01  9.16535138e-01
   8.48164094e-01  9.67338147e-01 -2.37335322e-01  9.28174673e-01
   1.80630223e-01  2.13137530e-03 -4.35805894e-01 -6.75267786e-01
  -1.02424964e-01]
 [-3.05405466e-01  4.77113083e-02  8.76594378e-02 -9.78421632e-01
  -4.06887740e-01 -6.63438652e-01  9.17016638e-01 -5.27136551e-01
   6.65310647e-01  4.15510473e-01  1.21317725e-01  4.02236024e-01
  -5.75991480e-01  3.82079243e-01  2.43211605e-01  4.34898617e-01
  -6.94605462e-01 -8.11493253e-01  9.02368901e-01 -1.92103994e-01
   2.86849512e-01  9.20983124e-01  6.74634856e-01 -7.38732525e-01
   1.94871994e-03 -6.36555301e-01 -8.99246463e-01  7.90135142e-01
  -4.67926092e-01 -8.92472831e-01 -1.30639862e-03  5.60222246e-01
   1.13895958e-01 -7.29893002e-01 -2.22846524e-01 -4.84653680e-01
   5.46492084e-02  8.05341678e-01  7.06227515e-01  6.73646529e-01
  -5.68242985e-01 -7.32900358e-01 -7.59515958e-01  7.49248762e-01
  -8.39943189e-01]
 [-2.21172092e-01 -6.36362551e-01 -1.77693409e-01  6.66766457e-01
   9.56896317e-01 -9.91501289e-01  1.19712840e-01  5.03559624e-01
  -2.19910372e-01 -3.82789600e-01  5.95289072e-01  4.45541554e-01
   6.01781893e-01  9.43365490e-01  7.54999786e-01  2.13682773e-01
  -4.51914908e-01  3.75481471e-02  1.37784296e-01  9.03688790e-01
  -1.11113911e-01  8.91051443e-01  1.45573592e-01  8.34745076e-01
  -2.32039493e-01 -9.06080342e-01  7.21023685e-01  4.94461968e-01
   1.03563665e-01  2.34825255e-01  6.76135827e-01  7.99636818e-01
  -1.06377070e-01 -7.94799077e-01  6.56159190e-01  7.30563793e-01
  -5.05446086e-01 -1.01451643e-01  2.86936010e-01 -2.44755145e-01
  -3.84809235e-01  7.87037972e-01  2.07014147e-01  7.54660396e-01
  -8.81406632e-01]
 [ 2.47907518e-01  6.77647854e-01  2.13727306e-01  3.55035802e-01
   3.95971660e-01  8.88940340e-01  7.65777069e-01 -6.60235543e-01
   3.59178077e-01 -9.35197526e-01  5.80912760e-01  6.24117819e-01
  -5.78068905e-01  3.95837801e-02  5.74535680e-01  1.18185314e-02
   9.82466299e-01 -5.21454943e-02 -8.69894736e-02  7.22749154e-01
   8.03020572e-01  3.06933682e-01  6.10283636e-01 -9.95677872e-01
   2.78936350e-01  6.52837739e-01 -9.18393009e-01  1.82131199e-01
  -6.09407723e-01 -1.88292690e-01 -3.17525885e-01  9.52834230e-01
   4.63490736e-01  9.33112798e-01  9.57315694e-02 -5.94214900e-01
  -6.37029999e-01  4.27090061e-01  7.17583670e-01  3.41747380e-01
  -2.72080534e-01 -7.81480946e-01  2.43658348e-01 -6.29406723e-01
  -5.59753931e-01]
 [-4.09027892e-01  4.66667782e-01 -1.48992325e-02  9.32059971e-01
   3.02076963e-01 -5.98497741e-01 -4.42074195e-01 -2.81447309e-01
  -8.81650084e-01 -4.63884687e-01 -2.02663643e-01  2.47887497e-01
   2.45969745e-01  9.75783825e-01  6.35865020e-01 -3.50255950e-01
  -8.51392446e-01  5.41245879e-01  5.43017744e-02  2.79313208e-01
  -9.12186998e-01  4.78647523e-01  8.05487614e-01  3.82330943e-01
  -6.70497991e-01 -4.74430812e-01 -8.31700978e-02  4.70360015e-01
   1.44031341e-01  4.90585948e-01 -7.95299177e-01  7.97649528e-01
  -5.55110626e-01 -3.27816074e-01 -3.36171439e-01 -3.56364508e-01
   6.95223416e-01 -2.04941739e-01 -3.51798626e-01 -6.86846073e-01
   4.63842769e-01 -1.47188343e-01  2.39357806e-01 -7.98757814e-01
   1.77980217e-01]
 [-6.00785099e-01  2.10545632e-01  3.85188074e-01  7.77509050e-01
   4.01657146e-01  8.74726821e-01 -3.20261029e-01  2.80410951e-01
   4.28820701e-01 -5.47901803e-01  6.24522808e-01 -6.32239266e-01
  -4.87583180e-01 -3.40086160e-01  5.88865307e-01  1.55005709e-01
   2.31056685e-01 -9.35534174e-01  9.23048812e-01  3.15991234e-01
   9.20782699e-01 -5.96509669e-01  1.06140012e-01 -5.33103623e-01
  -6.29647652e-01 -7.97788726e-01 -7.94799223e-01 -7.14772293e-01
  -2.88295255e-01 -3.77468421e-01 -3.01873288e-01 -2.70931149e-01
  -7.06308533e-01  6.79220476e-02  8.60525270e-01  9.63953937e-01
  -8.86588957e-01 -5.28706801e-01  6.74358152e-01  7.74555560e-01
  -5.33921531e-01 -5.75029159e-01 -9.66008286e-01  1.82450293e-01
   7.34227979e-01]
 [ 6.26383404e-01  7.75457585e-01  5.72297303e-01 -2.66910860e-01
   8.05821216e-01 -8.21573967e-01  3.75032597e-01 -2.36541233e-01
   5.07014217e-01  4.59679571e-01  8.83043460e-01 -1.77205931e-01
  -2.36561983e-01 -2.80585690e-01 -6.14156519e-01 -2.85441505e-01
  -6.78416723e-01 -4.65460412e-01 -7.66670881e-01 -9.51218291e-01
   8.17593832e-01  7.13825690e-01  4.39550890e-01 -7.78405137e-01
  -4.27095875e-01 -6.57794555e-01 -9.80597514e-01  6.32646381e-01
   6.37877544e-01 -3.91017540e-01 -9.41742747e-01 -2.68367425e-01
  -6.08659036e-01 -5.68400233e-02  7.95364351e-01 -2.34430337e-01
  -7.72932965e-01  2.03275341e-01 -7.41862910e-02 -2.48972221e-01
  -7.98930130e-01  8.14851484e-01  7.69839421e-01 -4.96136162e-01
  -9.09680872e-01]
 [ 7.69113631e-01 -6.83445372e-01  2.43610410e-01  3.20470834e-01
   3.87749101e-02  5.13676456e-01 -2.38003345e-01  4.47738842e-01
  -9.53171450e-01  3.96809239e-01 -5.88712926e-01 -5.90653561e-01
   9.12123849e-01 -1.91280069e-03 -7.09396456e-01  4.16418057e-01
  -1.94259578e-01  1.79146333e-01 -6.80974809e-02  1.64272483e-01
  -8.99293831e-01 -7.05839516e-01 -8.47655063e-02  5.16815652e-01
   2.32835655e-01  4.34624170e-01 -4.59162990e-01 -3.35593981e-01
  -1.48836175e-01  8.93815789e-01 -3.71156895e-01  4.09715604e-01
  -9.28187310e-01 -3.20026939e-01  8.78106235e-01  9.33809039e-03
   3.23872122e-01 -4.25091193e-01  6.17623861e-01  9.19437717e-01
  -1.21762788e-01 -4.71046992e-01  9.06332977e-02  6.69323421e-01
  -8.95875275e-01]
 [-6.77662546e-01 -9.14781037e-01 -9.89248595e-01 -2.42301554e-01
   9.54380489e-01 -6.62728536e-01  3.78397739e-01  1.07254002e-01
  -4.12925099e-01 -8.10516661e-01 -9.76700332e-01 -7.22341395e-02
   9.18815800e-01  1.56706165e-01 -4.03705618e-01  1.31359272e-01
   3.19247291e-01  2.29610351e-01 -2.78301380e-02 -9.70714099e-01
  -6.19342189e-01  7.83664428e-01 -9.87459339e-02 -4.61686847e-01
   1.96280716e-01  1.01334441e-01  8.93115090e-01  9.08411651e-01
   1.85434748e-01 -6.58274142e-01 -4.78145383e-01 -9.36665142e-01
  -1.23245359e-01 -7.52210526e-01  2.96687577e-01 -9.94756935e-01
  -3.63166624e-01 -2.36935885e-01 -3.94369687e-01 -3.87679998e-01
  -4.63480777e-01  8.26385606e-01 -2.51573144e-01 -2.55148356e-01
   1.36295448e-01]
 [-7.08040885e-01  9.87659514e-01 -2.09814872e-01  5.41486771e-01
  -7.46876127e-01 -8.13525224e-01 -4.62276646e-01  3.24668866e-01
  -3.51473913e-01 -9.82149878e-01 -6.24421306e-01 -6.11103281e-01
  -4.74963920e-01 -4.84688109e-01  6.14639971e-01  7.65422248e-01
   2.88937957e-01  2.82608249e-01 -6.73114895e-01  8.24931424e-02
  -2.40842482e-01  4.69971423e-01  7.67420214e-01 -5.74606606e-01
  -4.85286675e-01  2.26532614e-01 -3.12921448e-02 -2.48235371e-01
  -5.04697156e-01 -3.73112990e-01  7.36396120e-01  6.28483155e-01
  -8.49265810e-02  7.40854612e-01  7.75966753e-01  5.77931589e-01
  -7.31087564e-01  1.60978230e-01 -8.55272450e-01  3.25082717e-01
  -1.21367503e-01 -4.01473320e-01 -6.78263425e-02  9.38255646e-01
   4.04931703e-01]
 [-9.39578409e-01  8.93296696e-01  7.51703558e-01 -7.59131522e-01
  -3.98649554e-02 -9.54209458e-01  7.13948258e-01 -7.34085329e-01
   3.01415806e-03 -4.77164266e-01 -8.16294106e-01 -6.38989533e-01
  -4.05682161e-01  6.83493066e-01  1.45702864e-01  1.60972132e-01
  -3.71146976e-01  8.64465199e-01 -2.23534368e-01 -7.37529659e-01
   6.19018939e-01  8.11873297e-01 -3.15051015e-02 -9.18367649e-01
   7.00147508e-01 -2.23671446e-02 -3.34187362e-01 -5.79825801e-01
  -6.87275493e-02  8.47637965e-01  7.92770687e-01 -1.32607073e-01
   9.75057656e-01  7.41492318e-01  7.05831455e-02  3.63684560e-01
  -9.98091212e-01 -5.79154368e-01 -6.94917855e-01  1.66954415e-01
   6.38598900e-01  5.69020945e-01  3.47488489e-02  7.21592179e-01
   2.57849086e-01]
 [ 8.84378506e-01 -7.94816979e-01 -9.51545081e-01 -5.77607647e-01
   9.82060189e-01 -8.53727856e-01  1.91967634e-01  6.83302818e-01
  -6.63159701e-01 -6.12031570e-02  1.71248090e-01  1.94206800e-01
   8.02547713e-01 -5.76830646e-01  7.73513785e-01  1.42351753e-01
   1.81229315e-01  9.36467658e-01  6.15834326e-01 -9.02956481e-01
   2.40165789e-01  9.96397437e-01  7.66516541e-01  6.84154516e-02
  -9.07823794e-01  4.24547049e-01  4.59036372e-01 -8.05734350e-01
  -7.87097026e-01 -8.73494960e-01 -2.49783578e-01 -5.99825543e-01
  -2.21841628e-01 -7.96948796e-01 -8.55705145e-01 -3.35218803e-01
  -5.93760756e-01  6.69527603e-01 -8.58156947e-01 -5.68712520e-01
   8.17086405e-01  4.59791215e-01 -8.08150647e-01 -1.60453398e-01
  -2.74530754e-01]
 [ 6.81953487e-01  8.03872294e-01  7.18731796e-01 -7.36823566e-01
  -9.05501815e-01  4.22359426e-03  3.18535239e-01 -6.01930234e-01
  -6.27827750e-01  1.63854437e-01 -5.05655188e-01 -6.66270206e-01
   2.10194162e-01 -4.68810012e-01  6.91418545e-01  7.47682976e-01
   1.52956470e-01 -3.31477473e-01 -6.95961067e-01  2.77804935e-01
  -4.12710691e-01  6.43299651e-01 -7.14054903e-01  2.31960259e-01
  -6.46547542e-01 -6.91129519e-01  9.06705812e-01  7.50481106e-01
  -2.15704931e-01 -3.62532952e-02 -6.01001930e-01  6.33825010e-01
  -6.96318377e-01 -4.04793212e-01 -3.35015465e-02 -5.14798552e-01
   3.25234480e-01 -8.82441968e-02 -6.41777900e-01 -5.33443436e-01
  -9.63931595e-01 -3.88651904e-01 -1.42881689e-01 -9.27953745e-01
   3.45527067e-01]
 [ 3.96663409e-01  2.87490385e-02 -3.36165203e-01  1.32367802e-01
  -4.44701261e-01  7.24163611e-02 -6.11547215e-01 -5.08061652e-01
  -9.62398149e-01 -1.44008225e-01 -6.40804359e-01  6.27931508e-01
  -1.88052801e-01 -6.52177441e-02 -2.55594389e-01  2.88279447e-01
   3.40184692e-01  3.58331102e-01  8.21587754e-01 -8.48339744e-01
  -5.47417512e-01  7.39176932e-01  5.38865925e-01 -9.25147142e-01
  -1.56302299e-01 -1.94707447e-01 -8.50219929e-01 -7.35911743e-01
  -4.16919861e-01 -6.67511093e-01  7.35017135e-01 -2.78629628e-01
  -4.53690744e-01 -7.45938826e-01  5.00075812e-01 -1.96409771e-01
   7.49188568e-01  6.71246086e-01  4.76009132e-01  7.00982211e-01
   2.66082911e-01 -9.25450221e-01  8.70508564e-01  4.81215259e-02
  -2.43693666e-01]
 [-5.56303124e-02 -4.23967621e-04 -4.03340624e-01 -5.73634495e-01
  -4.28503740e-02 -8.99737237e-01 -9.28578844e-02 -7.65787024e-01
   6.20250757e-01 -2.24121473e-01 -4.41024410e-01 -7.52488151e-01
  -8.87484933e-01 -4.53315963e-01 -3.04470632e-01  9.08104085e-01
   4.53312418e-01 -7.90366144e-01 -2.03691502e-01 -9.92638245e-01
   4.81079571e-01  8.99885481e-01 -1.55753356e-01 -7.99319629e-01
  -5.41504714e-01  2.77790045e-01  8.18540699e-01  1.10752543e-01
  -2.48213018e-01  6.74097911e-01  4.13208185e-01 -9.85071227e-01
   1.86873934e-01  4.98154815e-01 -9.81015401e-01 -6.64396001e-01
   4.96849140e-01  7.13235982e-01  8.03742256e-01 -2.95881342e-01
  -6.55482421e-01  7.71585441e-01  5.67474351e-01 -2.19206830e-01
  -8.18067387e-01]
 [-8.04279384e-01  6.91778040e-01  5.38187790e-01  8.64571558e-01
   3.77239205e-01 -5.62317829e-01 -9.23032410e-01 -8.05592621e-01
  -6.27390289e-01  2.50596903e-01  5.57676362e-01  7.41227678e-01
  -9.34382427e-01 -7.16831759e-01  4.06191686e-01 -2.52637683e-01
  -5.82272467e-01 -1.52216829e-01  3.06837153e-01  8.08464412e-01
  -5.73633847e-01 -4.49337686e-01  3.87072859e-01 -8.70336998e-01
   6.79840333e-01  3.81135607e-01 -2.80612265e-02  3.30605872e-01
  -9.18666041e-01 -8.75329116e-01  4.30049571e-01  1.86005161e-01
  -5.34775902e-02 -4.79317180e-02  9.87057498e-01  9.41639123e-01
  -1.16139511e-02  9.74847755e-01  3.20888489e-01 -8.05979357e-01
  -3.15896424e-01  1.39492907e-01 -2.85615624e-02  3.87798699e-01
   2.37543894e-01]
 [ 5.70986730e-01  2.41435817e-01 -5.82378880e-01  4.01315104e-01
  -1.83785775e-01  3.76740615e-01  3.85634542e-01  9.91862622e-03
   1.57550867e-02  5.33245842e-02  8.84976094e-01  4.72861915e-01
  -2.48138247e-01  1.60942285e-01  6.49649297e-02  1.85878118e-01
  -9.02288760e-02 -2.26099107e-02 -2.55469934e-01 -1.95780697e-01
  -2.71018420e-02  1.67776393e-01 -5.23223922e-03 -6.49239428e-01
   6.62289722e-01 -3.41563059e-01  4.00239657e-01 -1.67590974e-01
  -3.09528713e-01 -7.09401858e-01  9.70367388e-01 -4.71641157e-01
  -9.05174597e-01 -2.94737765e-01 -5.30231068e-02 -3.39750158e-01
  -6.72968062e-01  2.89661770e-01 -1.00627242e-01  9.17948342e-01
   2.53990438e-01  4.22903420e-01  6.73548407e-01 -5.86105863e-01
  -2.85462924e-01]
 [-6.20335464e-01 -3.24674482e-01  1.20868450e-01  4.92041969e-02
   1.70071506e-01 -3.57597627e-01  1.47757054e-01 -6.36093101e-01
   6.74698976e-01 -6.70857329e-02 -4.38995165e-01  2.71831324e-01
  -6.88524416e-01  2.07147744e-01  4.25929221e-01 -2.92818624e-01
   3.40930511e-01 -3.33216456e-01 -2.56556089e-01  5.03532987e-01
   7.03926379e-01  2.97468529e-01 -4.25793191e-01  9.31554560e-01
  -5.95267936e-01  7.91896902e-01 -9.70036647e-02  7.55007259e-01
  -4.97299649e-01  9.83709943e-01 -2.39259243e-01  3.81936987e-01
  -8.42427937e-01 -9.51100164e-01 -2.50738457e-01 -6.12628184e-01
  -3.51841591e-01  4.02094041e-01  4.46689857e-01 -5.42982237e-01
  -2.00270216e-01 -5.13267358e-01  3.38465083e-01  1.01184256e-01
   5.37365626e-01]
 [-3.71673940e-01  7.68873043e-01 -6.36950092e-01  2.67433864e-01
   1.95579832e-01 -1.75556092e-01 -8.18921565e-01 -1.69873910e-01
   9.73856380e-01 -5.90736473e-01 -7.55827919e-01  4.15431541e-01
  -1.65972677e-01 -3.85018236e-01 -8.70548209e-01 -5.98955515e-01
   4.31766084e-01  9.59345959e-02 -8.94092259e-01 -7.43999321e-02
  -1.56760206e-02 -5.47938099e-01 -5.77100698e-01  4.12358115e-01
   9.44477624e-02 -3.90195460e-01  6.81922795e-01 -3.41162960e-02
   8.35669460e-01  7.83496629e-01 -5.06329219e-01  2.73003148e-01
   1.68635240e-01 -4.87735822e-01  6.04557972e-01 -8.04152473e-01
  -7.24263675e-01  8.08386813e-01  7.10897555e-02  3.25865962e-01
   3.77933859e-01 -9.10106130e-01  5.33935456e-01  5.81770142e-01
   8.35186610e-01]
 [-6.64733029e-02 -9.08888857e-01 -2.06052465e-01  2.38783996e-01
  -1.16607633e-02 -1.89657551e-01 -7.71144036e-01 -4.31853088e-01
   9.70094990e-01  2.47753031e-01 -6.42208801e-01 -4.21493920e-01
  -6.66517193e-01  7.73540224e-01  8.38848229e-01  4.83686048e-01
   8.28915583e-01  8.97664699e-01  3.65317107e-01  8.72043919e-01
   4.77839057e-01  3.12021401e-01 -4.05749263e-01 -4.86098884e-01
   4.27106164e-01  6.61222932e-01  7.92216941e-02  2.40356286e-01
  -9.59521486e-01  5.63518758e-01  6.03383339e-01  4.11538908e-01
  -6.93829844e-01 -6.26590475e-01  5.99074541e-01  4.98327644e-01
  -2.80595339e-01  9.65457965e-01  5.88320970e-02  2.53085476e-01
  -7.47010138e-01 -2.00472695e-01 -6.78383762e-01 -6.37150690e-01
  -5.85667940e-01]
 [-3.50537121e-01 -1.52759523e-01  8.56971889e-01 -2.17538557e-01
   7.19882263e-01  9.65546520e-01  6.41783179e-02  5.14878726e-01
  -2.80420274e-01 -7.71943682e-01 -2.00774055e-01  3.35211468e-01
   8.74847310e-02  5.45226654e-01  8.70490335e-01  8.04921988e-01
   9.17781829e-01  8.49054876e-01 -7.49830155e-01  9.39831759e-01
  -7.21300782e-01  4.66865512e-01 -9.66755629e-03  3.35389276e-01
  -8.43569397e-01 -8.71001334e-01  8.68540572e-01 -2.30918952e-01
  -9.81332870e-01 -8.34508489e-01 -2.05144347e-01 -2.15182874e-01
  -8.08157369e-01 -9.00402145e-01 -8.51168178e-01  5.97088032e-01
   3.71659080e-01  3.28125986e-01 -3.50381627e-01 -4.16256800e-03
  -4.73486911e-01 -7.62721263e-02 -1.59141390e-01  5.55518602e-01
  -4.93543740e-01]
 [ 2.89680625e-01  4.21509225e-01  6.35641398e-01  4.23089782e-01
   7.09287895e-02 -1.84787578e-01  1.83571034e-01 -4.97996409e-01
  -8.02191684e-01  4.75667293e-01 -4.45185290e-01 -7.77565597e-02
  -4.89884071e-01 -3.77716422e-01 -2.46876349e-01  3.59055592e-01
   4.32740315e-01  9.83288787e-01 -7.22327874e-01  2.74257580e-02
  -1.91769145e-01  9.85021639e-01 -3.34661443e-01  2.88942113e-01
  -2.11131624e-01  5.02846765e-01  7.77946959e-02  5.49331351e-01
  -8.10484411e-01  5.07282927e-01 -7.17792473e-01  6.38434964e-01
   8.89349900e-01  6.36571023e-01  2.31915232e-01  5.55299111e-01
  -1.34214785e-01 -8.57958514e-01  7.22978774e-01 -1.06557644e-01
   1.24467004e-01 -4.51005329e-01 -8.39340558e-01 -3.79064230e-02
  -6.86633971e-01]
 [-8.44134229e-01  3.35473608e-01 -5.00872624e-01  5.29868719e-01
  -1.41344503e-01 -6.09776409e-01  7.26493922e-01  1.83668990e-02
  -2.94075208e-02 -9.65124745e-01 -8.16541290e-01  3.70469599e-01
   8.66739795e-01  8.45987259e-01 -2.92117937e-01  8.64191690e-01
  -8.62137292e-01  3.45153513e-01 -1.33027179e-02  1.49423516e-02
  -7.36859153e-01 -5.43541298e-01  4.85562586e-01  4.65157029e-02
  -9.42007721e-01  4.54640667e-01 -4.76276324e-01  5.86573314e-01
   6.74437945e-01  3.26971874e-01 -8.89011230e-01  7.10164417e-01
  -1.77425815e-01 -9.98997755e-01  7.96782492e-01  8.21110215e-01
  -2.07412313e-01  9.07837034e-01 -9.76375219e-01  1.44987518e-01
   9.20207974e-01  3.20868485e-01  8.28986831e-01 -2.12071836e-01
   6.66276539e-01]
 [-2.88709474e-01  2.25581112e-01  2.76625281e-01 -7.66466523e-01
   2.41419170e-01 -1.41866062e-02  9.35102869e-01  2.03259519e-01
  -2.37722358e-01  1.40801752e-01  3.93691748e-01 -8.60462146e-01
  -6.42393659e-01 -9.54348313e-01 -3.68767811e-01  7.20837440e-01
  -3.86802938e-01 -2.08268069e-01  8.66577448e-02 -1.68217502e-01
  -3.32692705e-01  4.79733944e-02  8.90070320e-01  9.97851826e-01
  -2.35958706e-01 -4.71073910e-01  8.79328855e-01 -9.00515042e-01
   8.48620614e-01  3.51169250e-01  6.75156188e-01  3.85820746e-01
  -6.77458293e-01  6.06354078e-01 -6.74508464e-02 -2.46701024e-01
   3.15226849e-01  5.57602736e-01  1.77056560e-01  6.62475928e-01
  -4.45649822e-01  8.13258353e-01  2.72287974e-01  3.13759998e-01
   3.05412701e-01]
 [-9.30426588e-01 -7.18249912e-01 -1.82508000e-01 -9.63875370e-01
  -6.58694199e-01 -2.96015585e-01  5.51688978e-01  7.51730364e-01
   3.71328264e-01 -3.35646044e-01  6.96188273e-01 -9.92564203e-01
  -1.35036114e-01 -1.53848836e-01  7.38056854e-01 -3.66734145e-03
   1.95024670e-01  8.71195436e-02  8.96047131e-01  2.57901613e-01
  -2.96594647e-02 -1.55776663e-03  6.25290079e-01  9.40214253e-01
  -1.21139288e-01 -5.30924442e-01  5.09787093e-01 -2.71759760e-01
   5.58752831e-01 -3.47896522e-01  6.46472127e-01 -2.04888899e-01
   1.72183631e-01  2.37921600e-01 -3.11336174e-01  7.61564663e-01
   2.19793576e-01 -2.41712710e-01 -4.21845819e-01  2.39949941e-01
  -3.03045778e-01  7.54828788e-01  2.53571234e-01  7.57623131e-01
   1.77347301e-01]
 [-5.27677585e-01  6.35369636e-01  5.38762019e-01  1.69106897e-01
  -3.53291289e-01 -2.81147249e-01 -8.87012380e-01 -3.18542761e-01
   5.50865310e-01  6.49899179e-01  8.10081899e-01  1.21868991e-01
   7.48148049e-02 -7.64351526e-01  9.07779571e-01 -2.11242673e-01
  -7.54617772e-01 -3.61091559e-01 -8.18869049e-01  8.02838369e-01
   1.82636217e-01  6.91496606e-01 -1.59465715e-01 -5.98601483e-01
  -7.95974450e-01  4.84921924e-01  9.08232647e-01  7.41055073e-01
   8.31752101e-02  1.22852540e-01  9.45251830e-01  8.41309065e-01
  -8.35552236e-01  1.20760369e-01 -9.56603200e-01 -7.94930080e-01
  -7.90988422e-01  5.13266121e-01  1.11832920e-01 -8.42744186e-01
  -4.88316247e-02 -6.70665067e-01 -7.21583750e-01 -7.70356672e-01
   4.71338030e-01]
 [-2.27524380e-01 -6.43514430e-02 -1.98542140e-01  3.96848281e-01
   6.13047045e-01  5.89466919e-01 -5.29440184e-01  9.54781583e-01
   1.53201041e-02 -6.94948153e-01  4.92139408e-01  1.60318239e-01
  -2.65170652e-01  1.15178910e-01 -3.83849313e-01 -7.12889427e-01
  -1.00344123e-01  2.03291017e-01  5.53617763e-02  2.73997824e-01
  -9.05175080e-01 -1.56825968e-01 -9.16656656e-02  4.50429777e-01
  -2.67720567e-01  8.61199325e-01 -3.23383424e-01 -1.83099499e-01
  -8.62492672e-01  4.11350453e-01 -2.34083815e-01 -1.47048579e-01
  -6.33891485e-01  9.60628267e-03  4.92272754e-01  1.27044332e-01
   1.25964033e-01  1.37010157e-01 -9.55246307e-01 -3.77237578e-01
   6.33673840e-01 -1.33519939e-01  8.28532409e-01 -4.48857686e-01
   7.45673577e-01]
 [-9.66773494e-01  4.01513904e-01 -7.43095588e-01 -7.51941086e-01
   9.34352294e-01  1.93336681e-01  3.67169759e-01 -6.34454709e-01
   8.26227480e-01 -1.21696778e-01 -6.87594854e-01 -8.94687414e-01
   7.02477761e-01  8.54004920e-01 -9.15094840e-01  8.43825182e-01
   5.81960271e-01 -5.73510326e-01 -2.51613842e-01 -5.83384694e-01
  -8.45224873e-01  2.27260809e-01 -1.54244329e-01 -2.88606296e-01
   1.82558417e-01  4.37810706e-01 -4.69207122e-01 -6.45796397e-01
  -3.21337125e-01 -6.73310191e-01  8.61556320e-01  9.61144076e-01
   8.27886615e-01 -9.10260325e-01  6.91605597e-01 -6.70863522e-01
  -2.57753203e-01  3.12694394e-01 -8.46427035e-01  4.20114551e-01
   5.66385772e-01  2.92524030e-01 -3.46136980e-01 -8.71807697e-01
  -2.24921933e-01]
 [ 8.67647031e-01  5.98612276e-01 -4.94728933e-01  2.10865719e-01
  -3.61149818e-01  6.08793222e-01  3.69411484e-01  1.91787721e-01
   1.95924417e-01 -8.01955099e-01  6.56751231e-01  9.68004904e-01
  -9.57722081e-01  5.10246935e-01  8.88975987e-01 -4.04566040e-01
  -4.86945609e-01  6.58404102e-01 -3.12962962e-01 -7.30976839e-01
  -7.68676047e-02 -7.08321959e-01  1.21775013e-01 -7.04250241e-02
  -1.30998136e-01 -2.85553051e-01  3.31446695e-01  9.79763977e-01
   4.30277901e-01  3.88350719e-01 -6.69252162e-01  2.98595406e-01
  -9.02349862e-01  4.98484221e-01  4.89791986e-02  2.69848835e-01
   2.11653359e-01  5.84846507e-01 -1.00360737e-01 -1.80338859e-01
   8.75487732e-02  7.85770346e-01 -2.46012363e-01 -5.77589715e-01
  -4.34532312e-01]
 [ 5.16521281e-01  9.91881944e-01 -3.03058112e-02  8.30565418e-01
  -6.22538974e-01 -1.31562962e-01  1.32863103e-01  4.33221322e-01
  -9.19446367e-02 -7.93004581e-01 -5.50208521e-01  7.54499209e-01
   3.44196057e-01  6.16054382e-01  9.29796463e-01 -7.88268034e-01
  -4.70690764e-01  6.04873061e-01  7.67442198e-01  2.30045868e-01
  -6.66114418e-01 -6.13965519e-01  1.01239851e-01 -3.77081926e-01
   3.28852793e-01  2.31047054e-02 -1.03248062e-01  2.04810586e-01
   6.26549002e-01  2.95855078e-01 -5.61860160e-02 -9.84863095e-02
  -3.33228500e-01 -8.00054156e-01 -8.93866308e-01 -2.63236411e-01
  -8.39458086e-01  1.26793633e-01 -8.82590067e-01  4.80992339e-01
  -3.70115627e-01  9.64023944e-01  3.51047324e-01 -3.36286421e-02
   6.01540503e-01]
 [-9.75602400e-01 -6.11520828e-01 -5.84891659e-01  6.03202287e-01
   1.67193784e-01  1.50896605e-01 -4.77243976e-01 -6.39589692e-01
   6.77915921e-01  2.49988319e-01 -3.64282389e-01  6.45770786e-01
   7.41032039e-02  6.38377180e-01  2.84181505e-02 -3.33706638e-01
   3.80987693e-01  9.92348312e-01  8.55519737e-01  1.36343663e-01
  -4.55413004e-01  1.34144328e-01 -8.99294257e-02  2.65870584e-01
   3.91914381e-01  3.36806443e-01 -9.34928850e-01  8.74140892e-01
  -8.76308788e-01  2.80133382e-01 -1.26374769e-01  6.61934343e-01
  -1.41535725e-01  7.02254332e-01 -2.70217134e-03 -6.09038278e-01
  -7.38555259e-01  8.63097948e-01 -5.56881709e-01 -6.78398036e-01
   1.25990513e-01 -1.46638981e-01  6.33823747e-01 -8.46117239e-01
   2.65399010e-02]
 [-3.96811701e-01  5.03035001e-01 -5.06774404e-01 -7.41125714e-01
  -7.09872121e-01  3.86426496e-01  8.76090259e-01 -6.16342287e-01
  -1.00574199e-01 -2.66294715e-01  8.51761001e-01 -6.29046184e-01
  -9.78190070e-01  1.55345511e-01  7.46742428e-01  7.39771950e-01
  -3.24606424e-01 -3.81627415e-01 -8.91277402e-01  4.70489301e-01
   6.76913797e-01  9.71856510e-01 -4.09304206e-01 -1.03056503e-01
   7.32891674e-01 -1.75732987e-01  5.84943090e-01 -9.43358449e-01
  -8.24119345e-01 -9.02830484e-01 -2.61791178e-01  7.44271795e-03
  -8.53554879e-01  3.41455193e-01 -9.55460002e-01 -8.80368435e-01
  -3.47861528e-01 -1.25274355e-01 -5.95815292e-01  5.10293717e-01
   7.57833800e-02 -6.18341014e-01 -1.32600789e-01  3.20083468e-01
   5.24517499e-02]
 [-9.03003157e-01  3.78486114e-01  3.80535066e-01  7.29227793e-01
   9.01992125e-01 -3.74918730e-01 -9.23530484e-01 -2.13384165e-01
   3.51995695e-01  7.02517692e-02 -4.64866410e-01 -2.39771253e-01
   8.98727949e-01 -4.80683402e-01  3.15308227e-01  7.06393664e-02
  -9.41460913e-01  7.79167947e-01  3.73854683e-01  2.79946531e-01
   2.90290121e-01 -2.44020987e-01  5.75757047e-02 -3.28584109e-01
   5.46910316e-01 -9.86385872e-01 -1.19625575e-01 -6.65792837e-01
   3.17461435e-01  2.80874700e-01  7.30989384e-01 -5.64219939e-01
  -4.68722106e-01  8.56150574e-01  4.47108467e-01 -2.05017357e-01
  -6.65925859e-01  8.71996414e-01  7.68783484e-01 -2.04330081e-01
   9.42723632e-01  9.27752936e-01 -1.13539629e-01 -7.67890924e-01
  -7.48409617e-01]
 [ 6.77931894e-01 -4.61842502e-01  3.49039597e-01  3.38900437e-01
   5.65385455e-01  4.15803255e-01 -7.22045048e-01  2.66066146e-01
  -5.41229136e-01  7.65028472e-01 -5.80166381e-01  2.81085391e-01
   6.83036723e-01 -5.25799440e-01 -5.34054921e-01  9.65815942e-01
  -2.29358505e-01  9.49121852e-02  5.52043194e-01 -9.01748070e-01
  -3.55669165e-01 -3.51246313e-01  8.01103553e-01 -6.57790379e-01
   3.82730667e-01 -7.50046703e-01  1.34641285e-01  7.27113517e-01
   3.64846234e-01  5.46658757e-01  6.09003780e-01 -7.66535481e-01
  -8.12233415e-01 -2.10730861e-01  9.38586571e-01  1.52729922e-01
  -5.50446021e-01 -5.05600897e-01  8.43454787e-01  6.66956629e-01
   2.39548424e-01 -5.88864329e-01 -6.73960144e-01 -8.88847360e-01
   5.50162396e-01]
 [-4.32527729e-01  8.15654411e-01 -6.75405951e-01 -1.92791161e-01
  -5.46488856e-01 -5.56154865e-01  8.43046714e-01 -7.69803789e-05
   4.14836665e-01  7.34144582e-01 -5.68867383e-01  3.34277205e-01
   1.28569271e-01  8.87646635e-02  3.72688602e-01 -5.60372998e-01
  -8.09227474e-01 -8.32576028e-01  2.67922135e-01 -3.79897821e-01
   6.72180613e-01  1.91354401e-01  7.55959969e-01  8.87938146e-04
   8.74177356e-01  6.58392045e-01  1.30019927e-01 -4.70075493e-01
  -4.05387194e-01 -9.29825545e-02 -1.06957301e-01  8.83718714e-01
   2.25224494e-01  3.71751567e-01  5.66913266e-01 -6.39647208e-01
  -6.33741678e-03 -3.80747687e-01  6.41755752e-03  6.66024282e-01
  -6.47072671e-01 -9.68957671e-01  6.79885802e-01  8.87727981e-01
  -3.70485420e-01]
 [-5.20191964e-02  1.35120462e-01 -3.82925576e-01  4.24356181e-01
  -9.46773717e-01  1.99804926e-01 -1.57398569e-01  3.19835325e-01
   4.57961809e-02  5.11087770e-01 -4.41616577e-01  3.51698442e-01
  -2.36380603e-01 -4.06348861e-02 -4.22850683e-01 -9.59112103e-01
   7.07302877e-01  8.81646568e-01 -1.61223617e-01  6.53947487e-01
   9.68113890e-01 -3.09561358e-01  2.92956660e-01 -6.14445471e-01
  -7.43371601e-01  2.04796444e-02 -3.26344686e-02  3.73870828e-01
  -1.17138341e-01 -5.14909620e-01  7.72473231e-01  2.76934608e-01
   3.20382200e-01 -1.61002333e-01 -4.52592865e-01  6.09852147e-01
   2.06054404e-01  1.85489860e-01 -7.15056366e-01 -1.64917100e-01
   4.07873961e-01 -3.91182959e-01 -2.62750857e-02 -2.76310822e-01
  -8.59872110e-01]
 [ 6.48180051e-02 -3.18594001e-01  1.29351471e-01  1.86816569e-01
   3.43463748e-01 -5.60361090e-01 -6.45355975e-01  4.43361504e-01
   2.54693695e-01  7.07420549e-01  7.41521838e-01 -5.46033144e-01
   4.48332343e-01 -5.94861802e-01 -2.50634463e-02 -3.81673170e-01
   6.40870152e-01 -9.15413362e-01 -5.23506428e-01 -2.90876583e-01
   8.05573515e-01 -5.63317432e-01  8.66212452e-01  7.57773278e-01
  -1.39738729e-01 -2.03565027e-01  5.61328197e-01  1.45846550e-01
  -4.16746593e-01 -7.90705362e-01  9.37110334e-01  3.33850861e-01
  -3.09842034e-01 -8.95622121e-01 -2.74621234e-01  4.95993443e-02
   6.36923473e-01 -4.65538192e-01 -6.41296917e-01 -9.19021713e-01
   8.74883126e-01 -9.51431370e-01  1.48693681e-01 -5.76884420e-01
   3.17231859e-01]
 [ 5.47323156e-01  6.02241382e-01 -9.78574516e-01  7.59772369e-01
  -6.35346400e-01  5.80521842e-01 -8.17438152e-01 -4.28958290e-01
  -6.11425758e-01  7.74885655e-01  1.90968671e-01 -5.66229198e-01
  -9.44841467e-01 -5.07926334e-02 -2.99062769e-01 -8.04822123e-01
   8.77555021e-01 -7.60845403e-01 -7.89937973e-01  6.19734415e-01
  -7.05956538e-01  4.32784886e-01  3.84290783e-01  1.97124521e-01
  -2.03704873e-01 -3.38611266e-01  9.85319361e-01  6.15227530e-01
   6.96173062e-01 -4.18211699e-01 -1.51901012e-01 -5.15428624e-01
   5.73166446e-01  3.60196929e-01 -5.88994280e-01 -2.32805145e-01
  -8.77809789e-01  6.49107100e-01 -2.37477865e-01 -7.35405059e-01
   7.52757752e-01  2.14326016e-02 -3.50197377e-01 -7.93062279e-01
   1.82512521e-01]
 [ 9.50442122e-01 -5.78186948e-02  3.89009843e-01  5.71971079e-01
   7.38681935e-01  5.66178903e-01 -4.46172456e-03 -5.16168825e-02
  -7.04056822e-01 -3.57188532e-01  7.65968910e-01 -7.55489030e-02
   8.68551267e-02 -6.59317566e-01  8.72226470e-01  1.73249263e-01
   6.52680252e-01  4.58052886e-01 -4.64855746e-01 -2.81987367e-01
   8.62805775e-01  8.43426898e-01 -2.07132669e-01  2.01869524e-01
  -2.97653362e-01 -2.55842358e-01  6.22356320e-01  5.06144660e-01
  -5.47074247e-01  8.33840367e-01  8.63618835e-02 -4.69790123e-01
   1.82105024e-01 -2.43199150e-01  9.63840462e-01 -5.06690806e-01
   7.53354751e-01 -3.31609561e-01  9.16140290e-01  1.90488340e-01
   3.43042701e-02 -7.03448185e-01 -4.39911598e-01  7.87479798e-02
  -9.10554484e-01]
 [ 9.27221823e-01  3.75063761e-02  5.82358141e-01  7.40065312e-01
  -6.39394600e-01 -6.97426016e-01  1.74075207e-02 -9.84887118e-01
   5.59591229e-01 -1.55577049e-01  9.24642279e-01 -8.96718107e-01
  -3.40206784e-01  1.53980304e-01  3.41278845e-02 -3.25282953e-01
  -5.89097793e-01  2.03299470e-01 -9.95863098e-01  4.81528958e-01
  -8.32799866e-01 -3.75149716e-01  3.92981666e-01  8.13625140e-01
   4.49319957e-01  4.37734866e-01 -3.36929727e-01  4.76156471e-01
  -5.50014273e-01 -7.41564611e-01  2.82594084e-01 -5.31027877e-01
   1.56854571e-02 -2.39076251e-01  6.04823112e-01 -1.46106495e-01
   9.63826881e-01 -6.81083944e-01 -5.55540713e-01  7.07604177e-01
   6.57570561e-01  9.15029733e-01 -3.05466142e-01  1.62724298e-01
  -5.65817234e-01]
 [ 7.88811897e-01  8.37128910e-01 -4.44350019e-01  9.11810012e-01
  -9.74509717e-01 -7.25982585e-01  5.26074933e-01 -1.50568521e-02
   6.65816873e-01  3.16661851e-01  2.24018423e-01 -7.48637162e-01
  -4.53302063e-02 -9.17654543e-01 -6.65130462e-01  6.05181345e-01
  -8.69753900e-01 -2.84825183e-01 -4.34023460e-01 -7.90843924e-01
   4.87352899e-02 -5.10290494e-01 -3.41414964e-01 -8.79151728e-01
   8.28977522e-01 -4.56682533e-01  5.91269576e-02  5.79626926e-01
  -1.86992880e-01 -8.33712908e-01 -3.30706627e-01  5.96200159e-01
  -3.52417191e-01  2.64505994e-01 -4.55693325e-01  4.94033576e-01
  -7.79051950e-01  4.53163094e-01 -3.91770654e-01  9.39996408e-01
  -3.83161074e-01  4.00321229e-02  9.51829005e-01  5.42711774e-01
   7.59907963e-01]
 [-1.49732042e-01 -3.07310584e-01  5.67968078e-01 -6.41656643e-01
  -2.96909157e-02  4.64405337e-01  2.31699021e-01  1.86362457e-01
   6.30989181e-01  4.19554486e-01  6.69198439e-01  5.99933229e-01
  -6.93293546e-01 -9.51959159e-01 -2.11358579e-01 -6.85847370e-01
   2.83749098e-01 -6.61999844e-01 -5.25094644e-01 -4.40178238e-01
   8.58830660e-01  3.50566425e-02  3.33759864e-01  7.27687623e-01
   7.56276282e-01 -7.40111461e-01  3.23839304e-01  1.01824293e-01
   5.98420335e-01  2.75511762e-01  4.36690354e-01  1.51324512e-01
   6.83630902e-01 -3.91759134e-01  7.55392193e-01  9.85291716e-01
  -4.26115256e-01  5.04249063e-01 -4.95467063e-01  4.33007967e-01
   4.14984538e-01 -6.85813644e-01 -3.70914102e-01  5.92183841e-01
  -5.82975246e-02]
 [-6.57322044e-01  2.72691910e-01 -8.40356156e-01 -2.34150581e-01
   7.84488118e-01 -8.78129381e-02  7.96787489e-01  8.64853225e-02
  -6.44371825e-01  6.94243363e-01  1.15532699e-01  9.53737107e-01
  -8.44107439e-01  3.64620429e-01 -1.42391954e-01 -1.86569534e-02
   2.12835230e-02  4.62911622e-01 -2.37343205e-01  2.54601964e-01
  -3.83164092e-01  3.76897726e-01  9.38632474e-01  6.49070959e-01
  -9.56029138e-01 -7.29220367e-01  3.04597944e-01  2.50043938e-01
  -6.63037357e-01 -3.53090577e-01 -4.81006648e-01 -1.11486650e-01
   5.04334908e-01 -5.44716771e-02  5.50561778e-01 -7.87630428e-01
  -1.03144823e-01  8.23312450e-02  5.51393923e-01  8.45370698e-01
   2.19453693e-01  1.72024195e-01 -2.82337861e-01 -1.47717810e-01
  -7.27398045e-01]
 [ 6.48221421e-01 -1.80286325e-02 -8.07372858e-01 -3.76927696e-01
  -7.09222890e-01  7.06411412e-01  6.42456362e-01  6.87827336e-01
  -8.23652471e-01  7.64602202e-01  2.64537896e-02 -9.22683172e-01
  -4.02352121e-01  4.73342571e-01  9.51263387e-01  5.94376130e-01
  -2.45230708e-01 -3.44883172e-01 -2.47630336e-01 -7.28220578e-01
  -6.62763516e-01 -2.13218713e-01 -7.30647872e-01 -2.56700632e-01
  -7.85321728e-01  8.65857618e-01 -6.78403964e-01 -8.25670466e-01
  -9.59468515e-01  4.95909938e-01  3.65040764e-01  6.83900747e-01
   4.43328801e-01  5.95980657e-01 -2.05099579e-01  5.16003450e-01
   4.03291730e-01 -8.57609863e-01 -6.77884348e-01 -9.19656215e-01
   3.06514379e-01 -1.28588844e-01 -7.72513739e-01 -5.68809454e-01
  -4.38901209e-01]]
[[-8.01644212e-01 -4.13334505e-01  7.81977474e-01  9.69183472e-01
   1.07783603e-01 -7.58716465e-01  9.91427839e-02 -2.54641599e-01
   4.36114624e-01  9.44874838e-01 -5.96157632e-01 -2.20175110e-01
  -4.55192495e-01 -1.39794229e-01  9.98719549e-01  5.33542118e-01
   8.80782093e-02  6.22496383e-01  6.00594246e-01 -2.28185062e-01
   6.97023347e-01 -3.43286034e-01  9.01503263e-01  4.71531520e-01
   6.18685105e-01  8.56704816e-01  7.61925926e-01  4.85964826e-01
   6.70210032e-02 -6.28517934e-01]
 [ 4.16229941e-01 -3.97366164e-01  8.01711966e-01 -5.94380671e-01
   8.87140604e-01  8.21517912e-01 -9.13131430e-01  1.01154162e-01
  -2.49832216e-01 -1.24854061e-01 -3.90024717e-01 -5.88005017e-01
   6.22400963e-01  4.50855787e-03 -3.34410054e-01 -1.18955974e-02
   6.56014383e-01 -2.68464556e-01 -7.24011541e-01 -3.32669203e-01
   2.11591175e-01 -1.66755644e-02 -2.05935032e-01  3.99150776e-01
  -2.87122074e-01 -7.02912928e-01  4.44041260e-02  3.06801112e-01
   9.74095156e-01  1.43663012e-01]
 [ 6.32398994e-01 -6.92209029e-01 -9.53447412e-01  7.65674376e-01
   2.60067815e-02  6.36353867e-01 -2.22230479e-01  3.04863947e-01
  -9.72835554e-01 -8.67953756e-01  9.48014637e-01  7.26639938e-01
  -7.40248258e-01  8.20450987e-01  2.74125457e-01 -5.33581478e-01
  -9.48989560e-03 -7.38317318e-01  3.17655047e-01  1.48443122e-01
   2.36974778e-01 -6.69086228e-01  3.71396148e-03 -7.56726844e-01
   6.20617820e-01  8.01101784e-01 -1.94692315e-01  2.18531454e-01
  -9.93372051e-01 -1.44627034e-01]
 [ 8.85796443e-01  8.88949353e-01  1.20930855e-01 -3.43158812e-01
  -8.83930052e-01 -3.51999648e-01 -5.64260966e-01  7.31877938e-03
   2.84409994e-01  4.41481713e-01 -4.50999061e-01 -9.73707237e-01
   5.30199200e-01  5.54065588e-01 -7.13487178e-01  6.09252527e-01
  -5.79451405e-01  5.43450020e-01  4.42129946e-01  9.88227688e-01
  -5.73605775e-01  5.93483227e-01 -1.03917658e-01  2.19457261e-01
   5.68340995e-01 -7.15930820e-01 -3.89736178e-01 -5.24575973e-01
  -2.63022215e-02 -3.62884921e-01]
 [ 1.41629997e-01 -3.01135819e-01 -6.02228349e-01  9.84519834e-01
  -3.57797867e-01  4.11965679e-01  7.22288779e-01  5.71027500e-01
  -8.53862735e-01  3.60389382e-01  3.83748861e-01  2.72262812e-01
   1.14397341e-02 -8.02203406e-01  4.82152911e-01  2.33242392e-01
  -3.33559877e-01  2.03268263e-01  6.46522929e-01  5.02784346e-01
   6.52982880e-01 -8.63640454e-01  4.72436244e-01 -6.27246753e-02
  -8.99862707e-01  5.21676469e-01  3.84382380e-01 -4.80064835e-01
  -4.07867555e-01 -2.14185485e-01]
 [-4.49714560e-01 -9.37915765e-01  9.69971493e-01 -5.72847200e-01
  -1.28134541e-01  6.07636346e-01  4.98224574e-01 -3.90692679e-01
   6.69606684e-01 -4.77382481e-01  8.05964680e-01 -8.20701534e-01
   3.10214098e-01 -6.90639583e-02 -4.03208740e-01  8.99881870e-01
  -2.67630719e-01 -6.81309897e-01 -4.18283340e-01  3.61975478e-01
  -2.89304924e-01  3.52591465e-01 -5.80984796e-01 -6.32561608e-01
  -5.74821562e-01  2.95238069e-01 -2.28032063e-01 -1.07923985e-01
  -8.00816119e-01 -7.94114310e-01]
 [ 4.69132883e-01  5.66731739e-01 -7.83553424e-01 -3.93434942e-03
   4.38468283e-01  7.70939912e-01  3.40848454e-02  3.80045771e-01
   9.14126631e-01  9.34867371e-01  2.67523186e-01 -7.45365690e-01
  -6.41710544e-01  6.88184324e-02  3.03324135e-02  7.89235961e-01
  -1.91615172e-01  7.18296853e-01  5.73297667e-01 -4.61835193e-01
  -9.22155538e-01 -6.43231465e-02 -6.10465226e-01 -8.57402825e-01
   1.11446014e-01 -5.73824119e-01 -5.62244763e-01 -6.03717868e-01
  -2.31126459e-01  7.99374339e-01]
 [-8.18303686e-01  8.33862268e-04 -7.72465720e-01 -1.03572129e-01
   7.48684682e-01 -9.87799837e-01  1.32088489e-01  2.79809306e-01
  -8.19983951e-01  6.61862972e-01  2.55748300e-01  9.75684151e-01
   6.32156026e-02  4.96665950e-01 -4.40953546e-01 -4.68682716e-01
   8.11802898e-01  1.45382146e-01  7.91928719e-02 -8.43297472e-01
  -5.40021334e-01 -6.00473009e-01  1.72908530e-01 -2.78148702e-01
   1.52201448e-01 -2.80414439e-01  5.47456524e-01  9.82557798e-01
  -3.35807911e-01  2.93836075e-01]
 [-4.37775707e-01  7.14727198e-01 -9.92568831e-01 -7.61437312e-02
  -1.42529247e-01  6.52625696e-03 -5.94595384e-01 -9.42669275e-01
   1.12847652e-01  8.25618264e-01  5.48917625e-01  9.18042978e-01
   9.90808730e-01 -3.65075349e-01 -6.30203397e-01 -6.71800227e-01
  -8.51443366e-01  7.77755210e-01 -4.84554719e-01  7.32757372e-01
  -2.35076977e-01 -4.97077549e-01 -8.58680836e-01  5.32098379e-01
   9.20011452e-01  8.93134524e-01  7.09562278e-01  9.71181045e-01
  -8.02753383e-01 -9.74125186e-01]
 [ 3.83193511e-02  7.23000688e-01 -4.26753869e-01 -9.24290486e-01
  -2.31847578e-01 -6.34621822e-02 -7.20873021e-01 -7.04480616e-01
   2.51475434e-02  7.23546310e-01  8.24040120e-02  5.60033802e-01
  -6.70683138e-03 -2.27099970e-01 -2.62955243e-01 -3.92811742e-01
  -5.42388484e-01  3.18901463e-01  6.57208404e-01  4.72887087e-01
  -8.75618370e-01 -2.52828320e-01  2.44543978e-01 -8.05887117e-01
  -8.80281458e-01 -2.16641521e-01  2.81288908e-01  8.07756380e-01
   2.32940136e-01 -3.16074413e-01]
 [ 1.14677946e-01  8.57195654e-01 -2.60795398e-01 -4.30741815e-01
  -2.95885147e-01 -8.00205405e-01 -6.20885533e-01 -2.95660141e-01
  -8.47689224e-01  2.64159075e-01 -1.61914897e-01 -4.17419918e-01
   1.24477168e-01 -2.16844310e-01  4.88600134e-01 -2.26256801e-01
   6.55357722e-02 -6.16268414e-01 -7.74878297e-01  6.58933440e-01
   6.91713233e-01 -8.42985079e-01  6.79875685e-01  9.95726908e-01
  -3.99726012e-01 -2.58491001e-01 -9.94020501e-01 -2.84182010e-01
   2.21617620e-01  1.57920634e-01]
 [ 7.80117041e-01  5.52830572e-01 -7.23518060e-01 -1.31712320e-01
  -7.24153735e-01  2.80005753e-01 -4.15179462e-02 -5.12500571e-01
  -5.93323940e-01  5.36479078e-01  3.31807112e-01  1.34840065e-01
   2.48594389e-01  4.02452469e-01 -7.30546490e-01  8.61321690e-01
   5.65315295e-01  2.77270928e-01 -4.16025978e-01 -3.04150179e-01
  -4.06728697e-01  4.43873707e-01 -3.78843445e-01  1.18391928e-01
   9.00339610e-01 -1.90875495e-01  2.02556246e-01 -8.44826087e-01
  -8.23108261e-01  8.01712637e-01]
 [ 9.24849963e-01 -5.87935904e-01  6.91156336e-01 -6.18478888e-01
   5.84589273e-01  8.88675599e-01 -8.40552404e-01  9.26873640e-01
  -5.06942972e-01  4.11425732e-01  7.47797624e-01  6.38411276e-01
  -7.12343560e-01 -5.60972472e-01 -7.50188785e-01  2.63681623e-01
  -5.16256047e-01  4.13770012e-01 -3.28683272e-01 -3.08675510e-01
   4.88456908e-01  7.79961841e-01  3.93358186e-01  4.80502574e-01
   7.24813456e-01 -2.36426341e-01  2.27710624e-01  7.02741219e-01
   5.99507082e-01 -8.20608327e-01]
 [-6.22598323e-01 -6.58882302e-01 -6.72410217e-01 -9.33569547e-01
   8.67658467e-01  2.31696705e-01  8.80583250e-01 -6.05415295e-01
   2.02495292e-01 -6.43059713e-01 -1.52132372e-01 -6.96422920e-01
   3.50211757e-01  2.64900590e-01 -7.14436648e-01 -1.94431513e-01
  -5.59078547e-01  9.60919985e-01  1.54759941e-01 -4.11688912e-01
   4.13074202e-02 -8.78309460e-01  1.17398268e-01  2.76003126e-01
   5.07832222e-01 -5.93922193e-01 -3.28215806e-01  5.92216989e-01
   9.79053362e-01  5.90708067e-01]
 [-5.88409949e-02 -1.44075737e-01 -6.89356001e-01  2.89977285e-01
   4.76758331e-01  4.00124718e-01 -8.36165830e-01  6.80720606e-02
  -7.96515282e-01  2.10790608e-01  7.71537607e-01 -6.42348878e-01
   9.26829402e-01  6.45138968e-01 -2.53036201e-01 -3.66355730e-01
  -6.20962833e-01  8.01921462e-01  7.71619915e-02 -1.86239875e-01
  -6.90939679e-01 -5.75248198e-01 -1.40921484e-01 -8.11406169e-01
  -1.78535567e-01  4.97670506e-01  3.24019403e-01  6.29577941e-01
  -5.77888466e-01 -3.98548482e-01]
 [ 6.41746455e-01  3.11211437e-01 -6.61464522e-02  3.32148819e-01
   8.37038030e-01 -2.53906838e-01 -1.39910730e-01 -7.10522275e-01
   5.99995946e-01  4.42696443e-01 -5.14081829e-01 -3.20242412e-01
  -5.00479360e-02  5.06745525e-01 -8.59104438e-01  5.13309927e-01
  -7.31251367e-01  6.39085953e-01 -4.11931373e-02 -6.61815455e-01
  -9.12232078e-01 -9.71662898e-01 -3.96411915e-01  4.69839638e-01
  -5.32507332e-01 -2.15285827e-01 -2.43080579e-01  8.57775848e-01
  -8.54618936e-01 -9.39264754e-01]
 [-9.52796989e-01  3.83326037e-01 -1.93739098e-01 -7.41398997e-01
   3.57951825e-01  5.42435680e-01 -1.39099062e-01  7.78046033e-02
  -7.84291678e-01  2.08063803e-01 -8.91299444e-02 -6.12206785e-01
  -7.73101337e-01  3.41246314e-02  5.45092807e-01  4.73408397e-02
  -6.56599722e-01 -8.32165398e-01 -4.18662735e-01  8.06817964e-01
   1.22810548e-01  2.02977487e-01  8.62495549e-01 -2.17473705e-01
  -1.97149973e-02 -1.25131922e-01 -3.12344223e-01  9.18503651e-01
  -5.05234363e-01 -7.54808637e-02]
 [-6.46708059e-01 -4.25413845e-02  4.39143239e-01 -9.84275268e-01
  -6.30514039e-02 -5.61347157e-01  8.25007563e-01  6.01684926e-02
  -6.99412863e-01 -7.35276222e-01 -1.85185406e-01  6.94228902e-01
   1.49595448e-01  7.06189950e-01 -6.60331967e-01  6.16037892e-01
   8.94109018e-01 -3.51233834e-01 -6.46351894e-01 -1.27870639e-01
  -2.96549260e-01  8.18176702e-01  8.13392673e-01  9.99945824e-01
  -4.66602039e-01  7.29169426e-01  4.80541053e-01 -2.69411030e-01
  -1.26655061e-01  8.22473233e-01]
 [-9.35833968e-02 -2.79559476e-01  7.00076476e-01 -1.18908595e-01
   6.39427107e-01  3.83926450e-01  3.85456452e-01 -2.22705584e-01
  -2.15709243e-01 -8.90009450e-01  7.08702944e-01  4.61988531e-01
  -4.79980316e-01 -6.84270063e-01 -7.19024616e-01 -7.44841835e-01
  -2.64172978e-01 -4.71383041e-01  9.76380666e-01 -1.66660843e-02
   2.94654034e-01 -8.78901958e-01  1.99235300e-01 -9.16369903e-02
  -3.95507464e-01 -6.24719672e-01 -1.53906350e-01  1.01217800e-01
   7.45994126e-01  3.02278368e-01]
 [ 4.52258361e-01  9.34016540e-01  4.13901229e-01  1.20224305e-01
   5.35044475e-01 -6.15783736e-01  4.98443834e-01 -9.74420500e-01
  -6.81959224e-01  4.78332012e-01  8.79283123e-01  9.20421273e-01
   4.93125009e-01 -1.95591835e-01 -8.43322844e-01 -7.48401678e-01
  -7.57306794e-01 -9.17108162e-02 -4.39415902e-01 -9.02348434e-01
  -2.01785838e-03  2.24288864e-01  3.66927241e-01 -1.03034501e-01
  -2.03376134e-01 -4.23439622e-01  7.35360283e-01  9.81624582e-01
  -4.37098511e-02  7.10589688e-01]
 [ 6.04498690e-02  9.63641581e-02  8.01740545e-01 -4.65154676e-01
   7.83536315e-01 -2.59581053e-01 -1.91819342e-01  6.17481427e-01
   3.55864977e-01 -2.84207709e-02  5.42717194e-01  1.65438329e-01
  -9.51029979e-01 -1.80084511e-01  3.33879869e-01 -9.65411803e-01
   6.80727476e-01  6.89371558e-01 -7.40724062e-01  3.15293598e-01
   5.06347816e-01  8.63147490e-01  6.12903764e-01 -2.22751366e-01
  -9.74587470e-02 -5.24795228e-01  9.39914094e-01 -8.25421438e-01
   8.22623135e-01 -4.67342191e-01]
 [ 2.46329794e-02 -8.47146245e-01 -7.94245878e-01  5.34772334e-01
   2.42674752e-01  3.47585569e-01 -9.85006869e-01 -3.33153994e-01
   2.62157515e-01 -3.38344929e-01  9.01068910e-01  5.47199350e-01
  -9.40407123e-01  6.22693519e-02 -1.64711240e-01  8.41025087e-02
  -8.40326027e-01 -9.43328987e-01 -3.67828231e-01 -6.95471594e-01
   8.41444245e-01  9.65970956e-01 -4.19378409e-01  5.47941945e-02
  -5.31375538e-01  2.25292501e-01 -7.56644820e-01  6.41251576e-01
  -3.29998967e-01 -3.79239442e-01]
 [-7.67436835e-01 -8.51651690e-01 -1.77259972e-02 -3.32771612e-01
   6.75730326e-01 -5.39795376e-01  9.41521313e-01  6.16721156e-01
   2.40760737e-01  7.09522615e-01 -2.15896609e-01  2.45902759e-01
   3.53507329e-01 -9.11247168e-01 -9.64642699e-01  5.20454710e-01
   5.40709253e-01 -1.66467483e-01  6.25477829e-01  7.14466215e-01
   3.91022307e-01 -1.18959609e-01 -9.80968884e-01  1.56289196e-01
  -8.35193164e-01  6.52853799e-01  2.28020492e-02  1.37119900e-01
  -1.89406798e-01  3.43074355e-01]
 [-2.85275134e-01  1.07215834e-01 -8.44986537e-01 -8.13484912e-01
  -9.60468739e-01 -6.95570303e-01 -4.71221664e-01 -3.67591052e-01
  -9.45383602e-01 -7.95301559e-01  9.64463335e-01 -4.03084303e-01
  -6.22625964e-02  9.39311692e-01  6.90332043e-01 -9.65930818e-01
  -5.23688439e-01  7.36054238e-01  5.28539484e-01 -7.57054681e-01
   6.50352906e-01  2.31020903e-01 -8.11108687e-01 -7.47264776e-01
   3.61559410e-01  3.03967912e-02 -3.58661363e-01  2.34492253e-01
   3.75029170e-01  3.53210134e-01]
 [-6.51092959e-01  4.70816599e-01  6.72655840e-01  8.00936469e-01
   3.68436943e-02 -3.96989692e-01 -1.73208023e-01 -1.12872749e-02
  -6.89380572e-01 -9.27075152e-01  5.93477479e-01  5.26107629e-01
   1.63738188e-01  7.42812743e-01 -6.66751574e-01 -1.38350238e-01
  -8.75682733e-01  6.37168935e-01 -4.55624986e-01 -3.19269650e-01
   4.13736576e-01  5.34783897e-01  4.59351708e-01  7.68704273e-01
  -7.67571587e-01 -7.07698187e-01  2.11416828e-01  4.17206613e-02
  -7.92890939e-01  7.51253173e-01]
 [ 8.92157001e-01  5.11960777e-01  6.58648379e-02  9.92966451e-01
   7.97548951e-01  2.67525712e-01  8.00500844e-01 -7.87911556e-02
   7.00828380e-01  1.97204250e-02  7.67625502e-01 -3.32779791e-01
  -3.40496613e-01 -3.95450778e-01  5.09729894e-01  1.60630987e-01
  -6.84848934e-01  5.70706228e-02 -6.03052400e-01 -7.76880802e-01
   6.88331063e-01 -5.90212406e-01 -3.06165136e-01  8.57467920e-01
   8.76903746e-03 -3.00362598e-01  8.61807641e-01 -9.33298857e-01
   1.12598963e-01 -3.77276413e-01]
 [ 9.38653435e-03  4.44389482e-01 -4.80239337e-01 -1.80748986e-01
  -9.27799166e-01  9.65824116e-01  1.11693312e-01 -5.17238098e-01
  -1.47483918e-02 -3.96294880e-02  6.03848924e-01  9.80640402e-01
   1.04518811e-01 -8.92103401e-01  2.46577211e-01 -1.42339743e-01
  -1.89311094e-01 -6.32057598e-01 -8.91320356e-01  8.93039131e-01
   6.45818973e-01 -6.80556899e-01 -1.17814796e-01  8.45692255e-01
  -5.85578673e-01 -1.65055789e-01  1.27530453e-01 -3.19432144e-02
  -5.21669936e-01 -1.12282555e-01]
 [ 6.82980662e-01  7.10267433e-01  2.46967953e-02  3.93552912e-01
   8.53456890e-02  4.93632893e-01  4.93690066e-01 -3.51310545e-01
  -8.61362427e-01 -9.10048087e-01 -9.53710010e-01 -7.16911968e-01
   3.08203553e-01  1.45867563e-02  4.54096367e-01  2.83296848e-01
  -6.84042253e-01  1.45206961e-01 -3.06368970e-01 -3.11697414e-01
   4.45951834e-01 -1.32605802e-01  7.30082955e-01 -9.35140895e-01
  -5.36076964e-01 -3.61535698e-01 -2.04156633e-01  5.05583383e-01
   8.77944898e-01  3.25122297e-01]
 [ 9.07179646e-01  3.07094627e-01  4.26113434e-01 -6.55230059e-01
  -8.91313320e-01 -6.04265885e-01  9.99143583e-01  3.78530321e-01
  -1.19014219e-01  1.87421170e-01  3.31464721e-01 -3.66726120e-01
  -7.28073256e-01  9.54037212e-01  8.94890046e-01 -4.86842670e-02
   5.61024009e-01 -7.10736245e-01  4.96623662e-02 -8.86874815e-01
  -6.40090025e-02 -1.28654139e-01  5.45591431e-01  8.58379186e-01
  -5.35876662e-01 -4.60877722e-01 -3.26669895e-01  6.12861955e-01
   6.04198290e-01 -9.48469535e-04]
 [-6.73584104e-01 -8.01542401e-01  3.18854325e-01 -8.99373005e-01
   6.48171380e-01 -6.92538010e-01 -7.47289046e-01 -5.10594277e-01
  -6.41109875e-01  5.49204374e-01 -2.13065929e-01 -8.73903059e-01
   4.32937873e-01  7.57882217e-01 -3.95042308e-01 -7.39181573e-01
   1.23644491e-01  1.73888672e-01 -5.57052555e-01 -9.19250054e-01
  -9.90959088e-02 -9.95394032e-01 -6.94728156e-02  2.53889321e-01
  -1.86635399e-01  6.18008782e-01  1.34882005e-01 -3.98839500e-01
   8.82028810e-02  6.87496733e-01]
 [-4.69104462e-01 -1.93190776e-01 -8.92502348e-01  6.52143203e-01
   6.83772990e-01  8.01526904e-01  3.06591244e-01  6.69428166e-01
  -5.06973966e-01 -6.38257268e-01  7.38332350e-01  4.09097994e-01
   9.47139621e-02 -7.72754034e-01  8.67206070e-02  6.78954326e-01
  -8.72427905e-01 -5.49805811e-01 -5.55556223e-01  4.17412757e-01
   5.70241821e-01 -1.09184858e-01 -9.80163261e-02  2.84277656e-02
  -1.94329618e-01 -6.93841977e-01  8.75988193e-01  3.79158766e-01
   7.48290817e-01 -9.41956364e-01]
 [ 9.85906950e-01  4.00761622e-02  9.31769850e-01 -4.29554383e-01
  -5.43339037e-01  4.07578964e-01 -6.19513865e-01  9.40003265e-01
   3.49681820e-01 -1.61917811e-01 -6.42908006e-01  6.24511580e-01
  -7.21488673e-01  7.96801952e-01 -5.12574513e-01  8.60341353e-01
  -7.31921744e-01 -6.68499028e-01  4.96249463e-01  7.74375368e-01
  -3.21102561e-01  3.03287703e-01  1.27791038e-01 -8.23352480e-01
  -8.12227171e-01 -1.54195856e-01 -8.00648739e-01 -6.79668735e-01
   9.75432394e-01 -2.70728169e-01]
 [-5.26259056e-02  4.71274338e-01  8.26606394e-01 -3.78316570e-01
  -2.75300757e-02  3.11938223e-01 -8.30319168e-01  3.00928530e-01
  -3.71770114e-01 -5.20294816e-01 -5.67781395e-01  3.59626217e-01
   3.79157253e-01 -2.62303582e-01  9.29976283e-01  8.12536892e-01
   1.17134697e-01  2.63145398e-01  4.27350745e-01 -4.67262800e-01
  -6.80919647e-01 -2.39497981e-01  3.85795055e-01 -8.14243066e-01
   3.73356442e-01 -3.50419143e-01 -6.71425264e-01  3.94011688e-01
  -3.69426942e-02 -3.44322268e-01]
 [-1.12260964e-01 -8.70689824e-01  8.07401035e-01 -3.67763077e-01
   5.50982681e-01  3.69221543e-01 -1.50536581e-01  9.29010795e-01
   4.42003112e-01  4.91713573e-01  4.21265864e-01  2.43229109e-01
  -7.88834224e-01 -4.94896208e-01 -6.52707857e-01  8.44544917e-01
  -9.70101171e-01 -8.48783078e-01 -7.32924070e-01 -8.36731213e-01
   6.03243191e-01  1.37938627e-01  5.48548474e-01  3.90658378e-01
  -9.02617138e-01  8.26342781e-01 -3.97290310e-01 -4.73502163e-01
  -6.08545788e-01  6.63488091e-01]
 [-6.07356453e-01  5.52689707e-01  7.12528269e-01  2.71415707e-01
   2.53635732e-01 -6.04208853e-01  8.27180099e-01  4.08017570e-01
   2.03822799e-01  7.37688315e-01 -1.71416655e-01  4.56678076e-01
  -9.69503155e-01 -2.36542223e-01  5.24239499e-01 -4.00771083e-01
   9.90281846e-01 -2.58054494e-02  1.93147597e-01 -6.92050714e-01
  -5.32868323e-01  5.94647989e-01 -9.35493673e-01 -4.75917286e-01
  -1.03626108e-01  7.98572098e-02  5.16037194e-01 -5.71616046e-01
   1.41931452e-01  6.11679246e-01]
 [-5.17426459e-01  7.30442593e-01  6.09009753e-01  2.81115611e-01
   8.08667098e-02 -7.87326456e-01 -9.57870961e-01  2.65648574e-01
   6.44300506e-01  7.65361532e-01  1.23801315e-01  2.73961428e-01
  -8.08647851e-01  7.97114217e-01  2.87404159e-01 -1.08649673e-01
  -9.81136330e-01  3.66150920e-01 -7.55387547e-01 -8.66621560e-01
  -5.19112901e-01  9.24253700e-01 -7.59218120e-01 -1.98656979e-01
  -4.71376352e-01 -2.87078307e-01 -8.71781664e-01  5.00289123e-01
  -8.66983472e-01  9.88702323e-01]
 [ 4.83795649e-01  3.78247966e-01 -8.41355199e-01 -5.96095795e-01
   8.87729777e-01  7.34932707e-01  7.26127740e-01 -9.32955426e-01
   1.13682761e-01  7.54988622e-01  3.55465753e-01  8.21259667e-01
   2.78019681e-01  4.83047112e-01 -6.59443498e-01  1.28956112e-02
  -2.27497302e-01 -9.76156774e-02 -1.44631017e-01 -9.46747681e-01
  -2.46818936e-01 -5.92146747e-01 -2.69656322e-02  6.68854706e-01
   2.77575282e-01 -6.80315335e-01 -2.73159206e-01 -6.99719049e-01
   3.50485285e-01  8.93511373e-01]
 [ 8.21959930e-01  7.28574928e-01  4.25861912e-01  6.54878121e-01
  -2.85046085e-01 -4.27206948e-01  1.57711363e-01 -5.93578703e-02
   7.55632182e-01 -2.38070037e-01 -1.71072655e-02  2.17427236e-01
  -6.30715599e-01 -2.45004102e-01 -2.99879272e-01 -8.98177512e-02
   3.88679554e-01 -9.63596525e-01  7.58365292e-01  3.27538231e-01
  -8.19916069e-01  2.97371776e-01 -6.29267864e-01  4.30018191e-01
   6.96503041e-01 -2.50518545e-02 -6.11523942e-01  9.32030194e-01
   4.77155367e-01  9.62147364e-01]
 [-2.50396715e-01 -2.29913201e-01 -5.36497903e-02  9.02453760e-01
   8.37830242e-01 -9.80502219e-01  8.28807465e-01 -2.30780855e-01
  -5.23544455e-01  3.18858613e-01  9.55991419e-01  7.03132731e-01
  -4.20307558e-01  4.27043741e-01 -7.09397370e-01  1.88316294e-01
   1.88822231e-01  6.49520461e-01  1.43919042e-01  3.73333113e-01
   4.17626875e-01  3.69258168e-01  1.18351558e-01  2.83583766e-01
  -6.04415943e-01  8.08564268e-01  9.95707941e-01 -2.29293366e-01
   5.69999990e-01 -9.90358114e-01]
 [-7.14775625e-01  9.31843943e-01  3.88843989e-01  1.36436162e-01
  -2.11689507e-01  3.28153673e-02  8.10623383e-01 -4.26548533e-01
   7.79454265e-01 -3.89595817e-01  1.18582399e-01 -2.52345954e-01
  -7.44808188e-01  3.00895251e-01 -4.76590342e-02 -4.01626905e-01
   6.42386462e-01  7.37529789e-01 -3.55894867e-01 -1.90316989e-01
   8.28012643e-01  4.26006656e-01 -9.26515719e-01  3.91963750e-01
   3.76647149e-01 -7.06897042e-02  8.18501732e-01  4.77228470e-02
   8.63795129e-01 -9.52610291e-01]
 [-5.06759479e-01  6.21132113e-01  7.65962291e-01  4.29483696e-01
   2.81097051e-01  8.58140429e-01 -5.52978290e-01 -7.31065196e-01
   6.73327841e-01 -5.26680317e-01 -7.81988881e-01 -7.51866299e-01
   8.91096162e-01  4.49018818e-01  7.67849024e-01  4.54026505e-01
  -7.03702927e-02 -2.60220975e-02  7.56347470e-01 -5.55241184e-01
   7.78883868e-01  9.70120026e-01 -9.58277249e-01  8.24180402e-01
   8.36615513e-01  2.04117802e-01 -2.75606543e-01 -3.26498659e-01
  -9.37397665e-01  4.46039607e-01]
 [-7.77786065e-01  8.84326863e-01 -8.25552167e-01  2.85917959e-01
   1.79679754e-01  5.58082963e-01 -5.55242638e-01  3.02549414e-01
  -7.13476569e-01 -5.69412826e-01 -2.90170001e-01  6.68640251e-01
  -2.70850608e-01 -6.75949601e-02 -5.60061709e-01  9.98286547e-02
   5.37661984e-01  5.02870306e-01  7.08861202e-01  4.38308525e-02
   9.21632711e-01  3.18232366e-01 -1.26448349e-01  9.87648106e-01
  -2.43243389e-01 -4.33626447e-01  9.65896775e-01  5.87312456e-01
   1.22149689e-01 -6.37098145e-01]
 [ 7.52107741e-02 -5.64409200e-01  8.84008465e-01  2.02852910e-01
  -6.74954393e-01 -3.89770071e-01  3.65123045e-01 -4.39956319e-01
  -2.45233015e-02  1.05731770e-01  1.60953982e-01  8.68258708e-01
   9.97196446e-01  7.34621677e-01  9.81118743e-01  4.57998559e-01
   7.79793307e-01  8.07791759e-01 -6.58466457e-01 -6.95153179e-01
  -8.94530672e-01 -9.77384980e-01  1.76249699e-01 -8.71845896e-01
  -3.26028621e-01 -5.94649407e-01  8.46829936e-01  5.19204528e-03
  -3.19892886e-01 -5.73591420e-01]
 [ 4.75119180e-01  8.36453611e-01  3.99194195e-01  9.81769739e-01
  -3.18876208e-01 -3.99557102e-01 -5.51680443e-01 -5.02803856e-01
   6.22029848e-01  6.23564735e-01 -5.11103114e-01  9.81175954e-01
  -9.21860914e-01 -4.78961196e-01 -1.33510254e-01 -1.75801328e-01
   4.46748043e-01 -8.94470452e-01  6.88469189e-01 -1.61593067e-01
  -1.47057356e-01  9.18808501e-01  4.16729223e-01 -3.85315989e-02
  -8.31804887e-01 -9.33386025e-01 -5.80051268e-01 -7.76534429e-01
   9.82612036e-01  6.62922860e-01]
 [ 8.33820306e-01  4.59724598e-01  6.62426515e-01 -2.20812631e-01
  -6.58394085e-01  9.30303837e-01 -3.01898873e-01 -2.39987165e-01
   2.51934342e-01 -7.13431631e-01  4.45741965e-01  5.86578261e-02
  -3.70472305e-01 -8.71401867e-01 -4.55052063e-01 -3.32812427e-01
  -7.22557167e-02  2.32720237e-01  9.58233392e-01  3.48225533e-01
  -2.13108649e-01 -1.18935752e-01  8.69449111e-01  9.08996947e-02
   5.49976857e-01  5.12424734e-01 -8.04474192e-02 -9.21724844e-01
   8.91973551e-01  6.78871212e-01]
 [ 2.20947270e-02 -6.14540916e-02 -8.81052412e-01 -3.95700645e-01
  -4.33717283e-02  9.58415692e-01 -8.47810028e-01  1.15385953e-01
   6.89308126e-01  8.35523916e-01 -7.70842073e-01  7.34621042e-01
  -6.16329547e-01  4.13268955e-01  8.18877502e-01  9.80528122e-02
  -7.86241250e-01 -2.32412394e-01  7.73578425e-01  1.18309170e-01
  -6.43825348e-01 -3.97520154e-01  9.96713813e-01  1.01059759e-01
   9.00133639e-01 -3.46496682e-01 -7.71061790e-01  7.49119106e-01
   4.76550186e-01 -1.48035037e-01]]
[[ 8.46519436e-01  9.68922175e-01  4.03014475e-01 -5.76664153e-01
   7.39635622e-01  1.54816508e-01  7.37895419e-01  5.17330657e-01
   8.24744751e-01 -8.54600304e-01 -5.54062167e-01 -9.58007647e-01
   9.76886967e-01  5.44200801e-01 -7.04256628e-01 -9.16935391e-01
   8.94805046e-01 -1.31977100e-01  3.35687733e-02 -8.47477548e-01
  -5.72269565e-01]
 [ 3.18861779e-01  4.07831094e-01 -5.55065620e-01 -3.80196018e-01
  -3.74751228e-01  3.17353611e-01 -2.95393674e-01 -8.31222201e-01
   1.61426809e-01  8.74715078e-01 -8.78193940e-02 -5.07361776e-01
  -3.55957662e-01  3.67267430e-01  8.71883715e-01  9.44652705e-01
   1.12169165e-01 -8.37421693e-02 -2.32342272e-01  1.13901507e-01
  -9.02371219e-01]
 [ 9.63824534e-02  8.52089554e-01 -9.35561867e-01 -5.84980878e-01
  -7.17707281e-01 -9.06226358e-01 -5.04529797e-01 -8.81508512e-01
  -4.03824720e-01  8.17269521e-02 -7.12910168e-01 -2.48980333e-01
  -5.01265409e-02 -2.78799912e-01 -6.96016984e-01 -6.08797420e-01
   1.85941260e-01 -1.80715652e-01  4.64944704e-01  1.93226700e-01
   5.09792245e-01]
 [-8.77611744e-01 -9.92880191e-01  5.94726686e-01  2.93477122e-01
  -2.00776559e-01 -3.62251648e-01 -8.83648558e-01 -6.91467460e-01
   3.83963857e-01 -6.07797344e-01  5.36275889e-01 -7.12195529e-01
   7.06658407e-01  4.59413849e-01  6.06349936e-01 -2.43675846e-01
  -5.38472686e-01 -8.48751432e-01  6.41978219e-01  8.76086042e-01
   5.54102549e-01]
 [ 3.25937876e-01  3.78740824e-01  8.58300328e-01 -4.62953848e-01
  -3.03087973e-01 -1.38608640e-01 -7.48147993e-01 -2.78868961e-01
   6.79261928e-01 -3.55081586e-01  6.51756533e-01 -3.02395733e-01
  -6.70731120e-01 -2.08944258e-01 -1.48727037e-01 -3.44398789e-02
   8.81538781e-01  9.05526312e-01 -2.37239224e-01  1.55406266e-01
  -3.65486248e-01]
 [ 5.82718493e-01 -6.29506266e-01  2.06601828e-01 -3.20326874e-01
  -1.27428884e-01 -2.74978667e-01  2.04658183e-01  9.65900897e-01
  -8.84875442e-01 -8.53986203e-01 -5.09303334e-02  7.90912157e-02
   2.55221027e-01  2.75068048e-01  1.92037212e-01 -6.02147988e-01
   2.54093729e-01 -1.03048940e-01 -5.81642029e-01 -3.04291116e-01
   8.06323879e-01]
 [-1.58608931e-01  1.00398081e-01 -5.58411965e-01  2.44844485e-01
  -8.40208340e-03 -5.71616628e-01  7.58263155e-02  2.38084628e-01
   5.32258020e-01 -2.25757400e-01  8.03116004e-01 -2.72341917e-01
   3.26333839e-01  6.36797056e-01  8.54043848e-01  4.58653371e-01
   4.93662062e-01 -9.05862006e-01 -3.40654310e-01 -1.08464734e-01
   7.67198296e-01]
 [-4.91792271e-01 -9.59857788e-01  9.94066665e-01 -2.34972448e-01
  -9.85229703e-01 -3.30201100e-01  7.79064689e-01  8.72168939e-01
  -6.15413173e-01  5.51273095e-01 -8.40552745e-01  6.14413224e-02
   2.34653069e-01  3.24483776e-01 -5.46159799e-01  6.82889596e-01
  -6.65760173e-01 -3.41816421e-01 -7.36060140e-01  7.23310407e-01
  -8.90178955e-01]
 [-9.59474949e-01  6.68972279e-01 -1.32444089e-01 -4.90106513e-01
   8.81805302e-01  6.55397658e-01 -4.55939339e-01 -5.70345766e-02
  -1.69306172e-01  8.34715041e-01 -1.44773628e-01  1.22691775e-01
  -9.14917785e-01 -4.75142603e-02 -6.17053676e-01  1.89548248e-01
   4.54304601e-01 -3.24011483e-01 -9.08138270e-01  2.76145534e-01
  -9.69812860e-01]
 [-1.63039824e-01 -2.12529414e-01  3.98840352e-01 -6.41082506e-01
  -5.97261793e-01 -6.83023582e-02  8.83588611e-01  6.27483308e-01
   7.33313437e-01  3.69700983e-01 -5.89272418e-02 -9.88796318e-01
  -5.03889281e-01  5.52507991e-01  6.37634837e-01  6.65819031e-01
   2.27245603e-01  8.44904035e-01  3.86551994e-01  6.57633806e-01
   5.99278444e-01]
 [-3.75148634e-01 -5.66822847e-01 -4.96177772e-01 -8.32274967e-01
   3.36170527e-01  1.28550996e-01  5.24561712e-01  8.52217202e-01
  -1.18156712e-01 -5.51826542e-01  8.05911074e-01  2.72291460e-01
  -8.74219361e-01  5.28565412e-02  4.37874241e-01 -2.10106773e-01
  -9.40119799e-01  1.03936605e-01  4.02565888e-01 -6.79292445e-01
   9.94158571e-02]
 [-8.86363378e-01 -1.40754975e-01  7.07343073e-01  1.99093429e-01
   8.78537240e-01 -7.22133181e-01 -9.89221904e-01  3.13523187e-01
   4.54589481e-01 -2.80882748e-01  6.10014544e-02 -5.77019344e-01
  -3.41081907e-01  7.74684404e-01 -9.97796516e-01  3.43735027e-01
  -6.25064460e-01  8.60746649e-01 -7.36619303e-01  6.57285703e-01
  -9.70663810e-01]
 [-8.50983197e-01  6.83624789e-01 -6.27877164e-01  3.27968269e-01
   3.27162793e-01  5.33682988e-01 -9.85903571e-01 -9.03532367e-01
   3.57551666e-01  5.73884582e-01 -3.70815514e-01  9.22934750e-01
  -4.90808484e-01 -9.10927906e-02 -3.26942344e-01  8.76868907e-01
  -8.06283170e-01  9.51154408e-01  5.81060472e-01  1.54437566e-01
   6.25567970e-01]
 [ 1.53426773e-01  5.71285958e-01 -3.38136096e-01  7.16085885e-01
   7.22036082e-01  3.03829513e-01  8.62583001e-01  1.42269758e-01
  -5.35867594e-01 -8.00440518e-01  4.45489104e-01 -4.14508074e-01
  -1.04333233e-02  5.30264659e-01  5.07558729e-01  6.27712850e-01
  -5.10998298e-01 -5.12909100e-01  2.42038661e-01  6.27450677e-02
   5.06056007e-01]
 [ 6.98892898e-01  7.63082872e-01  9.63301430e-01  7.00783109e-01
  -3.82017356e-01 -1.63171897e-01  7.30549505e-01 -3.11428327e-01
   7.34239355e-01 -2.00784833e-01 -8.32224713e-01  5.91246601e-01
  -8.62112575e-01 -7.77633036e-01  1.56731375e-04  9.63080417e-01
  -8.70042981e-02 -3.23803281e-01  5.38418865e-02  5.15499426e-01
   7.88041442e-01]
 [ 8.47895148e-01 -9.76715834e-02  7.94767919e-01  3.75773299e-01
   6.82542743e-01 -8.52276536e-01 -1.14095676e-01 -1.24345506e-01
   7.32142477e-01  4.70050201e-01  2.50507904e-01 -3.12087612e-01
  -4.90647177e-02  8.59611317e-01 -2.29568347e-01 -9.61065046e-01
   8.63220597e-01  8.56003107e-01  4.00431001e-01  2.76472376e-01
   2.68490683e-01]
 [-7.67333787e-01 -4.69671678e-01  6.42386126e-01  5.71976859e-01
  -7.73570934e-01  2.05459929e-01  8.57078640e-03 -1.76326761e-01
  -7.78438398e-01 -5.86294479e-02  9.89292079e-01  2.76748292e-01
  -6.47211172e-01  7.19545164e-01  9.14940183e-01  8.71374795e-01
  -8.09085589e-01  2.99312433e-01  7.69431522e-01  1.20775300e-01
   1.16019131e-01]
 [-7.35906787e-01  1.61754456e-01  4.25793208e-01  7.39150406e-01
  -5.98095575e-02 -6.29796016e-02 -1.67207225e-02 -4.70565652e-01
   2.11292240e-02 -6.63291350e-01  1.26873172e-01  4.64505160e-02
  -1.31959389e-01 -2.89922620e-01  7.65909266e-01  9.13862547e-01
   6.10656599e-01 -6.68831986e-03 -8.62866115e-01  1.73569797e-01
   5.38891186e-01]
 [ 5.59322346e-01  6.28569452e-01 -7.29479425e-01  7.36178990e-02
   1.81242385e-01 -8.76673445e-01  5.31075473e-01 -3.86833597e-01
   1.22169239e-01 -5.43939251e-01 -1.50359187e-01  7.59983728e-01
   9.49430865e-01 -7.88289584e-01 -9.96683642e-01  6.98015733e-01
   3.10485341e-01 -1.29124872e-01  2.95451986e-02 -1.91462033e-01
   2.28879677e-01]
 [-8.67841814e-01  3.73222323e-01  8.48507560e-01  2.07424576e-01
  -1.74686812e-01  4.30398011e-01  7.35059972e-01 -7.20844118e-01
   9.05382302e-01 -5.81317260e-01 -9.94546143e-01 -7.53913730e-01
  -7.14701047e-01 -7.23543680e-01  3.27409182e-01  6.16443418e-01
  -4.55949295e-02 -7.76644453e-01  1.74443831e-01  5.10404876e-01
  -7.78122048e-01]
 [-8.19716386e-01 -9.66443695e-01  8.20576877e-01  8.24714378e-01
   2.62095993e-01  1.29529272e-01  4.17939455e-02 -5.93829772e-01
  -3.54226022e-01  1.59936718e-01 -3.79514382e-01  6.31889208e-01
  -1.89534309e-01  4.12142130e-01 -6.09337398e-01  6.61424609e-01
   1.99337974e-01  6.78843458e-03  1.52335741e-01  6.59015369e-01
  -6.97668119e-01]
 [ 6.67650812e-02  3.78674294e-01 -5.88184940e-01 -8.57458980e-01
   6.37479248e-01  9.09484354e-01  4.56378604e-01 -8.77267279e-01
   2.23794354e-01 -6.93838454e-01  9.31923138e-01  5.36743225e-01
  -4.90630190e-01 -6.51589359e-01  9.25328392e-01  7.28809337e-01
   7.02241446e-01 -4.26382343e-01 -2.72667808e-01 -6.42057063e-01
   1.97508818e-01]
 [ 8.21284657e-01  1.91003516e-02  2.67457874e-01 -8.83511533e-02
   5.69114458e-01  4.05534760e-01  7.95271072e-01  9.86896155e-01
   9.28860422e-01  8.28696607e-01 -9.30789982e-01  1.63094616e-01
   7.52576007e-01 -2.28276885e-01  9.04614387e-01  2.01026280e-01
   7.16115650e-01 -9.33175042e-01  8.42537105e-01 -2.07045045e-01
   7.89790581e-01]
 [-5.92405204e-01  9.68794420e-01  2.33139911e-01  8.14542426e-01
  -8.92507503e-01  5.60058000e-01  7.15152871e-01  7.24938326e-01
  -3.56256002e-01 -6.16811566e-02  8.59390199e-01  8.30224989e-01
  -6.30196836e-01  9.50200857e-01  1.86037165e-01 -2.96900414e-01
  -8.97391096e-01  9.38961889e-01  7.70234265e-01  3.73726264e-01
  -9.90939650e-01]
 [ 8.95775134e-01 -3.49617962e-01  8.25542059e-01  3.65083585e-01
   4.80192029e-02  1.18209302e-01 -5.08658074e-01  9.85300443e-02
   7.72980768e-01 -6.33455553e-01  1.85546168e-01 -5.01270854e-01
  -8.84172669e-01  3.14554078e-01 -5.81176620e-01  8.56929966e-01
   5.03591347e-01  4.60056205e-01  6.67383459e-03  9.45272937e-01
   1.01696400e-01]
 [-3.97094099e-04  6.95799339e-02 -7.31471934e-01  4.18002997e-01
   5.14577542e-01 -5.11279940e-01 -9.88731419e-02  1.97192829e-02
  -8.39049133e-01  9.40068769e-02  1.15042899e-01  9.64815023e-01
  -8.54762980e-01  5.94265928e-01 -7.81928278e-01 -8.01977807e-02
  -9.64759568e-02  6.67945088e-01 -7.99736420e-02 -3.94375211e-01
  -6.78232476e-01]
 [-2.53130259e-01 -7.87292809e-01  6.00842857e-01  2.17389768e-01
  -5.74296039e-01 -5.00407771e-02  8.79343424e-01 -9.08309205e-01
   7.42337782e-01  8.27370465e-01  6.01901931e-01 -1.90745275e-01
  -2.64274085e-01  6.50909072e-01 -7.04191082e-01  4.46860316e-01
   5.58325615e-01 -3.70755380e-01  5.06993571e-01 -6.48971618e-01
   1.07567449e-01]
 [-3.54852911e-01  8.80638002e-01 -1.82204687e-01 -9.01480413e-01
  -1.99546168e-01  7.65999243e-01  9.71936703e-01  3.89281918e-01
  -6.52055860e-02  3.38768840e-01 -6.89890995e-01 -6.27651684e-01
   5.19725240e-01 -6.50654471e-02  5.51102049e-01  8.08125588e-01
  -4.87842394e-01  1.16797990e-01  3.64500362e-01  9.58003461e-02
   8.98466955e-01]
 [ 6.91567682e-01  3.57955687e-01  8.01249159e-01  3.00459516e-01
  -8.17214955e-01 -9.24868849e-01  4.94787097e-01 -4.47877829e-01
   1.85004750e-01  6.35654426e-01 -8.03522517e-01  4.75139713e-01
  -7.82407452e-01 -8.61935611e-01  4.87266405e-01 -7.84057568e-01
  -7.58724729e-01 -7.40673334e-01  6.37795166e-01  9.95590917e-01
   9.41807431e-01]
 [ 6.29880598e-01  6.55655389e-01  9.65497333e-01  3.62465472e-02
   2.74886092e-01  5.43824055e-01  6.66918761e-01 -9.64052272e-01
  -2.25095370e-01 -4.83216174e-01 -7.98260707e-01 -7.10659621e-01
   1.58234474e-02 -2.56266956e-01 -1.19439670e-01  5.55066750e-01
   4.91769235e-01  4.16673103e-01 -9.67224036e-01 -4.31746429e-01
  -8.28588608e-01]
 [ 2.01286380e-01  9.55851663e-01 -6.37748131e-01  3.19902520e-01
   7.96188684e-01  3.96557222e-01  5.32169313e-01 -5.21386697e-01
   8.16393854e-02  3.41534797e-02  8.64950064e-02 -8.15731170e-01
  -8.10118660e-01 -2.02580031e-01 -2.72483030e-01 -4.00394464e-02
   9.42374521e-01  6.37497508e-01  4.50696416e-01 -2.40078655e-01
   5.44259228e-01]]
[[ 0.10615536 -0.43270231 -0.65116304  0.18687829  0.90626562 -0.4093095
   0.79935134  0.65363537  0.17437491  0.74567996 -0.73091837  0.30590833
   0.85593335 -0.37802367  0.87232808 -0.56041759  0.38654692 -0.3475731
  -0.61649609 -0.43848609]
 [-0.03422285 -0.19798183  0.83983358 -0.25493803 -0.40428925 -0.95187746
  -0.11890581  0.8634459   0.29375974 -0.90636118  0.56692732  0.64509727
  -0.43297835 -0.5430052  -0.66755288 -0.20119611 -0.1464722   0.79219102
   0.51501639 -0.64719337]
 [ 0.15406392  0.63721906  0.06439777 -0.50982149  0.93305238 -0.92224643
  -0.9213843  -0.31685974 -0.72371399 -0.09215043  0.66836555 -0.87543292
  -0.37418396 -0.69948337 -0.89440032 -0.3319331   0.75869973  0.54642262
   0.16351416  0.43413664]
 [-0.92733323  0.47427415 -0.23074145 -0.48741078  0.87477914  0.51935083
  -0.30323812 -0.21732481  0.86097761  0.9989633   0.03315242 -0.37442453
  -0.776331    0.25317888 -0.45421429 -0.20511122 -0.74624971 -0.77641822
  -0.75221475  0.02857475]
 [ 0.14175425  0.45887069 -0.2094447   0.38498356  0.56185949 -0.36975186
   0.67935789  0.50998477 -0.02664534 -0.1400467  -0.16307125 -0.39125919
   0.50998796  0.08359633  0.70229456 -0.92375909 -0.19890813 -0.46368687
  -0.59310942  0.17234992]
 [-0.84960198  0.25866635 -0.04493896 -0.47125622 -0.33770059  0.34958224
   0.77505931  0.44047376  0.77765986  0.44258655  0.96761712  0.7290865
  -0.46301549  0.75967075  0.44553794  0.70409665 -0.78696242  0.40072781
  -0.24653485  0.80848717]
 [-0.57844293  0.4438133   0.31559303  0.24792752 -0.80892757  0.53749756
  -0.75800517 -0.42953095 -0.01554306  0.40006042  0.86408    -0.11630546
  -0.90036333 -0.9082341   0.37098316  0.67224541  0.98001428 -0.43421143
  -0.23811973  0.51293076]
 [ 0.05588659 -0.14424028  0.11622519 -0.14613889  0.82387492 -0.05511919
   0.55539622  0.56938305  0.23641362  0.9087025   0.73410506  0.22136232
   0.09121775 -0.50949168  0.7434104  -0.63284142 -0.90083404 -0.87858862
   0.25861105  0.52350949]
 [-0.43866051  0.16082438  0.05437744 -0.80302118 -0.85399323 -0.27709451
  -0.88725421  0.38521737  0.84796217  0.28513054 -0.84345798  0.3618438
   0.1864798   0.46347548  0.2777151  -0.96186917 -0.48107601  0.52075553
   0.24540682 -0.82967808]
 [-0.67404747  0.11357268  0.60658774  0.65104723 -0.71658673 -0.38823096
   0.46944384  0.63348895 -0.71215325 -0.41130201 -0.70965219 -0.13848458
  -0.54827379 -0.19609596 -0.56604851  0.27385657  0.18650239  0.15331711
   0.20696803 -0.46113194]
 [ 0.83027128 -0.95747757 -0.35760128  0.12441753  0.59637518 -0.81629942
  -0.47265113  0.38418839 -0.67892435  0.88991313 -0.37272688  0.11699437
  -0.41079772 -0.61014832 -0.1440234  -0.93553234  0.89366645  0.76055352
   0.09227779  0.00491898]
 [ 0.40327343 -0.82762027 -0.88505913 -0.03734391  0.22161681 -0.67313281
  -0.47128995 -0.9186671   0.43169918  0.28307529  0.4897316   0.15853584
  -0.34568388 -0.64091545  0.20583833  0.7248607   0.72934643  0.01311196
  -0.84573544  0.83611361]
 [-0.55069402  0.89147084  0.63181046  0.88244414 -0.9932648  -0.09303212
   0.50856819  0.35200577  0.17188191  0.88322985  0.84642578  0.23408634
  -0.49700146 -0.76800561  0.84426936 -0.31805477 -0.1878265   0.9188718
  -0.11620601 -0.45676398]
 [-0.60820257 -0.29783004  0.40526663 -0.48652184 -0.445595   -0.40894781
  -0.10741301  0.34213632 -0.52269735 -0.72920568  0.42399505  0.87092205
  -0.50913238  0.50130629  0.3941771   0.30365032  0.60223782  0.20249257
   0.7047638   0.11068137]
 [-0.32361055  0.83887763  0.32074305  0.57060248 -0.54156576 -0.25929906
  -0.13008977 -0.45034735 -0.89910428 -0.65877685 -0.20905647 -0.29539753
   0.57673447 -0.17182439 -0.20888094  0.71355163 -0.60133867  0.6414928
   0.21048423 -0.80313506]
 [ 0.02333606 -0.90001761  0.10755517 -0.94847817 -0.98786793  0.64813207
  -0.32320515  0.06107241  0.91613033 -0.66057921  0.33341834  0.80352966
  -0.84313038  0.67104527 -0.01001728 -0.55985842  0.60784123  0.955225
  -0.80021477 -0.91185551]
 [-0.16649095 -0.26442976  0.9999868  -0.39645413  0.74008562 -0.8525882
  -0.7172211   0.07018061 -0.90666341 -0.11415638 -0.89682877  0.78132159
   0.53391279 -0.93413459 -0.61022826  0.8442939  -0.34491216 -0.85424653
  -0.09084932  0.33639133]
 [-0.23711898  0.64940191  0.1241278  -0.61637252 -0.1740436  -0.53891672
  -0.38701788 -0.90951651 -0.69043071 -0.18202424  0.68818023  0.73574582
   0.98011304 -0.45832328  0.89549204  0.89989165 -0.49874965 -0.45549274
  -0.0334255   0.03623374]
 [-0.61846229  0.65237241 -0.61313686  0.21329306  0.72455023  0.4837764
   0.0635601  -0.01681383  0.9255068   0.12706492  0.51694811 -0.42631723
   0.18959109  0.80067014  0.77227531  0.69208469  0.93314097 -0.12319705
   0.13030029  0.60557796]
 [-0.93113346  0.84386209 -0.96410123  0.80640441  0.63182622 -0.02403471
   0.38633131  0.32676943 -0.73893609 -0.0991125   0.56434465 -0.09383212
  -0.43706163 -0.70106606  0.71514066 -0.50691267 -0.04575394 -0.70914787
   0.82117846  0.55284268]
 [ 0.84675523  0.01311484  0.55384484 -0.46664237  0.89590673  0.27639334
  -0.7383785   0.1112641  -0.35237196  0.39825995  0.48165316  0.28504153
   0.67799297 -0.8663799   0.25691358  0.62408904  0.92782505  0.48370898
   0.92073251 -0.00719886]
 [ 0.11879779  0.72569213 -0.31308957  0.59443903 -0.99187469  0.25701119
  -0.13611426 -0.16175103  0.88060177  0.96707876 -0.55310967  0.87490656
  -0.50398446 -0.43562431  0.39069468 -0.74420948 -0.61644762 -0.13865416
  -0.90179172  0.44980912]]
[[ 0.98845765 -0.23016246  0.14706829  0.31878067  0.20436377  0.81177543
  -0.73763796  0.22212451 -0.02488438 -0.23477115]
 [ 0.2983358  -0.38673914  0.12318335 -0.13313585  0.22362749  0.46332631
  -0.87547421 -0.5856859  -0.68260932 -0.55056738]
 [-0.04388652  0.36061063  0.95614731  0.56902249 -0.44125297  0.35693
   0.60026973  0.91901997  0.95179837  0.95424301]
 [-0.41012031 -0.31940141 -0.52698743  0.67716711 -0.8692713   0.67181325
  -0.11929273  0.38386359  0.48236259  0.63606076]
 [-0.46745708 -0.35054823 -0.44008757 -0.25654335  0.11257499  0.46837524
   0.79497486  0.65677276 -0.10136574 -0.91743898]
 [-0.18136208  0.25478937  0.51907746  0.83496513 -0.31216967  0.05464811
   0.99730048 -0.91499757 -0.40371292 -0.33008785]
 [ 0.51878658 -0.28144836  0.78080685 -0.08522349 -0.74509356  0.56225386
   0.57142436 -0.19055317  0.10180249  0.42923267]
 [-0.5025673   0.65691539 -0.13142753 -0.92977725 -0.26522186  0.16666307
   0.55985611  0.02492123  0.0584908   0.56366668]
 [ 0.36847658  0.94861886  0.94913578 -0.38681826 -0.11944856  0.77736321
   0.93240495 -0.83330816 -0.77246959  0.84906616]
 [-0.02174396 -0.35565609  0.257844    0.58440741  0.3427759  -0.29933987
   0.54635996  0.00235305  0.6132454  -0.12655626]
 [-0.75832182 -0.79874401  0.56442943 -0.00907692  0.18365705  0.52137171
   0.4825461   0.52284977 -0.36664754 -0.27311153]
 [-0.62301013  0.54582681  0.31669395 -0.13687338 -0.44672425 -0.54365368
  -0.53939727  0.01514129 -0.74351035 -0.77447677]
 [ 0.59311424 -0.06509394  0.62982285 -0.18457845  0.48669598  0.15586961
   0.53439146 -0.75207463 -0.84394013 -0.73091768]
 [-0.80436775 -0.18132093 -0.68643276 -0.69761162 -0.07699319 -0.67916313
  -0.96362244  0.61559954 -0.52648113 -0.50815107]
 [ 0.21743519 -0.64444756  0.04585014 -0.179842    0.43342837 -0.68759616
  -0.17646832  0.84445365 -0.06301165 -0.17078755]
 [-0.71192666  0.33690732 -0.31316696 -0.49499923 -0.38034955 -0.75700751
   0.23698795  0.59242871 -0.07463278  0.08617848]
 [ 0.58266188  0.80940992 -0.59639832  0.57458316 -0.94167327  0.58431579
  -0.66363344  0.26880536 -0.03876138 -0.11963002]
 [-0.74170124 -0.54354332 -0.27359961 -0.98659484  0.30491622 -0.04531943
   0.55460144 -0.35795602 -0.85348487 -0.95597234]
 [ 0.75728395  0.65952535  0.51834931  0.61933107 -0.19200215  0.88172365
  -0.44627452 -0.17022693 -0.31475433 -0.69260578]
 [ 0.13440144 -0.82538023  0.25754301  0.23692281  0.70102413  0.98855889
  -0.87220833  0.26037496  0.24817391 -0.9399354 ]
 [-0.96663948  0.0833602   0.0721377   0.84709798  0.22727231 -0.54220636
   0.69403155 -0.178831    0.00680595 -0.49257606]]
[[ 0.37031703 -0.45304201  0.80447794 -0.69624852  0.18535924  0.87329461
   0.61200857]
 [ 0.17557776 -0.97000047 -0.15856476 -0.70009584 -0.88938026 -0.72165528
  -0.04696642]
 [ 0.49813314  0.08111322  0.51093408  0.00314492 -0.11836019 -0.38066201
   0.90069996]
 [-0.91855411 -0.60356912  0.13582986  0.23213108  0.08106671  0.09774643
   0.12356942]
 [ 0.7560425   0.75780988 -0.65791228  0.05772735  0.98283215 -0.47184719
  -0.24911105]
 [ 0.30906669  0.75517985 -0.96328471  0.0849341  -0.46318057  0.71318146
   0.20973591]
 [ 0.57737202 -0.67638792  0.69109014  0.89089874 -0.87273249  0.13548447
   0.72648323]
 [-0.92171565 -0.30017838 -0.31488257 -0.77739565 -0.44320825 -0.01212846
  -0.64379944]
 [-0.91350692  0.05681611  0.00836149  0.43488304 -0.00960668 -0.22174997
  -0.90093918]
 [-0.19549643 -0.83599932  0.83927616  0.15284449 -0.10562021  0.75534826
  -0.31041422]
 [-0.2468298   0.82869648  0.2578378  -0.50026961  0.08326406 -0.87238666
  -0.57569125]]
