[[ 8.59232186e-01 -3.67248891e-01 -6.32162377e-01 -5.90879443e-01
   1.35450058e-01  1.91089406e-01  9.29029039e-01  3.06354194e-01
   4.97813275e-01  3.07139742e-01  4.95429619e-01  9.22613472e-01
  -9.83223404e-01 -7.87111247e-01 -4.02592572e-01  3.12822366e-01
   6.19625105e-01  7.44351827e-01  9.29295195e-01  4.47370694e-01
   2.84950656e-01  4.34907242e-01 -6.48019856e-02 -3.48830645e-01
  -1.20710788e-01  4.59378165e-01  9.88029172e-01  3.53747424e-01
   5.81645036e-01 -6.58171484e-01]
 [-9.46301448e-01  6.00740488e-01  8.07445076e-01 -9.50647579e-01
  -1.65053631e-02  5.25103347e-02  1.92732021e-01 -8.96084910e-01
   7.90179056e-01  4.56532361e-01  6.36700023e-01  4.45505669e-04
   6.20378818e-01 -8.08062949e-01 -5.62099913e-01 -4.82561877e-01
  -6.37884921e-02 -8.12535948e-02  4.19019560e-01 -6.43893988e-01
   6.28997687e-02 -6.64515542e-01  5.37627837e-01  8.56341098e-01
   2.18987316e-01 -6.99633011e-01 -2.07465926e-02 -2.45310092e-01
   6.97202824e-01  8.22194457e-01]
 [-2.32302558e-01 -3.69008193e-01  1.36788306e-01 -6.24363930e-01
  -7.48316912e-01  3.75191610e-01  5.99213436e-01  1.47073130e-01
   9.46459963e-01  2.68108754e-01  7.76843450e-01 -9.17048249e-03
  -2.96766940e-01  4.28460737e-01  7.85823290e-03 -5.48724787e-01
  -5.10051120e-01  5.85601400e-01 -9.65517098e-03  8.30187347e-01
   8.90743668e-01  6.64644593e-02 -4.95014811e-01  4.41724116e-01
  -2.65122472e-01 -2.70311418e-03 -5.46849905e-01 -2.92868707e-01
   3.01703573e-01 -3.74134209e-01]
 [ 5.37470894e-01  5.63674207e-01  7.04818966e-01  8.99811480e-01
  -7.85354176e-01  8.21450712e-01 -3.27889676e-01  6.52760854e-01
   7.96201270e-01 -9.14569391e-01 -6.08410002e-01 -4.10997356e-01
   2.53999761e-01 -8.27553790e-01 -7.14109960e-01  3.16530385e-02
   3.78682659e-01  7.13251622e-01  2.94723367e-01  1.63237351e-01
   4.22231910e-01 -4.95166286e-01  8.00319367e-01 -1.15412614e-01
  -9.58958351e-01  9.19322028e-01  3.04450845e-01  2.64125002e-02
   3.64712766e-01 -2.09192187e-02]
 [ 8.52980343e-01  3.17595443e-02 -8.55680237e-01  1.35016596e-01
   2.30486367e-01  8.83092589e-01 -1.69273291e-01 -4.71120051e-01
  -8.05213669e-01 -2.83115562e-02 -7.06742743e-02 -9.40481366e-01
   3.88554924e-01  4.33894225e-01  4.59622847e-01 -1.71297966e-01
  -9.69802310e-01  8.17950315e-01  5.78757436e-01 -6.69601662e-01
  -3.74428077e-01  2.21890612e-01 -2.71019427e-01 -6.87922822e-01
  -6.45392373e-01  7.35779342e-01 -4.19810663e-01  1.70359243e-01
  -9.20102482e-02 -1.77643736e-01]
 [ 7.65268890e-01  3.85416030e-01 -4.41453290e-01 -8.71119538e-01
  -6.02752772e-01  8.63365489e-01  7.08827136e-01  9.09469469e-01
  -8.95493304e-01  1.58943361e-01 -3.90074667e-02 -9.56582042e-01
  -2.52759073e-01 -1.71816398e-01  2.07814468e-01  3.43497455e-01
   6.77731401e-01  5.59052417e-01 -1.98597912e-01  5.89058463e-01
   7.86248621e-01 -4.75020618e-01  9.78394015e-01  7.06614198e-01
   4.62954312e-01 -2.88868751e-01  7.66578981e-01  7.35918182e-01
   9.11532892e-01 -9.99785487e-01]
 [-9.66917916e-01 -3.71859885e-01  9.90632349e-01 -7.02311554e-01
  -6.65245763e-01  5.17144074e-01 -8.60940668e-01  4.10946877e-01
  -6.16694364e-02 -9.79623568e-01  5.49647726e-01  5.88402017e-01
  -7.00861097e-01 -9.52592736e-01  5.24127542e-01 -5.52659640e-01
  -4.75651204e-01 -8.62609944e-02 -5.00146163e-01  1.36567123e-01
   6.93885994e-01 -2.43800926e-01 -1.35069767e-01  6.65238353e-01
  -2.57736129e-01 -9.18893456e-01  1.09342972e-01 -9.75075144e-02
   4.50601953e-01 -2.43098955e-01]
 [ 6.81324991e-01 -6.13706128e-02  1.25286858e-01  3.22398678e-01
  -7.55162650e-02  2.47273891e-01 -5.56238738e-01  4.65726234e-01
  -2.36635823e-01 -6.10330916e-01 -4.57674450e-01 -5.01549896e-01
  -6.95721875e-01  5.42747408e-01 -4.89176535e-01 -7.44913190e-01
   3.30334307e-01 -1.74390103e-01  3.35535533e-01  3.19627034e-01
  -3.89244656e-01 -5.97551518e-01 -5.55945747e-01 -7.60058273e-01
  -9.25709118e-01 -9.31736833e-01 -5.39006904e-01 -5.43292587e-01
   2.49821244e-01  7.85122371e-01]
 [ 5.59456032e-01  4.42902537e-01 -3.79115682e-01 -2.73833167e-01
  -6.07836432e-01  8.70983596e-01  1.23468000e-01  6.34583074e-01
  -3.02172038e-01  5.99428526e-01 -7.91791075e-01  4.24240330e-01
   8.34896992e-01  6.07170737e-01 -3.45773707e-01 -4.89785641e-01
  -9.99565129e-03 -1.72778091e-01 -1.50125809e-01 -8.51243390e-01
   2.06781303e-01  4.94399467e-01  5.95152453e-01 -2.36998955e-01
   5.94316306e-01 -5.64052608e-02  4.42798342e-01 -6.21574621e-01
  -1.30808581e-01  6.46936218e-01]
 [ 6.52545256e-01 -6.20949033e-01 -9.59795660e-01  4.06982772e-01
  -3.05459761e-01 -1.60992368e-01  5.36177806e-01  9.25756133e-01
   7.85130614e-01 -7.30115467e-01  5.95609430e-01  3.64181215e-01
   6.01057742e-02  7.31963310e-01  5.06496191e-01 -8.13594826e-01
  -3.41121136e-01 -1.75274609e-01 -9.98070784e-01  1.95127126e-01
   3.65123084e-01 -2.67438477e-01 -2.07002285e-01 -4.92817090e-02
   1.62159801e-01 -7.25725744e-01  9.98828347e-01  1.46544176e-02
  -1.38665909e-02 -6.26250490e-01]
 [-4.07823970e-01  5.97030118e-01 -4.10443414e-01  3.94243187e-01
  -4.54081542e-01  8.25056903e-01 -4.02921532e-01  7.79719544e-01
   8.93444588e-01 -6.62174354e-01 -2.81417189e-01  3.64354606e-01
   8.42783940e-01 -7.10151312e-01 -8.00251230e-01 -1.76794447e-01
   9.50250742e-01 -9.16986918e-01 -6.26171411e-01  2.17535976e-01
  -8.25562570e-01 -3.67423692e-01  2.20271553e-01 -5.97610574e-01
   3.83795433e-01 -5.10746058e-01  3.60743392e-01 -2.81245422e-02
  -4.79010377e-01 -4.34519362e-01]
 [ 8.10903240e-01 -4.48314625e-01  6.82296085e-01 -6.07151251e-01
  -3.38833141e-01  8.93259770e-01  1.21436991e-02 -1.93168283e-01
  -9.45876923e-01  2.43547379e-01 -3.05302986e-01 -4.46401544e-01
  -8.71890452e-01 -3.31218962e-01 -8.64580115e-01 -9.92351503e-01
  -9.18064393e-01 -3.02090269e-01 -8.16091378e-01  4.06314529e-02
  -5.68500373e-01  9.83333090e-01 -4.65625678e-01  3.60336105e-01
   5.24922383e-02 -1.20153861e-01  3.23110491e-01 -7.30429651e-01
   5.75698010e-01 -7.24044598e-01]
 [ 2.65846595e-01 -5.72669285e-01 -9.53249371e-01  2.53867947e-01
   2.84327453e-01  2.84206674e-01  7.29241799e-01 -3.25597193e-01
  -1.78083227e-01  2.20637368e-01  8.81686381e-01 -6.95845460e-01
  -6.31883988e-01 -6.91123424e-01  4.25648652e-01  8.55966323e-01
  -1.54625640e-01  9.03545273e-02 -3.55222069e-01 -6.78590634e-01
   4.06304049e-01  4.60496813e-01  9.20809075e-01 -2.59018858e-01
   4.33396784e-01  9.72122436e-01 -7.78464883e-01  5.16457098e-01
  -6.84891757e-01  6.32870511e-01]
 [ 1.08213092e-01  1.63420442e-01  8.72291166e-01 -1.31304490e-01
  -2.17456273e-02  3.32260934e-01  2.60308002e-01 -7.39590499e-01
  -2.92312058e-01  2.70246769e-01  8.37911722e-01 -8.17466559e-01
  -8.57835750e-01 -1.72576728e-01 -5.68717661e-01  3.93972631e-02
   1.17028044e-01 -5.25996722e-02 -5.68255757e-01 -5.21122229e-01
  -5.66523495e-01  3.11380756e-01  6.92786901e-01  8.60928787e-01
   6.00611034e-01  3.61451690e-01 -5.85486084e-01  4.83319450e-01
   3.93809171e-01 -2.36481051e-01]
 [ 7.00238249e-01  5.62223622e-02  7.86018138e-01  6.41118750e-01
  -5.42842761e-01  6.41247939e-01 -7.22877150e-01 -3.50650097e-02
  -7.02378887e-01 -1.03411890e-01  3.31912945e-01  5.78064850e-01
   3.24041516e-01  4.23024858e-01  7.75847324e-01 -7.16649418e-01
  -7.04859753e-01 -3.48138314e-01 -9.36252341e-01  3.75525789e-01
   5.29460090e-01 -2.99981163e-01  2.32015221e-01  9.16999718e-01
  -4.17894767e-01  3.73356925e-01 -9.15543539e-01 -8.74992737e-01
   6.28797391e-01 -1.26763275e-01]
 [-2.15863136e-01 -3.38704641e-01 -8.46823432e-02  6.70704305e-01
  -6.64622476e-02 -1.57428024e-01  1.41703106e-01  4.78111913e-01
  -8.89833183e-01  2.48361298e-01  2.42120655e-01 -9.97778936e-01
   2.05787013e-01 -9.19629176e-01  1.71500734e-01 -1.03241151e-01
  -2.92539465e-01  8.67050469e-01 -4.65488136e-01 -4.37401239e-01
   9.81192729e-03  2.93612237e-01  9.41146858e-01 -9.28249041e-01
  -1.53600268e-01  1.76624177e-01  4.63404565e-01 -6.48977854e-01
   2.10775692e-02  5.69191679e-04]
 [ 7.85535264e-01 -2.34634585e-01  3.25727674e-01 -9.06376881e-01
   5.02446568e-01 -2.62429415e-01  8.96057273e-01 -3.05549564e-01
   3.67786398e-01  6.49269763e-01 -2.74940115e-02  9.68351743e-01
   2.07628076e-01  5.19249664e-01  3.69033391e-01  8.64832454e-01
   8.99570943e-01  9.80222256e-01 -7.47689234e-01  9.53201235e-01
  -5.41788688e-01 -6.27887154e-01  1.84228440e-02  6.09953653e-02
  -4.34721517e-01 -3.79676929e-01 -3.80231248e-01 -4.67222228e-01
   1.86862302e-01 -5.65731255e-01]
 [-1.95234165e-01 -4.22877521e-01 -6.52318370e-01 -5.48572953e-01
   9.77282835e-01 -1.31897294e-01  6.56378552e-01  1.45025664e-01
   3.03800557e-01  4.59476312e-01 -2.17432698e-01 -2.14275087e-01
   7.19102461e-01  6.20039222e-01  6.73087769e-01 -6.24024151e-01
  -2.80806505e-01 -3.60320339e-02  9.32145292e-01  1.26626368e-01
   6.55009725e-01 -8.47784780e-01  1.06275889e-01  9.58809195e-02
   8.10887196e-01 -2.61022651e-01  8.02325284e-01 -7.18737950e-01
  -8.01652549e-01  9.46366520e-01]
 [ 8.84090041e-01  1.81893920e-01 -8.96084271e-01 -8.99696605e-01
  -3.50795646e-01 -2.48500476e-01  5.28298639e-01  7.18531687e-01
   9.14165483e-02 -3.52290034e-01 -1.88370265e-01 -7.80664454e-01
  -7.25417366e-01  4.90777938e-01  7.52831081e-01 -4.82021313e-01
   3.71203322e-01 -2.81777049e-01 -9.87965749e-01  5.22361714e-01
  -1.71955213e-01 -3.32216051e-01 -4.43913834e-01  1.85028318e-01
  -3.49798716e-01  8.73610682e-01 -8.08034049e-01  7.66591492e-01
   1.36035466e-01 -8.76153051e-01]
 [ 7.49977330e-01 -5.50294466e-01  5.98766563e-01  6.03749966e-01
  -9.42090961e-01  2.54198007e-01  2.09278522e-01 -8.43584950e-01
   5.45907125e-01 -7.13366751e-01 -7.26307843e-02 -8.05778648e-01
   1.39708432e-01 -1.92466084e-01  1.73157409e-01  4.97412749e-01
   7.79227666e-01 -2.41219689e-01 -4.15127476e-01  1.85804799e-02
   6.56272008e-02 -7.89156759e-01 -9.08117993e-01  2.43986298e-01
   6.44889845e-01 -8.89872860e-01  5.95946891e-01 -5.11510156e-01
   6.07075484e-01 -4.03649869e-01]
 [-6.54580737e-02  8.65639316e-01  8.19513569e-01 -7.40144553e-01
   5.89954019e-02  2.38331556e-01  2.49230436e-01  2.93617672e-01
  -3.35847054e-01 -7.71555326e-01  1.42208982e-01 -3.96017041e-01
  -6.12988788e-01  1.29411384e-01  2.20965304e-01 -9.09340439e-01
   9.70751281e-01 -7.92545926e-01 -1.88205315e-01  3.31118167e-01
  -6.05975908e-01 -5.16439080e-01  2.46344907e-01  5.97476702e-01
   8.92727341e-02 -6.04825262e-01  5.68243482e-01  6.28667644e-01
   4.21778034e-01  8.88085481e-01]
 [ 7.09895181e-01  9.27152612e-01 -7.07216041e-02 -3.00095099e-02
   1.72937492e-01  8.83977754e-01 -2.55433515e-01  1.96484503e-01
   2.27224602e-01  1.20128230e-01 -7.62964306e-01 -1.94175910e-01
  -5.57002291e-01  5.76557390e-01  5.27975285e-01 -6.51243984e-01
   4.47707583e-01  8.49124276e-01 -4.81300980e-02  8.25877781e-01
  -1.25156068e-01 -8.68278946e-01 -2.72588684e-01 -6.21102248e-01
  -7.03334800e-01 -5.77838757e-01  7.59119128e-01  6.35492212e-01
   2.63127361e-01  9.10564979e-01]
 [-7.61899405e-01  2.04544383e-01 -3.37150715e-01  6.43061321e-01
   3.19577476e-01 -1.54857885e-01  4.32165829e-01 -5.69422237e-01
  -9.66334245e-01 -4.38538738e-01  2.03442172e-01 -7.88881739e-02
   4.21333618e-01 -6.70648278e-01  8.80472124e-01  9.10896744e-01
   9.61461639e-01 -8.82340153e-01  4.80740296e-01  2.01304176e-01
  -8.22093347e-01  9.78682103e-01  9.76846046e-02  3.48935817e-01
   4.49785943e-01  1.36988912e-01  5.49757225e-02 -6.98494108e-01
  -5.19431004e-01 -1.94837418e-01]
 [-8.64325394e-01  5.16769799e-01 -3.14615795e-01  9.79477680e-01
   7.77122386e-01  8.77082477e-01  4.78201578e-01 -9.46106323e-01
  -2.35208227e-01 -9.78947208e-01 -8.69535860e-01  3.62785391e-01
   9.73318952e-01  3.32501260e-01 -1.69793966e-01 -9.17678594e-01
   7.88573716e-01  4.13573947e-01 -4.22013528e-02 -5.68775015e-01
  -8.36467872e-01  3.46404408e-01  9.89558378e-01  1.87064633e-01
   6.80364898e-01 -6.94043883e-01  7.52283147e-01  8.96711938e-02
   9.67284551e-01  4.71404282e-01]
 [-8.13833601e-01 -4.15551966e-01 -4.53903666e-01 -8.57667173e-01
   3.60045785e-01 -5.50553874e-01  1.02999449e-01  5.39484667e-01
  -5.76563967e-01 -4.14422920e-01 -2.87165417e-01  9.12734981e-01
   3.20487724e-01  9.01024809e-01 -8.06264818e-01 -4.70947034e-01
  -4.55723998e-01  6.70174347e-01  6.25704775e-01 -4.12511687e-01
   2.99419879e-01 -1.58010723e-01 -8.50696651e-01  4.77613710e-01
   1.70740085e-01 -3.10658805e-01 -4.83993643e-01 -4.16363933e-01
   5.39460836e-01 -1.51369117e-01]
 [-4.22856328e-01 -4.71636816e-01 -4.46162130e-01  6.84712020e-01
  -6.60755426e-01 -4.95826747e-01  1.83750401e-01  9.50719436e-01
  -9.91737683e-01 -5.19967758e-01  4.53032200e-01 -4.98550946e-01
   8.36316272e-01  1.63038163e-02  5.06414606e-03  4.24607736e-01
   2.79536062e-01 -4.31394716e-01 -9.80433359e-01  1.89479131e-01
   6.82029965e-01 -2.68194860e-02  5.61590273e-01 -1.74930275e-01
  -2.40388875e-01  7.96891018e-01  7.93452252e-01  4.40893498e-01
  -4.30296521e-01 -3.20201668e-01]
 [-4.29657949e-01  5.59221582e-01 -9.90854251e-01 -8.30624849e-01
  -1.17285470e-01 -4.97865358e-01  8.11745193e-01  7.61765356e-01
   4.33040759e-01 -5.22647377e-01  8.50581857e-01  9.39236888e-01
   1.56478019e-01 -4.61944746e-01 -3.98181108e-01  2.50664533e-01
   5.59688140e-01 -1.57793246e-01  3.13959435e-01 -1.52760161e-01
  -2.96548262e-01  2.49256674e-01  6.22996682e-01 -1.25637661e-02
  -8.93698662e-01 -3.37313618e-02  9.26821056e-03 -1.26164384e-01
  -2.47968556e-01  5.55756076e-01]
 [-7.99844578e-01 -9.67041132e-01  5.64752008e-01  7.06317404e-01
  -5.52596491e-01  2.53845136e-01 -8.70659419e-01 -5.22158396e-01
  -8.04539278e-02  3.25365139e-01 -5.64596759e-01 -6.01059819e-02
   9.56581969e-01  2.61074776e-02 -5.97373570e-02  3.32282037e-01
   4.24409422e-02 -4.85461784e-01  6.48335827e-01 -7.42429737e-01
  -6.56112437e-01 -6.50176150e-01 -2.36118888e-01 -7.96813500e-01
  -2.20406783e-01  6.19828850e-01 -2.92496410e-01  7.53035606e-01
   9.17664788e-01  6.77456845e-01]
 [-7.69909234e-01  1.24823329e-01 -7.83123980e-01  7.51736846e-01
  -2.99984374e-01  7.95430171e-01 -7.51645216e-01  2.75723657e-01
   7.45050301e-01 -9.97868871e-01 -3.90560300e-01 -9.42350658e-01
   9.94590061e-02 -6.49617230e-01  1.80051058e-01 -9.89758774e-01
  -4.35954453e-01  5.19595839e-01  7.43890028e-01  1.08424596e-02
  -3.25106613e-02 -9.04483569e-01  5.01609836e-01  6.62668630e-01
   7.32067692e-01  6.53563959e-01 -8.39531279e-04 -9.82467943e-01
  -3.17611844e-01  4.80245711e-01]
 [ 8.21576280e-01 -4.12083915e-01 -6.26585420e-01  7.68433920e-01
  -2.31864415e-01  2.33812362e-01  1.93951234e-01 -3.53398774e-01
   2.80073152e-01 -1.02818769e-01  3.96919923e-01 -6.76124563e-01
  -6.09283782e-01 -3.44159940e-02  1.25317092e-04  5.36188667e-01
  -6.14279727e-01  9.84338712e-01 -3.49400819e-01  6.92000937e-01
   6.36284226e-01  8.13143955e-01  4.78891874e-01 -3.66678828e-01
  -9.44883784e-01  1.26077287e-01  9.13347395e-01 -6.87982955e-01
   5.15469370e-01 -9.17314176e-01]
 [-6.10902701e-01  4.05125347e-02 -7.02044736e-02  5.79019335e-01
  -7.43883080e-01  7.84830655e-01 -6.47215809e-01 -1.30238609e-01
  -7.01293254e-01  3.77529148e-01  6.28007202e-01 -6.14900676e-01
   1.56277977e-01  4.41733146e-01 -4.97350263e-02 -4.76097716e-01
   4.68258865e-01 -3.01586095e-01  3.42928852e-01 -8.89883292e-01
   7.94090970e-01  4.32903054e-02 -4.49553899e-01  6.87001394e-01
  -1.15052936e-01  3.38499776e-01  9.85293396e-01  7.05338095e-01
   8.67096231e-01  7.24255785e-01]
 [-8.65901180e-01 -4.16369997e-01 -6.07341654e-01 -1.77978715e-01
  -1.61634026e-01  9.16535138e-01  8.48164094e-01  9.67338147e-01
  -2.37335322e-01  9.28174673e-01  1.80630223e-01  2.13137530e-03
  -4.35805894e-01 -6.75267786e-01 -1.02424964e-01 -3.05405466e-01
   4.77113083e-02  8.76594378e-02 -9.78421632e-01 -4.06887740e-01
  -6.63438652e-01  9.17016638e-01 -5.27136551e-01  6.65310647e-01
   4.15510473e-01  1.21317725e-01  4.02236024e-01 -5.75991480e-01
   3.82079243e-01  2.43211605e-01]
 [ 4.34898617e-01 -6.94605462e-01 -8.11493253e-01  9.02368901e-01
  -1.92103994e-01  2.86849512e-01  9.20983124e-01  6.74634856e-01
  -7.38732525e-01  1.94871994e-03 -6.36555301e-01 -8.99246463e-01
   7.90135142e-01 -4.67926092e-01 -8.92472831e-01 -1.30639862e-03
   5.60222246e-01  1.13895958e-01 -7.29893002e-01 -2.22846524e-01
  -4.84653680e-01  5.46492084e-02  8.05341678e-01  7.06227515e-01
   6.73646529e-01 -5.68242985e-01 -7.32900358e-01 -7.59515958e-01
   7.49248762e-01 -8.39943189e-01]
 [-2.21172092e-01 -6.36362551e-01 -1.77693409e-01  6.66766457e-01
   9.56896317e-01 -9.91501289e-01  1.19712840e-01  5.03559624e-01
  -2.19910372e-01 -3.82789600e-01  5.95289072e-01  4.45541554e-01
   6.01781893e-01  9.43365490e-01  7.54999786e-01  2.13682773e-01
  -4.51914908e-01  3.75481471e-02  1.37784296e-01  9.03688790e-01
  -1.11113911e-01  8.91051443e-01  1.45573592e-01  8.34745076e-01
  -2.32039493e-01 -9.06080342e-01  7.21023685e-01  4.94461968e-01
   1.03563665e-01  2.34825255e-01]
 [ 6.76135827e-01  7.99636818e-01 -1.06377070e-01 -7.94799077e-01
   6.56159190e-01  7.30563793e-01 -5.05446086e-01 -1.01451643e-01
   2.86936010e-01 -2.44755145e-01 -3.84809235e-01  7.87037972e-01
   2.07014147e-01  7.54660396e-01 -8.81406632e-01  2.47907518e-01
   6.77647854e-01  2.13727306e-01  3.55035802e-01  3.95971660e-01
   8.88940340e-01  7.65777069e-01 -6.60235543e-01  3.59178077e-01
  -9.35197526e-01  5.80912760e-01  6.24117819e-01 -5.78068905e-01
   3.95837801e-02  5.74535680e-01]
 [ 1.18185314e-02  9.82466299e-01 -5.21454943e-02 -8.69894736e-02
   7.22749154e-01  8.03020572e-01  3.06933682e-01  6.10283636e-01
  -9.95677872e-01  2.78936350e-01  6.52837739e-01 -9.18393009e-01
   1.82131199e-01 -6.09407723e-01 -1.88292690e-01 -3.17525885e-01
   9.52834230e-01  4.63490736e-01  9.33112798e-01  9.57315694e-02
  -5.94214900e-01 -6.37029999e-01  4.27090061e-01  7.17583670e-01
   3.41747380e-01 -2.72080534e-01 -7.81480946e-01  2.43658348e-01
  -6.29406723e-01 -5.59753931e-01]
 [-4.09027892e-01  4.66667782e-01 -1.48992325e-02  9.32059971e-01
   3.02076963e-01 -5.98497741e-01 -4.42074195e-01 -2.81447309e-01
  -8.81650084e-01 -4.63884687e-01 -2.02663643e-01  2.47887497e-01
   2.45969745e-01  9.75783825e-01  6.35865020e-01 -3.50255950e-01
  -8.51392446e-01  5.41245879e-01  5.43017744e-02  2.79313208e-01
  -9.12186998e-01  4.78647523e-01  8.05487614e-01  3.82330943e-01
  -6.70497991e-01 -4.74430812e-01 -8.31700978e-02  4.70360015e-01
   1.44031341e-01  4.90585948e-01]
 [-7.95299177e-01  7.97649528e-01 -5.55110626e-01 -3.27816074e-01
  -3.36171439e-01 -3.56364508e-01  6.95223416e-01 -2.04941739e-01
  -3.51798626e-01 -6.86846073e-01  4.63842769e-01 -1.47188343e-01
   2.39357806e-01 -7.98757814e-01  1.77980217e-01 -6.00785099e-01
   2.10545632e-01  3.85188074e-01  7.77509050e-01  4.01657146e-01
   8.74726821e-01 -3.20261029e-01  2.80410951e-01  4.28820701e-01
  -5.47901803e-01  6.24522808e-01 -6.32239266e-01 -4.87583180e-01
  -3.40086160e-01  5.88865307e-01]
 [ 1.55005709e-01  2.31056685e-01 -9.35534174e-01  9.23048812e-01
   3.15991234e-01  9.20782699e-01 -5.96509669e-01  1.06140012e-01
  -5.33103623e-01 -6.29647652e-01 -7.97788726e-01 -7.94799223e-01
  -7.14772293e-01 -2.88295255e-01 -3.77468421e-01 -3.01873288e-01
  -2.70931149e-01 -7.06308533e-01  6.79220476e-02  8.60525270e-01
   9.63953937e-01 -8.86588957e-01 -5.28706801e-01  6.74358152e-01
   7.74555560e-01 -5.33921531e-01 -5.75029159e-01 -9.66008286e-01
   1.82450293e-01  7.34227979e-01]
 [ 6.26383404e-01  7.75457585e-01  5.72297303e-01 -2.66910860e-01
   8.05821216e-01 -8.21573967e-01  3.75032597e-01 -2.36541233e-01
   5.07014217e-01  4.59679571e-01  8.83043460e-01 -1.77205931e-01
  -2.36561983e-01 -2.80585690e-01 -6.14156519e-01 -2.85441505e-01
  -6.78416723e-01 -4.65460412e-01 -7.66670881e-01 -9.51218291e-01
   8.17593832e-01  7.13825690e-01  4.39550890e-01 -7.78405137e-01
  -4.27095875e-01 -6.57794555e-01 -9.80597514e-01  6.32646381e-01
   6.37877544e-01 -3.91017540e-01]
 [-9.41742747e-01 -2.68367425e-01 -6.08659036e-01 -5.68400233e-02
   7.95364351e-01 -2.34430337e-01 -7.72932965e-01  2.03275341e-01
  -7.41862910e-02 -2.48972221e-01 -7.98930130e-01  8.14851484e-01
   7.69839421e-01 -4.96136162e-01 -9.09680872e-01  7.69113631e-01
  -6.83445372e-01  2.43610410e-01  3.20470834e-01  3.87749101e-02
   5.13676456e-01 -2.38003345e-01  4.47738842e-01 -9.53171450e-01
   3.96809239e-01 -5.88712926e-01 -5.90653561e-01  9.12123849e-01
  -1.91280069e-03 -7.09396456e-01]
 [ 4.16418057e-01 -1.94259578e-01  1.79146333e-01 -6.80974809e-02
   1.64272483e-01 -8.99293831e-01 -7.05839516e-01 -8.47655063e-02
   5.16815652e-01  2.32835655e-01  4.34624170e-01 -4.59162990e-01
  -3.35593981e-01 -1.48836175e-01  8.93815789e-01 -3.71156895e-01
   4.09715604e-01 -9.28187310e-01 -3.20026939e-01  8.78106235e-01
   9.33809039e-03  3.23872122e-01 -4.25091193e-01  6.17623861e-01
   9.19437717e-01 -1.21762788e-01 -4.71046992e-01  9.06332977e-02
   6.69323421e-01 -8.95875275e-01]
 [-6.77662546e-01 -9.14781037e-01 -9.89248595e-01 -2.42301554e-01
   9.54380489e-01 -6.62728536e-01  3.78397739e-01  1.07254002e-01
  -4.12925099e-01 -8.10516661e-01 -9.76700332e-01 -7.22341395e-02
   9.18815800e-01  1.56706165e-01 -4.03705618e-01  1.31359272e-01
   3.19247291e-01  2.29610351e-01 -2.78301380e-02 -9.70714099e-01
  -6.19342189e-01  7.83664428e-01 -9.87459339e-02 -4.61686847e-01
   1.96280716e-01  1.01334441e-01  8.93115090e-01  9.08411651e-01
   1.85434748e-01 -6.58274142e-01]
 [-4.78145383e-01 -9.36665142e-01 -1.23245359e-01 -7.52210526e-01
   2.96687577e-01 -9.94756935e-01 -3.63166624e-01 -2.36935885e-01
  -3.94369687e-01 -3.87679998e-01 -4.63480777e-01  8.26385606e-01
  -2.51573144e-01 -2.55148356e-01  1.36295448e-01 -7.08040885e-01
   9.87659514e-01 -2.09814872e-01  5.41486771e-01 -7.46876127e-01
  -8.13525224e-01 -4.62276646e-01  3.24668866e-01 -3.51473913e-01
  -9.82149878e-01 -6.24421306e-01 -6.11103281e-01 -4.74963920e-01
  -4.84688109e-01  6.14639971e-01]
 [ 7.65422248e-01  2.88937957e-01  2.82608249e-01 -6.73114895e-01
   8.24931424e-02 -2.40842482e-01  4.69971423e-01  7.67420214e-01
  -5.74606606e-01 -4.85286675e-01  2.26532614e-01 -3.12921448e-02
  -2.48235371e-01 -5.04697156e-01 -3.73112990e-01  7.36396120e-01
   6.28483155e-01 -8.49265810e-02  7.40854612e-01  7.75966753e-01
   5.77931589e-01 -7.31087564e-01  1.60978230e-01 -8.55272450e-01
   3.25082717e-01 -1.21367503e-01 -4.01473320e-01 -6.78263425e-02
   9.38255646e-01  4.04931703e-01]
 [-9.39578409e-01  8.93296696e-01  7.51703558e-01 -7.59131522e-01
  -3.98649554e-02 -9.54209458e-01  7.13948258e-01 -7.34085329e-01
   3.01415806e-03 -4.77164266e-01 -8.16294106e-01 -6.38989533e-01
  -4.05682161e-01  6.83493066e-01  1.45702864e-01  1.60972132e-01
  -3.71146976e-01  8.64465199e-01 -2.23534368e-01 -7.37529659e-01
   6.19018939e-01  8.11873297e-01 -3.15051015e-02 -9.18367649e-01
   7.00147508e-01 -2.23671446e-02 -3.34187362e-01 -5.79825801e-01
  -6.87275493e-02  8.47637965e-01]
 [ 7.92770687e-01 -1.32607073e-01  9.75057656e-01  7.41492318e-01
   7.05831455e-02  3.63684560e-01 -9.98091212e-01 -5.79154368e-01
  -6.94917855e-01  1.66954415e-01  6.38598900e-01  5.69020945e-01
   3.47488489e-02  7.21592179e-01  2.57849086e-01  8.84378506e-01
  -7.94816979e-01 -9.51545081e-01 -5.77607647e-01  9.82060189e-01
  -8.53727856e-01  1.91967634e-01  6.83302818e-01 -6.63159701e-01
  -6.12031570e-02  1.71248090e-01  1.94206800e-01  8.02547713e-01
  -5.76830646e-01  7.73513785e-01]
 [ 1.42351753e-01  1.81229315e-01  9.36467658e-01  6.15834326e-01
  -9.02956481e-01  2.40165789e-01  9.96397437e-01  7.66516541e-01
   6.84154516e-02 -9.07823794e-01  4.24547049e-01  4.59036372e-01
  -8.05734350e-01 -7.87097026e-01 -8.73494960e-01 -2.49783578e-01
  -5.99825543e-01 -2.21841628e-01 -7.96948796e-01 -8.55705145e-01
  -3.35218803e-01 -5.93760756e-01  6.69527603e-01 -8.58156947e-01
  -5.68712520e-01  8.17086405e-01  4.59791215e-01 -8.08150647e-01
  -1.60453398e-01 -2.74530754e-01]
 [ 6.81953487e-01  8.03872294e-01  7.18731796e-01 -7.36823566e-01
  -9.05501815e-01  4.22359426e-03  3.18535239e-01 -6.01930234e-01
  -6.27827750e-01  1.63854437e-01 -5.05655188e-01 -6.66270206e-01
   2.10194162e-01 -4.68810012e-01  6.91418545e-01  7.47682976e-01
   1.52956470e-01 -3.31477473e-01 -6.95961067e-01  2.77804935e-01
  -4.12710691e-01  6.43299651e-01 -7.14054903e-01  2.31960259e-01
  -6.46547542e-01 -6.91129519e-01  9.06705812e-01  7.50481106e-01
  -2.15704931e-01 -3.62532952e-02]
 [-6.01001930e-01  6.33825010e-01 -6.96318377e-01 -4.04793212e-01
  -3.35015465e-02 -5.14798552e-01  3.25234480e-01 -8.82441968e-02
  -6.41777900e-01 -5.33443436e-01 -9.63931595e-01 -3.88651904e-01
  -1.42881689e-01 -9.27953745e-01  3.45527067e-01  3.96663409e-01
   2.87490385e-02 -3.36165203e-01  1.32367802e-01 -4.44701261e-01
   7.24163611e-02 -6.11547215e-01 -5.08061652e-01 -9.62398149e-01
  -1.44008225e-01 -6.40804359e-01  6.27931508e-01 -1.88052801e-01
  -6.52177441e-02 -2.55594389e-01]
 [ 2.88279447e-01  3.40184692e-01  3.58331102e-01  8.21587754e-01
  -8.48339744e-01 -5.47417512e-01  7.39176932e-01  5.38865925e-01
  -9.25147142e-01 -1.56302299e-01 -1.94707447e-01 -8.50219929e-01
  -7.35911743e-01 -4.16919861e-01 -6.67511093e-01  7.35017135e-01
  -2.78629628e-01 -4.53690744e-01 -7.45938826e-01  5.00075812e-01
  -1.96409771e-01  7.49188568e-01  6.71246086e-01  4.76009132e-01
   7.00982211e-01  2.66082911e-01 -9.25450221e-01  8.70508564e-01
   4.81215259e-02 -2.43693666e-01]
 [-5.56303124e-02 -4.23967621e-04 -4.03340624e-01 -5.73634495e-01
  -4.28503740e-02 -8.99737237e-01 -9.28578844e-02 -7.65787024e-01
   6.20250757e-01 -2.24121473e-01 -4.41024410e-01 -7.52488151e-01
  -8.87484933e-01 -4.53315963e-01 -3.04470632e-01  9.08104085e-01
   4.53312418e-01 -7.90366144e-01 -2.03691502e-01 -9.92638245e-01
   4.81079571e-01  8.99885481e-01 -1.55753356e-01 -7.99319629e-01
  -5.41504714e-01  2.77790045e-01  8.18540699e-01  1.10752543e-01
  -2.48213018e-01  6.74097911e-01]
 [ 4.13208185e-01 -9.85071227e-01  1.86873934e-01  4.98154815e-01
  -9.81015401e-01 -6.64396001e-01  4.96849140e-01  7.13235982e-01
   8.03742256e-01 -2.95881342e-01 -6.55482421e-01  7.71585441e-01
   5.67474351e-01 -2.19206830e-01 -8.18067387e-01 -8.04279384e-01
   6.91778040e-01  5.38187790e-01  8.64571558e-01  3.77239205e-01
  -5.62317829e-01 -9.23032410e-01 -8.05592621e-01 -6.27390289e-01
   2.50596903e-01  5.57676362e-01  7.41227678e-01 -9.34382427e-01
  -7.16831759e-01  4.06191686e-01]
 [-2.52637683e-01 -5.82272467e-01 -1.52216829e-01  3.06837153e-01
   8.08464412e-01 -5.73633847e-01 -4.49337686e-01  3.87072859e-01
  -8.70336998e-01  6.79840333e-01  3.81135607e-01 -2.80612265e-02
   3.30605872e-01 -9.18666041e-01 -8.75329116e-01  4.30049571e-01
   1.86005161e-01 -5.34775902e-02 -4.79317180e-02  9.87057498e-01
   9.41639123e-01 -1.16139511e-02  9.74847755e-01  3.20888489e-01
  -8.05979357e-01 -3.15896424e-01  1.39492907e-01 -2.85615624e-02
   3.87798699e-01  2.37543894e-01]
 [ 5.70986730e-01  2.41435817e-01 -5.82378880e-01  4.01315104e-01
  -1.83785775e-01  3.76740615e-01  3.85634542e-01  9.91862622e-03
   1.57550867e-02  5.33245842e-02  8.84976094e-01  4.72861915e-01
  -2.48138247e-01  1.60942285e-01  6.49649297e-02  1.85878118e-01
  -9.02288760e-02 -2.26099107e-02 -2.55469934e-01 -1.95780697e-01
  -2.71018420e-02  1.67776393e-01 -5.23223922e-03 -6.49239428e-01
   6.62289722e-01 -3.41563059e-01  4.00239657e-01 -1.67590974e-01
  -3.09528713e-01 -7.09401858e-01]
 [ 9.70367388e-01 -4.71641157e-01 -9.05174597e-01 -2.94737765e-01
  -5.30231068e-02 -3.39750158e-01 -6.72968062e-01  2.89661770e-01
  -1.00627242e-01  9.17948342e-01  2.53990438e-01  4.22903420e-01
   6.73548407e-01 -5.86105863e-01 -2.85462924e-01 -6.20335464e-01
  -3.24674482e-01  1.20868450e-01  4.92041969e-02  1.70071506e-01
  -3.57597627e-01  1.47757054e-01 -6.36093101e-01  6.74698976e-01
  -6.70857329e-02 -4.38995165e-01  2.71831324e-01 -6.88524416e-01
   2.07147744e-01  4.25929221e-01]
 [-2.92818624e-01  3.40930511e-01 -3.33216456e-01 -2.56556089e-01
   5.03532987e-01  7.03926379e-01  2.97468529e-01 -4.25793191e-01
   9.31554560e-01 -5.95267936e-01  7.91896902e-01 -9.70036647e-02
   7.55007259e-01 -4.97299649e-01  9.83709943e-01 -2.39259243e-01
   3.81936987e-01 -8.42427937e-01 -9.51100164e-01 -2.50738457e-01
  -6.12628184e-01 -3.51841591e-01  4.02094041e-01  4.46689857e-01
  -5.42982237e-01 -2.00270216e-01 -5.13267358e-01  3.38465083e-01
   1.01184256e-01  5.37365626e-01]
 [-3.71673940e-01  7.68873043e-01 -6.36950092e-01  2.67433864e-01
   1.95579832e-01 -1.75556092e-01 -8.18921565e-01 -1.69873910e-01
   9.73856380e-01 -5.90736473e-01 -7.55827919e-01  4.15431541e-01
  -1.65972677e-01 -3.85018236e-01 -8.70548209e-01 -5.98955515e-01
   4.31766084e-01  9.59345959e-02 -8.94092259e-01 -7.43999321e-02
  -1.56760206e-02 -5.47938099e-01 -5.77100698e-01  4.12358115e-01
   9.44477624e-02 -3.90195460e-01  6.81922795e-01 -3.41162960e-02
   8.35669460e-01  7.83496629e-01]
 [-5.06329219e-01  2.73003148e-01  1.68635240e-01 -4.87735822e-01
   6.04557972e-01 -8.04152473e-01 -7.24263675e-01  8.08386813e-01
   7.10897555e-02  3.25865962e-01  3.77933859e-01 -9.10106130e-01
   5.33935456e-01  5.81770142e-01  8.35186610e-01 -6.64733029e-02
  -9.08888857e-01 -2.06052465e-01  2.38783996e-01 -1.16607633e-02
  -1.89657551e-01 -7.71144036e-01 -4.31853088e-01  9.70094990e-01
   2.47753031e-01 -6.42208801e-01 -4.21493920e-01 -6.66517193e-01
   7.73540224e-01  8.38848229e-01]
 [ 4.83686048e-01  8.28915583e-01  8.97664699e-01  3.65317107e-01
   8.72043919e-01  4.77839057e-01  3.12021401e-01 -4.05749263e-01
  -4.86098884e-01  4.27106164e-01  6.61222932e-01  7.92216941e-02
   2.40356286e-01 -9.59521486e-01  5.63518758e-01  6.03383339e-01
   4.11538908e-01 -6.93829844e-01 -6.26590475e-01  5.99074541e-01
   4.98327644e-01 -2.80595339e-01  9.65457965e-01  5.88320970e-02
   2.53085476e-01 -7.47010138e-01 -2.00472695e-01 -6.78383762e-01
  -6.37150690e-01 -5.85667940e-01]
 [-3.50537121e-01 -1.52759523e-01  8.56971889e-01 -2.17538557e-01
   7.19882263e-01  9.65546520e-01  6.41783179e-02  5.14878726e-01
  -2.80420274e-01 -7.71943682e-01 -2.00774055e-01  3.35211468e-01
   8.74847310e-02  5.45226654e-01  8.70490335e-01  8.04921988e-01
   9.17781829e-01  8.49054876e-01 -7.49830155e-01  9.39831759e-01
  -7.21300782e-01  4.66865512e-01 -9.66755629e-03  3.35389276e-01
  -8.43569397e-01 -8.71001334e-01  8.68540572e-01 -2.30918952e-01
  -9.81332870e-01 -8.34508489e-01]
 [-2.05144347e-01 -2.15182874e-01 -8.08157369e-01 -9.00402145e-01
  -8.51168178e-01  5.97088032e-01  3.71659080e-01  3.28125986e-01
  -3.50381627e-01 -4.16256800e-03 -4.73486911e-01 -7.62721263e-02
  -1.59141390e-01  5.55518602e-01 -4.93543740e-01  2.89680625e-01
   4.21509225e-01  6.35641398e-01  4.23089782e-01  7.09287895e-02
  -1.84787578e-01  1.83571034e-01 -4.97996409e-01 -8.02191684e-01
   4.75667293e-01 -4.45185290e-01 -7.77565597e-02 -4.89884071e-01
  -3.77716422e-01 -2.46876349e-01]
 [ 3.59055592e-01  4.32740315e-01  9.83288787e-01 -7.22327874e-01
   2.74257580e-02 -1.91769145e-01  9.85021639e-01 -3.34661443e-01
   2.88942113e-01 -2.11131624e-01  5.02846765e-01  7.77946959e-02
   5.49331351e-01 -8.10484411e-01  5.07282927e-01 -7.17792473e-01
   6.38434964e-01  8.89349900e-01  6.36571023e-01  2.31915232e-01
   5.55299111e-01 -1.34214785e-01 -8.57958514e-01  7.22978774e-01
  -1.06557644e-01  1.24467004e-01 -4.51005329e-01 -8.39340558e-01
  -3.79064230e-02 -6.86633971e-01]
 [-8.44134229e-01  3.35473608e-01 -5.00872624e-01  5.29868719e-01
  -1.41344503e-01 -6.09776409e-01  7.26493922e-01  1.83668990e-02
  -2.94075208e-02 -9.65124745e-01 -8.16541290e-01  3.70469599e-01
   8.66739795e-01  8.45987259e-01 -2.92117937e-01  8.64191690e-01
  -8.62137292e-01  3.45153513e-01 -1.33027179e-02  1.49423516e-02
  -7.36859153e-01 -5.43541298e-01  4.85562586e-01  4.65157029e-02
  -9.42007721e-01  4.54640667e-01 -4.76276324e-01  5.86573314e-01
   6.74437945e-01  3.26971874e-01]]
[[ 0.1380609  -0.58548416  0.78992053  0.91852908 -0.93820012  0.58881028
  -0.07047143]
 [-0.50713163  0.60767299  0.97712456 -0.4858633   0.41995151  0.18668813
  -0.50877731]
 [-0.28342815 -0.70594877  0.47268852 -0.97190133  0.36027494 -0.84542406
   0.51315403]
 [-0.79876529 -0.05085243 -0.1313814   0.90009205 -0.36681416  0.3568285
   0.39536472]
 [-0.33796407  0.38569272  0.1994352  -0.19438956 -0.92682346  0.86271886
  -0.1062622 ]
 [ 0.02701979 -0.29227817  0.07233978 -0.52405479 -0.31905965  0.40375459
  -0.94648067]
 [ 0.89521155 -0.74802474 -0.34536426 -0.6672065  -0.60344368  0.7401261
   0.31638156]
 [ 0.26696734 -0.24412966 -0.83880338  0.65371244 -0.45786335 -0.24563698
  -0.97302831]
 [ 0.69143701 -0.80584164 -0.26933468  0.08620823  0.18163546 -0.39136367
   0.70545879]
 [ 0.60185017  0.79194365 -0.13793777  0.53695129  0.43522655  0.67862438
   0.37574684]
 [-0.62297636 -0.69555215 -0.44881587  0.0508608   0.71411172  0.98955863
   0.56921221]
 [ 0.09916521 -0.72597958 -0.7840112  -0.9435481  -0.63128989  0.02668192
   0.51178969]
 [ 0.56198932  0.15806843 -0.66377312 -0.10696028 -0.61796087 -0.92682554
   0.31245853]
 [-0.41021857  0.49277402  0.71183346  0.03802329  0.4499855  -0.05018536
  -0.41059895]
 [ 0.91416883  0.41232944 -0.59991461 -0.34342132  0.76271456  0.53824832
  -0.82456361]
 [ 0.82711859 -0.41225381 -0.26666245 -0.56093775  0.78025352  0.49703298
  -0.95171961]
 [ 0.71164868  0.6967292  -0.60865042 -0.28919822 -0.52312018  0.83559235
   0.40354851]
 [-0.8807168   0.77872667 -0.07452557 -0.04615021  0.18692905  0.54532203
   0.71189029]
 [ 0.70939888 -0.69957129 -0.52857765  0.86663136  0.33897575  0.52940088
   0.7568897 ]
 [-0.62854792  0.18816782  0.84973431 -0.08794372  0.18940417 -0.43458396
   0.08226775]
 [-0.01379757  0.22993497 -0.15237141  0.18954213  0.01651109  0.65737125
   0.72235066]
 [ 0.45013327  0.90931447  0.46758838 -0.02288334 -0.84346397 -0.26323088
   0.53578096]
 [ 0.05138456  0.33858416  0.31773394 -0.64905882  0.46827467 -0.86481312
   0.64590357]
 [-0.38945547  0.19606528  0.49527735  0.78214244  0.76354531  0.46581908
  -0.76190681]
 [ 0.10692262 -0.22578343 -0.53315709 -0.21203068  0.34253377 -0.88965354
   0.31404185]
 [ 0.08575333 -0.95747752  0.83057499 -0.08205734 -0.94262891 -0.00439357
   0.54375273]
 [ 0.65562211  0.88031354  0.80282398  0.4670576   0.84424708  0.44294427
   0.38691071]
 [-0.85631259  0.74491357  0.97196803 -0.33956197  0.2782253  -0.5121423
   0.54300269]
 [ 0.58816847  0.39349978  0.451067    0.16117286  0.97691792  0.11008087
  -0.62118707]
 [ 0.84040301 -0.20355118  0.76858141 -0.57764385  0.79614306 -0.04131269
  -0.00422028]
 [-0.13501243  0.09591633 -0.68248152  0.87551754 -0.29535171  0.26051428
  -0.24654881]]
